{"learner":{"attributes":{"best_iteration":"249","best_ntree_limit":"250","scikit_learn":"{\"use_label_encoder\": null, \"n_estimators\": 250, \"objective\": \"binary:logistic\", \"max_depth\": 3, \"max_leaves\": null, \"max_bin\": null, \"grow_policy\": null, \"learning_rate\": 0.01, \"verbosity\": null, \"booster\": null, \"tree_method\": null, \"gamma\": null, \"min_child_weight\": null, \"max_delta_step\": null, \"subsample\": null, \"sampling_method\": null, \"colsample_bytree\": 0.8, \"colsample_bylevel\": null, \"colsample_bynode\": null, \"reg_alpha\": null, \"reg_lambda\": null, \"scale_pos_weight\": null, \"base_score\": null, \"missing\": NaN, \"num_parallel_tree\": null, \"random_state\": null, \"n_jobs\": null, \"monotone_constraints\": null, \"interaction_constraints\": null, \"importance_type\": null, \"gpu_id\": null, \"validate_parameters\": null, \"predictor\": null, \"enable_categorical\": false, \"feature_types\": null, \"max_cat_to_onehot\": null, \"max_cat_threshold\": null, \"eval_metric\": null, \"early_stopping_rounds\": null, \"callbacks\": null, \"classes_\": [0, 1], \"n_classes_\": 2, \"_estimator_type\": \"classifier\"}"},"feature_names":[],"feature_types":[],"gradient_booster":{"model":{"gbtree_model_param":{"num_parallel_tree":"1","num_trees":"250","size_leaf_vector":"0"},"tree_info":[0,0,0,0,0,0,0,0,0,0,0,0,0,0,0,0,0,0,0,0,0,0,0,0,0,0,0,0,0,0,0,0,0,0,0,0,0,0,0,0,0,0,0,0,0,0,0,0,0,0,0,0,0,0,0,0,0,0,0,0,0,0,0,0,0,0,0,0,0,0,0,0,0,0,0,0,0,0,0,0,0,0,0,0,0,0,0,0,0,0,0,0,0,0,0,0,0,0,0,0,0,0,0,0,0,0,0,0,0,0,0,0,0,0,0,0,0,0,0,0,0,0,0,0,0,0,0,0,0,0,0,0,0,0,0,0,0,0,0,0,0,0,0,0,0,0,0,0,0,0,0,0,0,0,0,0,0,0,0,0,0,0,0,0,0,0,0,0,0,0,0,0,0,0,0,0,0,0,0,0,0,0,0,0,0,0,0,0,0,0,0,0,0,0,0,0,0,0,0,0,0,0,0,0,0,0,0,0,0,0,0,0,0,0,0,0,0,0,0,0,0,0,0,0,0,0,0,0,0,0,0,0,0,0,0,0,0,0,0,0,0,0,0,0,0,0,0,0,0,0],"trees":[{"base_weights":[-5.51004E-1,1.8078603E0,-1.9140328E0,1.9067599E0,3.030303E-1,-1.4146341E0,-1.9607294E0,1.9241706E0,5.4545456E-1,-7.5E-1,1.0476191E0,-1.6056339E0,-1.3333334E-1],"categories":[],"categories_nodes":[],"categories_segments":[],"categories_sizes":[],"default_left":[1,1,1,1,1,1,0,0,0,0,0,0,0],"id":0,"left_children":[1,3,5,7,9,11,-1,-1,-1,-1,-1,-1,-1],"loss_changes":[1.0041913E3,1.646289E1,1.8378906E0,1.4924011E0,7.2543287E0,4.8028374E0,0E0,0E0,0E0,0E0,0E0,0E0,0E0],"parents":[2147483647,0,0,1,1,2,2,3,3,4,4,5,5],"right_children":[2,4,6,8,10,12,-1,-1,-1,-1,-1,-1,-1],"split_conditions":[8.8266235E1,8.629648E1,9.085226E1,3.006E3,8.6879555E1,6.4715093E-1,-1.9607292E-2,1.9241706E-2,5.4545454E-3,-7.5E-3,1.0476191E-2,-1.6056338E-2,-1.3333333E-3],"split_indices":[0,0,0,2,0,3,0,0,0,0,0,0,0],"split_type":[0,0,0,0,0,0,0,0,0,0,0,0,0],"sum_hessian":[3.1025E2,1.135E2,1.9675E2,1.0625E2,7.25E0,1.95E1,1.7725E2,1.045E2,1.75E0,3E0,4.25E0,1.675E1,2.75E0],"tree_param":{"num_deleted":"0","num_feature":"4","num_nodes":"13","size_leaf_vector":"0"}},{"base_weights":[-5.455732E-1,1.7901778E0,-1.8952539E0,1.8880937E0,3.0036658E-1,-1.4014103E0,-1.9414182E0,1.9052866E0,5.4198605E-1,-7.4438274E-1,1.0391614E0,-1.5905793E0,-1.3235563E-1],"categories":[],"categories_nodes":[],"categories_segments":[],"categories_sizes":[],"default_left":[1,1,1,1,1,1,0,0,0,0,0,0,0],"id":1,"left_children":[1,3,5,7,9,11,-1,-1,-1,-1,-1,-1,-1],"loss_changes":[9.84526E2,1.6134277E1,1.7871704E0,1.4492493E0,7.141219E0,4.7105637E0,0E0,0E0,0E0,0E0,0E0,0E0,0E0],"parents":[2147483647,0,0,1,1,2,2,3,3,4,4,5,5],"right_children":[2,4,6,8,10,12,-1,-1,-1,-1,-1,-1,-1],"split_conditions":[8.8266235E1,8.629648E1,9.085226E1,3.006E3,8.6879555E1,6.4715093E-1,-1.941418E-2,1.9052865E-2,5.41986E-3,-7.443827E-3,1.0391614E-2,-1.5905792E-2,-1.3235563E-3],"split_indices":[0,0,0,2,0,3,0,0,0,0,0,0,0],"split_type":[0,0,0,0,0,0,0,0,0,0,0,0,0],"sum_hessian":[3.1022205E2,1.1349016E2,1.9673189E2,1.0624031E2,7.2498417E0,1.9498919E1,1.7723297E2,1.04490326E2,1.749987E0,2.999958E0,4.2498837E0,1.674892E1,2.7499986E0],"tree_param":{"num_deleted":"0","num_feature":"4","num_nodes":"13","size_leaf_vector":"0"}},{"base_weights":[-5.4029137E-1,1.772969E0,-1.8769981E0,1.8699431E0,2.9773736E-1,-1.3884547E0,-1.9226593E0,1.8869288E0,5.385447E-1,-7.3882324E-1,1.0308174E0,-1.5758548E0,-1.3138527E-1],"categories":[],"categories_nodes":[],"categories_segments":[],"categories_sizes":[],"default_left":[1,1,1,1,1,1,0,0,0,0,0,0,0],"id":2,"left_children":[1,3,5,7,9,11,-1,-1,-1,-1,-1,-1,-1],"loss_changes":[9.6541736E2,1.5817993E1,1.7401733E0,1.4083557E0,7.030139E0,4.6212273E0,0E0,0E0,0E0,0E0,0E0,0E0,0E0],"parents":[2147483647,0,0,1,1,2,2,3,3,4,4,5,5],"right_children":[2,4,6,8,10,12,-1,-1,-1,-1,-1,-1,-1],"split_conditions":[8.8266235E1,8.629648E1,9.085226E1,3.006E3,8.6879555E1,6.4715093E-1,-1.9226592E-2,1.8869288E-2,5.385447E-3,-7.3882323E-3,1.03081735E-2,-1.5758548E-2,-1.3138526E-3],"split_indices":[0,0,0,2,0,3,0,0,0,0,0,0,0],"split_type":[0,0,0,0,0,0,0,0,0,0,0,0,0],"sum_hessian":[3.1013928E2,1.1346102E2,1.9667827E2,1.0621165E2,7.24937E0,1.9495718E1,1.7718254E2,1.044617E2,1.7499483E0,2.9998324E0,4.2495375E0,1.6745724E1,2.749995E0],"tree_param":{"num_deleted":"0","num_feature":"4","num_nodes":"13","size_leaf_vector":"0"}},{"base_weights":[-5.351527E-1,8.958355E-1,-1.5732965E0,1.0961416E0,-5.908693E-2,-9.6552396E-1,-1.8635783E0,9.5202965E-1,1.4509963E0,5.9527546E-1,-6.225783E-1,-4.8615935E-1,-1.208058E0,-1.8946536E0,-5.6237674E-1],"categories":[],"categories_nodes":[],"categories_segments":[],"categories_sizes":[],"default_left":[1,1,1,1,1,1,1,0,0,0,0,0,0,0,0],"id":3,"left_children":[1,3,5,7,9,11,13,-1,-1,-1,-1,-1,-1,-1,-1],"loss_changes":[4.634272E2,2.5198196E1,3.0063995E1,4.1756744E0,9.121286E0,6.4410744E0,3.8332825E0,0E0,0E0,0E0,0E0,0E0,0E0,0E0,0E0],"parents":[2147483647,0,0,1,1,2,2,3,3,4,4,5,5,6,6],"right_children":[2,4,6,8,10,12,14,-1,-1,-1,-1,-1,-1,-1,-1],"split_conditions":[1.5420625E3,1.1898071E3,2.9843335E3,2.05E1,6E0,2.0195833E3,7.4331677E-1,9.520296E-3,1.4509963E-2,5.9527545E-3,-6.225783E-3,-4.8615932E-3,-1.208058E-2,-1.8946536E-2,-5.623767E-3],"split_indices":[2,2,2,1,1,2,3,0,0,0,0,0,0,0,0],"split_type":[0,0,0,0,0,0,0,0,0,0,0,0,0,0,0],"sum_hessian":[3.1000336E2,1.3039821E2,1.7960515E2,1.0766611E2,2.2732103E1,5.9452866E1,1.2015228E2,7.9189064E1,2.8477043E1,1.0491867E1,1.2240236E1,2.098361E1,3.8469257E1,1.16904305E2,3.2479823E0],"tree_param":{"num_deleted":"0","num_feature":"4","num_nodes":"15","size_leaf_vector":"0"}},{"base_weights":[-5.300436E-1,1.7498038E0,-1.8477442E0,1.8455849E0,2.9358003E-1,-1.8570718E0,-3.770037E-1,-7.3642254E-1,1.0225197E0,-1.2523489E0,-1.8888105E0],"categories":[],"categories_nodes":[],"categories_segments":[],"categories_sizes":[],"default_left":[1,1,1,0,1,1,0,0,0,0,0],"id":4,"left_children":[1,3,5,-1,7,9,-1,-1,-1,-1,-1],"loss_changes":[9.3721265E2,1.5412811E1,2.0093384E0,0E0,6.9460907E0,1.3966064E0,0E0,0E0,0E0,0E0,0E0],"parents":[2147483647,0,0,1,1,2,2,4,4,5,5],"right_children":[2,4,6,-1,8,10,-1,-1,-1,-1,-1],"split_conditions":[8.8266235E1,8.629648E1,3.15E1,1.8455848E-2,8.6879555E1,9.013647E1,-3.7700369E-3,-7.364225E-3,1.0225197E-2,-1.2523489E-2,-1.8888105E-2],"split_indices":[0,0,1,0,0,0,0,0,0,0,0],"split_type":[0,0,0,0,0,0,0,0,0,0,0],"sum_hessian":[3.0989578E2,1.1338772E2,1.9650807E2,1.0613918E2,7.2485404E0,1.9500864E2,1.4994347E0,2.9996812E0,4.2488594E0,1.1742137E1,1.832665E2],"tree_param":{"num_deleted":"0","num_feature":"4","num_nodes":"11","size_leaf_vector":"0"}},{"base_weights":[-5.251526E-1,1.7335949E0,-1.8307714E0,1.8285253E0,2.910278E-1,-1.8400036E0,-3.7475917E-1,-7.3094386E-1,1.0143961E0,-1.2411853E0,-1.8714379E0],"categories":[],"categories_nodes":[],"categories_segments":[],"categories_sizes":[],"default_left":[1,1,1,0,1,1,0,0,0,0,0],"id":5,"left_children":[1,3,5,-1,7,9,-1,-1,-1,-1,-1],"loss_changes":[9.1939166E2,1.5122559E1,1.96344E0,0E0,6.8385353E0,1.3640747E0,0E0,0E0,0E0,0E0,0E0],"parents":[2147483647,0,0,1,1,2,2,4,4,5,5],"right_children":[2,4,6,-1,8,10,-1,-1,-1,-1,-1],"split_conditions":[8.8266235E1,8.629648E1,3.15E1,1.8285252E-2,8.6879555E1,9.013647E1,-3.7475915E-3,-7.309438E-3,1.0143961E-2,-1.2411852E-2,-1.871438E-2],"split_indices":[0,0,1,0,0,0,0,0,0,0,0],"split_type":[0,0,0,0,0,0,0,0,0,0,0],"sum_hessian":[3.0968097E2,1.1331532E2,1.9636563E2,1.0606781E2,7.2475085E0,1.9486632E2,1.4993205E0,2.9994397E0,4.248069E0,1.1738284E1,1.8312804E2],"tree_param":{"num_deleted":"0","num_feature":"4","num_nodes":"11","size_leaf_vector":"0"}},{"base_weights":[-5.203898E-1,1.7177993E0,-1.8142483E0,1.8119146E0,2.8850797E-1,-1.3434105E0,-1.8582659E0,1.8284416E0,5.202881E-1,-7.2552043E-1,1.0063783E0,-1.5286155E0,-1.0980173E-1],"categories":[],"categories_nodes":[],"categories_segments":[],"categories_sizes":[],"default_left":[1,1,1,1,1,1,0,0,0,0,0,0,0],"id":6,"left_children":[1,3,5,7,9,11,-1,-1,-1,-1,-1,-1,-1],"loss_changes":[9.020536E2,1.4842682E1,1.5903931E0,1.3323364E0,6.7328835E0,4.5085297E0,0E0,0E0,0E0,0E0,0E0,0E0,0E0],"parents":[2147483647,0,0,1,1,2,2,3,3,4,4,5,5],"right_children":[2,4,6,8,10,12,-1,-1,-1,-1,-1,-1,-1],"split_conditions":[8.8266235E1,8.629648E1,9.085226E1,3.006E3,8.6879555E1,6.4715093E-1,-1.8582659E-2,1.8284416E-2,5.202881E-3,-7.255204E-3,1.0063782E-2,-1.5286154E-2,-1.0980173E-3],"split_indices":[0,0,0,2,0,3,0,0,0,0,0,0,0],"split_type":[0,0,0,0,0,0,0,0,0,0,0,0,0],"sum_hessian":[3.0941714E2,1.1322556E2,1.9619159E2,1.0597938E2,7.246185E0,1.9468195E1,1.7672339E2,1.04230095E2,1.7492894E0,2.9991195E0,4.2470655E0,1.6718988E1,2.7492068E0],"tree_param":{"num_deleted":"0","num_feature":"4","num_nodes":"13","size_leaf_vector":"0"}},{"base_weights":[-5.157353E-1,8.6513376E-1,-1.518132E0,1.0579919E0,-5.421449E-2,-9.320081E-1,-1.7982776E0,9.192839E-1,1.3994782E0,5.787537E-1,-5.9955907E-1,-4.68211E-1,-1.1667722E0,-1.8284479E0,-5.384362E-1],"categories":[],"categories_nodes":[],"categories_segments":[],"categories_sizes":[],"default_left":[1,1,1,1,1,1,1,0,0,0,0,0,0,0,0],"id":7,"left_children":[1,3,5,7,9,11,13,-1,-1,-1,-1,-1,-1,-1,-1],"loss_changes":[4.30554E2,2.3295944E1,2.7886292E1,3.8474884E0,8.520433E0,6.019249E0,3.6047974E0,0E0,0E0,0E0,0E0,0E0,0E0,0E0,0E0],"parents":[2147483647,0,0,1,1,2,2,3,3,4,4,5,5,6,6],"right_children":[2,4,6,8,10,12,14,-1,-1,-1,-1,-1,-1,-1,-1],"split_conditions":[1.5420625E3,1.1898071E3,2.9843335E3,2.05E1,6E0,2.0195833E3,7.4331677E-1,9.192839E-3,1.3994781E-2,5.787537E-3,-5.9955907E-3,-4.6821097E-3,-1.1667722E-2,-1.828448E-2,-5.384362E-3],"split_indices":[2,2,2,1,1,2,3,0,0,0,0,0,0,0,0],"split_type":[0,0,0,0,0,0,0,0,0,0,0,0,0,0,0],"sum_hessian":[3.0910498E2,1.3006651E2,1.7903847E2,1.07388145E2,2.267837E1,5.92991E1,1.19739365E2,7.899377E1,2.8394379E1,1.04676075E1,1.2210761E1,2.0934853E1,3.8364246E1,1.1649817E2,3.241198E0],"tree_param":{"num_deleted":"0","num_feature":"4","num_nodes":"15","size_leaf_vector":"0"}},{"base_weights":[-5.1099575E-1,1.6966497E0,-1.787852E0,1.789751E0,2.8451484E-1,-1.7968297E0,-3.7078306E-1,-7.2315496E-1,9.984348E-1,-1.2136669E0,-1.8274522E0],"categories":[],"categories_nodes":[],"categories_segments":[],"categories_sizes":[],"default_left":[1,1,1,0,1,1,0,0,0,0,0],"id":8,"left_children":[1,3,5,-1,7,9,-1,-1,-1,-1,-1],"loss_changes":[8.7655756E2,1.4487457E1,1.8376465E0,0E0,6.6529355E0,1.2700806E0,0E0,0E0,0E0,0E0,0E0],"parents":[2147483647,0,0,1,1,2,2,4,4,5,5],"right_children":[2,4,6,-1,8,10,-1,-1,-1,-1,-1],"split_conditions":[8.8266235E1,8.629648E1,3.15E1,1.789751E-2,8.6879555E1,9.013647E1,-3.7078306E-3,-7.2315494E-3,9.984348E-3,-1.2136669E-2,-1.8274521E-2],"split_indices":[0,0,1,0,0,0,0,0,0,0,0],"split_type":[0,0,0,0,0,0,0,0,0,0,0],"sum_hessian":[3.0888718E2,1.1306774E2,1.9581943E2,1.0582344E2,7.2443004E0,1.9432034E2,1.4990847E0,2.9987488E0,4.2455516E0,1.1722083E1,1.8259825E2],"tree_param":{"num_deleted":"0","num_feature":"4","num_nodes":"11","size_leaf_vector":"0"}},{"base_weights":[-5.065581E-1,1.6817734E0,-1.7724423E0,1.7741406E0,2.8206736E-1,-1.7813405E0,-3.6857972E-1,1.790247E0,5.137942E-1,-7.178096E-1,9.9062234E-1,-1.2031342E0,-1.811723E0],"categories":[],"categories_nodes":[],"categories_segments":[],"categories_sizes":[],"default_left":[1,1,1,1,1,1,0,0,0,0,0,0,0],"id":9,"left_children":[1,3,5,7,9,11,-1,-1,-1,-1,-1,-1,-1],"loss_changes":[8.603628E2,1.4230377E1,1.7988892E0,1.2460632E0,6.5505924E0,1.2470093E0,0E0,0E0,0E0,0E0,0E0,0E0,0E0],"parents":[2147483647,0,0,1,1,2,2,3,3,4,4,5,5],"right_children":[2,4,6,8,10,12,-1,-1,-1,-1,-1,-1,-1],"split_conditions":[8.8266235E1,8.629648E1,3.15E1,3.006E3,8.6879555E1,9.013647E1,-3.685797E-3,1.790247E-2,5.137942E-3,-7.178096E-3,9.906223E-3,-1.2031342E-2,-1.811723E-2],"split_indices":[0,0,1,2,0,0,0,0,0,0,0,0,0],"split_type":[0,0,0,0,0,0,0,0,0,0,0,0,0],"sum_hessian":[3.085047E2,1.12938896E2,1.955658E2,1.0569644E2,7.2424545E0,1.9406685E2,1.4989436E0,1.0394762E2,1.7488284E0,2.9983182E0,4.2441363E0,1.1715243E1,1.8235161E2],"tree_param":{"num_deleted":"0","num_feature":"4","num_nodes":"13","size_leaf_vector":"0"}},{"base_weights":[-5.0221527E-1,8.4324497E-1,-1.4798429E0,1.0308652E0,-5.0877336E-2,-9.081926E-1,-1.7534245E0,8.2443684E-1,1.2483412E0,5.6697804E-1,-5.8341384E-1,-4.5535365E-1,-1.1375597E0,-1.7830286E0,-5.212292E-1],"categories":[],"categories_nodes":[],"categories_segments":[],"categories_sizes":[],"default_left":[1,1,1,1,1,1,1,0,0,0,0,0,0,0,0],"id":10,"left_children":[1,3,5,7,9,11,13,-1,-1,-1,-1,-1,-1,-1,-1],"loss_changes":[4.0779608E2,2.197918E1,2.645996E1,3.8230362E0,8.103487E0,5.727768E0,3.456726E0,0E0,0E0,0E0,0E0,0E0,0E0,0E0,0E0],"parents":[2147483647,0,0,1,1,2,2,3,3,4,4,5,5,6,6],"right_children":[2,4,6,8,10,12,14,-1,-1,-1,-1,-1,-1,-1,-1],"split_conditions":[1.5420625E3,1.1898071E3,2.9843335E3,4.2678794E-1,6E0,2.0195833E3,7.4331677E-1,8.244368E-3,1.24834115E-2,5.66978E-3,-5.8341385E-3,-4.5535364E-3,-1.1375596E-2,-1.7830286E-2,-5.212292E-3],"split_indices":[2,2,2,3,1,2,3,0,0,0,0,0,0,0,0],"split_type":[0,0,0,0,0,0,0,0,0,0,0,0,0,0,0],"sum_hessian":[3.0807776E2,1.2970656E2,1.7837122E2,1.0708351E2,2.2623047E1,5.9132713E1,1.192385E2,5.7395046E1,4.9688465E1,1.0442664E1,1.2180382E1,2.0884918E1,3.8247795E1,1.160044E2,3.234098E0],"tree_param":{"num_deleted":"0","num_feature":"4","num_nodes":"15","size_leaf_vector":"0"}},{"base_weights":[-4.9772647E-1,1.6619188E0,-1.7479151E0,1.7534034E0,2.779107E-1,-1.7566139E0,-3.7128866E-1,1.7690777E0,5.183913E-1,-7.1558553E-1,9.825852E-1,-1.18763E0,-1.7865268E0],"categories":[],"categories_nodes":[],"categories_segments":[],"categories_sizes":[],"default_left":[1,1,1,1,1,1,0,0,0,0,0,0,0],"id":11,"left_children":[1,3,5,7,9,11,-1,-1,-1,-1,-1,-1,-1],"loss_changes":[8.366179E2,1.3912262E1,1.6956177E0,1.1442871E0,6.471688E0,1.1896973E0,0E0,0E0,0E0,0E0,0E0,0E0,0E0],"parents":[2147483647,0,0,1,1,2,2,3,3,4,4,5,5],"right_children":[2,4,6,8,10,12,-1,-1,-1,-1,-1,-1,-1],"split_conditions":[8.8266235E1,8.629648E1,3.15E1,3.006E3,8.6879555E1,9.013647E1,-3.7128865E-3,1.7690776E-2,5.183913E-3,-7.155855E-3,9.825852E-3,-1.18763E-2,-1.7865269E-2],"split_indices":[0,0,1,2,0,0,0,0,0,0,0,0,0],"split_type":[0,0,0,0,0,0,0,0,0,0,0,0,0],"sum_hessian":[3.0778668E2,1.1272681E2,1.9505988E2,1.0548708E2,7.2397285E0,1.9356076E2,1.4991156E0,1.03738045E2,1.7490366E0,2.9977794E0,4.241949E0,1.1700712E1,1.8186005E2],"tree_param":{"num_deleted":"0","num_feature":"4","num_nodes":"13","size_leaf_vector":"0"}},{"base_weights":[-4.935669E-1,1.6479416E0,-1.7335097E0,1.738769E0,2.7553508E-1,-1.7421392E0,-3.6908215E-1,1.7543063E0,5.151318E-1,-7.103152E-1,9.749729E-1,-1.1775063E0,-1.7718537E0],"categories":[],"categories_nodes":[],"categories_segments":[],"categories_sizes":[],"default_left":[1,1,1,1,1,1,0,0,0,0,0,0,0],"id":12,"left_children":[1,3,5,7,9,11,-1,-1,-1,-1,-1,-1,-1],"loss_changes":[8.214847E2,1.3676514E1,1.6616211E0,1.1177368E0,6.3725486E0,1.1724854E0,0E0,0E0,0E0,0E0,0E0,0E0,0E0],"parents":[2147483647,0,0,1,1,2,2,3,3,4,4,5,5],"right_children":[2,4,6,8,10,12,-1,-1,-1,-1,-1,-1,-1],"split_conditions":[8.8266235E1,8.629648E1,3.15E1,3.006E3,8.6879555E1,9.013647E1,-3.6908214E-3,1.7543063E-2,5.1513175E-3,-7.103152E-3,9.749729E-3,-1.1775063E-2,-1.7718537E-2],"split_indices":[0,0,1,2,0,0,0,0,0,0,0,0,0],"split_type":[0,0,0,0,0,0,0,0,0,0,0,0,0],"sum_hessian":[3.0729404E2,1.1256085E2,1.947332E2,1.0532347E2,7.2373786E0,1.9323422E2,1.4989766E0,1.0357464E2,1.7488308E0,2.9972436E0,4.240135E0,1.1691938E1,1.8154228E2],"tree_param":{"num_deleted":"0","num_feature":"4","num_nodes":"13","size_leaf_vector":"0"}},{"base_weights":[-4.8950773E-1,8.2234484E-1,-1.4439516E0,1.0050048E0,-4.7758643E-2,-8.856844E-1,-1.7116039E0,8.0239415E-1,1.2186357E0,5.556706E-1,-5.680747E-1,-5.055999E-1,-1.1573495E0,-1.7648894E0,-9.2183965E-1],"categories":[],"categories_nodes":[],"categories_segments":[],"categories_sizes":[],"default_left":[1,1,1,1,1,1,1,0,0,0,0,0,0,0,0],"id":13,"left_children":[1,3,5,7,9,11,13,-1,-1,-1,-1,-1,-1,-1,-1],"loss_changes":[3.8653186E2,2.0749E1,2.515747E1,3.6836777E0,7.7108946E0,5.602108E0,3.4057007E0,0E0,0E0,0E0,0E0,0E0,0E0,0E0,0E0],"parents":[2147483647,0,0,1,1,2,2,3,3,4,4,5,5,6,6],"right_children":[2,4,6,8,10,12,14,-1,-1,-1,-1,-1,-1,-1,-1],"split_conditions":[1.5420625E3,1.1898071E3,2.9843335E3,4.2678794E-1,6E0,3.5E0,6.5665334E-1,8.023941E-3,1.2186357E-2,5.556706E-3,-5.680747E-3,-5.055999E-3,-1.1573494E-2,-1.7648892E-2,-9.218397E-3],"split_indices":[2,2,2,3,1,1,3,0,0,0,0,0,0,0,0],"split_type":[0,0,0,0,0,0,0,0,0,0,0,0,0,0,0],"sum_hessian":[3.0676108E2,1.2924979E2,1.7751129E2,1.0669613E2,2.255365E1,5.8921764E1,1.1858952E2,5.720143E1,4.94947E1,1.041132E1,1.214233E1,2.575261E1,3.3169155E1,1.0993735E2,8.652183E0],"tree_param":{"num_deleted":"0","num_feature":"4","num_nodes":"15","size_leaf_vector":"0"}},{"base_weights":[-4.8525596E-1,1.6293474E0,-1.7107178E0,1.7193463E0,2.721564E-1,-1.7191668E0,-3.716575E-1,-7.0762455E-1,9.6780986E-1,-1.1629332E0,-1.7484659E0],"categories":[],"categories_nodes":[],"categories_segments":[],"categories_sizes":[],"default_left":[1,1,1,0,1,1,0,0,0,0,0],"id":14,"left_children":[1,3,5,-1,7,9,-1,-1,-1,-1,-1],"loss_changes":[7.993866E2,1.3370972E1,1.5684814E0,0E0,6.2969966E0,1.1219482E0,0E0,0E0,0E0,0E0,0E0],"parents":[2147483647,0,0,1,1,2,2,4,4,5,5],"right_children":[2,4,6,-1,8,10,-1,-1,-1,-1,-1],"split_conditions":[8.8266235E1,8.629648E1,3.15E1,1.7193463E-2,8.6879555E1,9.013647E1,-3.7165747E-3,-7.0762453E-3,9.678098E-3,-1.1629332E-2,-1.748466E-2],"split_indices":[0,0,1,0,0,0,0,0,0,0,0],"split_type":[0,0,0,0,0,0,0,0,0,0,0],"sum_hessian":[3.0640518E2,1.122984E2,1.941068E2,1.0506447E2,7.2339344E0,1.9260765E2,1.4991378E0,2.996441E0,4.2374935E0,1.1673951E1,1.809337E2],"tree_param":{"num_deleted":"0","num_feature":"4","num_nodes":"11","size_leaf_vector":"0"}},{"base_weights":[-4.8137817E-1,7.118566E-1,-1.4979525E0,9.881391E-1,-1.4708017E-1,-1.6486654E0,-8.181256E-1,7.881381E-1,1.199174E0,6.4096504E-1,-7.4817663E-1,-9.34623E-1,-1.7174903E0,4.3364972E-1,-1.0487903E0],"categories":[],"categories_nodes":[],"categories_segments":[],"categories_sizes":[],"default_left":[1,1,1,1,1,1,1,0,0,0,0,0,0,0,0],"id":15,"left_children":[1,3,5,7,9,11,13,-1,-1,-1,-1,-1,-1,-1,-1],"loss_changes":[3.7323456E2,3.3800674E1,1.56586E1,3.5894165E0,1.724152E1,5.0236206E0,9.725319E0,0E0,0E0,0E0,0E0,0E0,0E0,0E0,0E0],"parents":[2147483647,0,0,1,1,2,2,3,3,4,4,5,5,6,6],"right_children":[2,4,6,8,10,12,14,-1,-1,-1,-1,-1,-1,-1,-1],"split_conditions":[1.8366667E3,1.1898071E3,5.678484E-1,4.2678794E-1,5.5E0,3.9883065E-1,6.7455435E-1,7.881381E-3,1.199174E-2,6.40965E-3,-7.4817664E-3,-9.34623E-3,-1.7174903E-2,4.3364973E-3,-1.0487903E-2],"split_indices":[2,2,3,3,1,3,3,0,0,0,0,0,0,0,0],"split_type":[0,0,0,0,0,0,0,0,0,0,0,0,0,0,0],"sum_hessian":[3.0581335E2,1.4082063E2,1.6499272E2,1.06434784E2,3.4385845E1,1.3388599E2,3.1106724E1,5.707684E1,4.935794E1,1.4850424E1,1.9535423E1,1.3052202E1,1.20833786E2,4.703218E0,2.6403505E1],"tree_param":{"num_deleted":"0","num_feature":"4","num_nodes":"15","size_leaf_vector":"0"}},{"base_weights":[-4.7724932E-1,1.6110338E0,-1.6887031E0,1.700229E0,2.6889512E-1,-1.6969807E0,-3.7413466E-1,-7.048426E-1,9.6077555E-1,-1.1482893E0,-1.7259226E0],"categories":[],"categories_nodes":[],"categories_segments":[],"categories_sizes":[],"default_left":[1,1,1,0,1,1,0,0,0,0,0],"id":16,"left_children":[1,3,5,-1,7,9,-1,-1,-1,-1,-1],"loss_changes":[7.7788556E2,1.3070923E1,1.4804688E0,0E0,6.221753E0,1.0814819E0,0E0,0E0,0E0,0E0,0E0],"parents":[2147483647,0,0,1,1,2,2,4,4,5,5],"right_children":[2,4,6,-1,8,10,-1,-1,-1,-1,-1],"split_conditions":[8.8266235E1,8.629648E1,3.15E1,1.700229E-2,8.6879555E1,9.013647E1,-3.7413465E-3,-7.048426E-3,9.607756E-3,-1.1482893E-2,-1.7259225E-2],"split_indices":[0,0,1,0,0,0,0,0,0,0,0],"split_type":[0,0,0,0,0,0,0,0,0,0,0],"sum_hessian":[3.054065E2,1.1200477E2,1.9340173E2,1.0477488E2,7.229887E0,1.9190245E2,1.4992794E0,2.9954374E0,4.23445E0,1.1653154E1,1.802493E2],"tree_param":{"num_deleted":"0","num_feature":"4","num_nodes":"11","size_leaf_vector":"0"}},{"base_weights":[-4.7352841E-1,1.5981793E0,-1.6757293E0,1.6868142E0,2.6661643E-1,-1.6839525E0,-3.719092E-1,-6.996785E-1,9.5343304E-1,-1.1387604E0,-1.712754E0],"categories":[],"categories_nodes":[],"categories_segments":[],"categories_sizes":[],"default_left":[1,1,1,0,1,1,0,0,0,0,0],"id":17,"left_children":[1,3,5,-1,7,9,-1,-1,-1,-1,-1],"loss_changes":[7.641998E2,1.2861847E1,1.4533691E0,0E0,6.126993E0,1.0718384E0,0E0,0E0,0E0,0E0,0E0],"parents":[2147483647,0,0,1,1,2,2,4,4,5,5],"right_children":[2,4,6,-1,8,10,-1,-1,-1,-1,-1],"split_conditions":[8.8266235E1,8.629648E1,3.15E1,1.6868142E-2,8.6879555E1,9.013647E1,-3.7190919E-3,-6.996785E-3,9.53433E-3,-1.1387604E-2,-1.712754E-2],"split_indices":[0,0,1,0,0,0,0,0,0,0,0],"split_type":[0,0,0,0,0,0,0,0,0,0,0],"sum_hessian":[3.0475723E2,1.11787926E2,1.9296931E2,1.0456107E2,7.2268567E0,1.9147017E2,1.4991528E0,2.9947548E0,4.232102E0,1.1641584E1,1.7982858E2],"tree_param":{"num_deleted":"0","num_feature":"4","num_nodes":"11","size_leaf_vector":"0"}},{"base_weights":[-4.698932E-1,1.5856144E0,-1.6630567E0,1.6737125E0,2.6436502E-1,-1.6712283E0,-3.6969855E-1,1.6888111E0,4.9503592E-1,-6.9456434E-1,9.461791E-1,-1.12937E0,-1.6999007E0],"categories":[],"categories_nodes":[],"categories_segments":[],"categories_sizes":[],"default_left":[1,1,1,1,1,1,0,0,0,0,0,0,0],"id":18,"left_children":[1,3,5,7,9,11,-1,-1,-1,-1,-1,-1,-1],"loss_changes":[7.508456E2,1.2659271E1,1.4273071E0,1.0385132E0,6.033858E0,1.0634766E0,0E0,0E0,0E0,0E0,0E0,0E0,0E0],"parents":[2147483647,0,0,1,1,2,2,3,3,4,4,5,5],"right_children":[2,4,6,8,10,12,-1,-1,-1,-1,-1,-1,-1],"split_conditions":[8.8266235E1,8.629648E1,3.15E1,3.006E3,8.6879555E1,9.013647E1,-3.6969855E-3,1.688811E-2,4.950359E-3,-6.945643E-3,9.46179E-3,-1.1293699E-2,-1.6999006E-2],"split_indices":[0,0,1,2,0,0,0,0,0,0,0,0,0],"split_type":[0,0,0,0,0,0,0,0,0,0,0,0,0],"sum_hessian":[3.0407288E2,1.11558304E2,1.9251457E2,1.0433472E2,7.223585E0,1.9101556E2,1.4990165E0,1.025878E2,1.7469205E0,2.9940038E0,4.2295814E0,1.16293745E1,1.7938618E2],"tree_param":{"num_deleted":"0","num_feature":"4","num_nodes":"13","size_leaf_vector":"0"}},{"base_weights":[-4.6632555E-1,1.5733927E0,-1.650675E0,1.6609821E0,2.621403E-1,-1.2838528E0,-1.7014552E0,1.6759783E0,4.91952E-1,-6.8949956E-1,9.3901175E-1,-1.4394692E0,-3.41065E-1],"categories":[],"categories_nodes":[],"categories_segments":[],"categories_sizes":[],"default_left":[1,1,1,1,1,1,0,0,0,0,0,0,0],"id":19,"left_children":[1,3,5,7,9,11,-1,-1,-1,-1,-1,-1,-1],"loss_changes":[7.3783545E2,1.2464142E1,1.411377E0,1.0179138E0,5.9423122E0,3.5506554E0,0E0,0E0,0E0,0E0,0E0,0E0,0E0],"parents":[2147483647,0,0,1,1,2,2,3,3,4,4,5,5],"right_children":[2,4,6,8,10,12,-1,-1,-1,-1,-1,-1,-1],"split_conditions":[8.8266235E1,8.629648E1,9.119867E1,3.006E3,8.6879555E1,5.83925E-1,-1.7014552E-2,1.6759783E-2,4.91952E-3,-6.8949955E-3,9.390118E-3,-1.4394692E-2,-3.4106497E-3],"split_indices":[0,0,0,2,0,3,0,0,0,0,0,0,0],"split_type":[0,0,0,0,0,0,0,0,0,0,0,0,0],"sum_hessian":[3.0335333E2,1.1131506E2,1.9203827E2,1.04094986E2,7.220079E0,2.6547678E1,1.6549059E2,1.0234842E2,1.7465636E0,2.993186E0,4.226893E0,2.233435E1,4.2133265E0],"tree_param":{"num_deleted":"0","num_feature":"4","num_nodes":"13","size_leaf_vector":"0"}},{"base_weights":[-4.6284646E-1,1.5614407E0,-1.6385807E0,1.6485431E0,2.599417E-1,-1.6467463E0,-3.58191E-1,1.6634424E0,4.8889074E-1,-6.8448335E-1,9.319292E-1,-1.1104072E0,-1.6752324E0],"categories":[],"categories_nodes":[],"categories_segments":[],"categories_sizes":[],"default_left":[1,1,1,1,1,1,0,0,0,0,0,0,0],"id":20,"left_children":[1,3,5,7,9,11,-1,-1,-1,-1,-1,-1,-1],"loss_changes":[7.251387E2,1.2275024E1,1.4231567E0,9.9823E-1,5.852325E0,1.0585938E0,0E0,0E0,0E0,0E0,0E0,0E0,0E0],"parents":[2147483647,0,0,1,1,2,2,3,3,4,4,5,5],"right_children":[2,4,6,8,10,12,-1,-1,-1,-1,-1,-1,-1],"split_conditions":[8.8266235E1,8.629648E1,3.15E1,3.006E3,8.6879555E1,9.013647E1,-3.5819102E-3,1.6634423E-2,4.888907E-3,-6.8448335E-3,9.319291E-3,-1.1104072E-2,-1.6752323E-2],"split_indices":[0,0,1,2,0,0,0,0,0,0,0,0,0],"split_type":[0,0,0,0,0,0,0,0,0,0,0,0,0],"sum_hessian":[3.0260208E2,1.1105985E2,1.9154222E2,1.03843506E2,7.2163444E0,1.9004408E2,1.4981306E0,1.0209732E2,1.7461878E0,2.9923036E0,4.224041E0,1.1600961E1,1.7844313E2],"tree_param":{"num_deleted":"0","num_feature":"4","num_nodes":"13","size_leaf_vector":"0"}},{"base_weights":[-4.5943564E-1,6.805546E-1,-1.4339644E0,9.126873E-1,-2.4523754E-1,-1.5807233E0,-7.7460504E-1,7.033503E-1,1.1487632E0,5.2891713E-1,-9.5645154E-1,-8.899707E-1,-1.6475109E0,4.1675186E-1,-9.9486154E-1],"categories":[],"categories_nodes":[],"categories_segments":[],"categories_sizes":[],"default_left":[1,1,1,1,1,1,1,0,0,0,0,0,0,0,0],"id":21,"left_children":[1,3,5,7,9,11,13,-1,-1,-1,-1,-1,-1,-1,-1],"loss_changes":[3.3739267E2,3.0362206E1,1.4604584E1,4.7436447E0,1.6419264E1,4.662018E0,8.743696E0,0E0,0E0,0E0,0E0,0E0,0E0,0E0,0E0],"parents":[2147483647,0,0,1,1,2,2,3,3,4,4,5,5,6,6],"right_children":[2,4,6,8,10,12,14,-1,-1,-1,-1,-1,-1,-1,-1],"split_conditions":[1.8366667E3,1.2977976E3,5.678484E-1,4.2678794E-1,5.5E0,3.9883065E-1,6.7455435E-1,7.0335027E-3,1.1487631E-2,5.2891714E-3,-9.564515E-3,-8.899707E-3,-1.647511E-2,4.1675186E-3,-9.948615E-3],"split_indices":[2,2,3,3,1,3,3,0,0,0,0,0,0,0,0],"split_type":[0,0,0,0,0,0,0,0,0,0,0,0,0,0,0],"sum_hessian":[3.018181E2,1.3923943E2,1.625787E2,1.1133699E2,2.7902433E1,1.3183725E2,3.0741444E1,6.1119476E1,5.0217518E1,1.34827795E1,1.4419655E1,1.2886252E1,1.18951004E2,4.657442E0,2.6084002E1],"tree_param":{"num_deleted":"0","num_feature":"4","num_nodes":"15","size_leaf_vector":"0"}},{"base_weights":[-4.5568705E-1,1.545288E0,-1.6193675E0,1.6318102E0,2.5629383E-1,-1.2572188E0,-1.6696593E0,-6.814657E-1,9.2420346E-1,-1.4113386E0,-3.2864943E-1],"categories":[],"categories_nodes":[],"categories_segments":[],"categories_sizes":[],"default_left":[1,1,1,0,1,1,0,0,0,0,0],"id":22,"left_children":[1,3,5,-1,7,9,-1,-1,-1,-1,-1],"loss_changes":[7.0640424E2,1.2036011E1,1.3910217E0,0E0,5.7724137E0,3.4595222E0,0E0,0E0,0E0,0E0,0E0],"parents":[2147483647,0,0,1,1,2,2,4,4,5,5],"right_children":[2,4,6,-1,8,10,-1,-1,-1,-1,-1],"split_conditions":[8.8266235E1,8.629648E1,9.119867E1,1.6318101E-2,8.6879555E1,5.83925E-1,-1.6696593E-2,-6.814657E-3,9.2420345E-3,-1.4113385E-2,-3.2864942E-3],"split_indices":[0,0,0,0,0,3,0,0,0,0,0],"split_type":[0,0,0,0,0,0,0,0,0,0,0],"sum_hessian":[3.0129898E2,1.1067053E2,1.9062843E2,1.0345996E2,7.2105765E0,2.6414825E1,1.6421361E2,2.9909382E0,4.2196383E0,2.2208803E1,4.2060227E0],"tree_param":{"num_deleted":"0","num_feature":"4","num_nodes":"11","size_leaf_vector":"0"}},{"base_weights":[-4.5242876E-1,6.6990405E-1,-1.4138753E0,8.9836895E-1,-2.4079047E-1,-1.559393E0,-7.616206E-1,6.9177306E-1,1.1315768E0,5.2184826E-1,-9.4217235E-1,-8.757116E-1,-1.6256591E0,4.106384E-1,-9.786807E-1],"categories":[],"categories_nodes":[],"categories_segments":[],"categories_sizes":[],"default_left":[1,1,1,1,1,1,1,0,0,0,0,0,0,0,0],"id":23,"left_children":[1,3,5,7,9,11,13,-1,-1,-1,-1,-1,-1,-1,-1],"loss_changes":[3.262525E2,2.9298264E1,1.4254425E1,4.6111298E0,1.590827E1,4.5595093E0,8.450418E0,0E0,0E0,0E0,0E0,0E0,0E0,0E0,0E0],"parents":[2147483647,0,0,1,1,2,2,3,3,4,4,5,5,6,6],"right_children":[2,4,6,8,10,12,14,-1,-1,-1,-1,-1,-1,-1,-1],"split_conditions":[1.8366667E3,1.2977976E3,5.678484E-1,4.2678794E-1,5.5E0,3.9883065E-1,6.7455435E-1,6.9177304E-3,1.1315768E-2,5.2184826E-3,-9.421723E-3,-8.757116E-3,-1.6256591E-2,4.106384E-3,-9.786806E-3],"split_indices":[2,2,3,3,1,3,3,0,0,0,0,0,0,0,0],"split_type":[0,0,0,0,0,0,0,0,0,0,0,0,0,0,0],"sum_hessian":[3.0047018E2,1.3877551E2,1.6169466E2,1.1095411E2,2.7821405E1,1.3106364E2,3.0631021E1,6.093706E1,5.001705E1,1.3451288E1,1.4370116E1,1.2836951E1,1.1822669E2,4.646301E0,2.598472E1],"tree_param":{"num_deleted":"0","num_feature":"4","num_nodes":"15","size_leaf_vector":"0"}},{"base_weights":[-4.487909E-1,1.529613E0,-1.6009489E0,1.6155896E0,2.5272074E-1,-1.2422909E0,-1.6508454E0,-6.784674E-1,9.166269E-1,-1.394598E0,-3.2684296E-1],"categories":[],"categories_nodes":[],"categories_segments":[],"categories_sizes":[],"default_left":[1,1,1,0,1,1,0,0,0,0,0],"id":24,"left_children":[1,3,5,-1,7,9,-1,-1,-1,-1,-1],"loss_changes":[6.883716E2,1.1806122E1,1.3611145E0,0E0,5.69396E0,3.3541756E0,0E0,0E0,0E0,0E0,0E0],"parents":[2147483647,0,0,1,1,2,2,4,4,5,5],"right_children":[2,4,6,-1,8,10,-1,-1,-1,-1,-1],"split_conditions":[8.8266235E1,8.629648E1,9.119867E1,1.6155897E-2,8.6879555E1,5.83925E-1,-1.6508454E-2,-6.784674E-3,9.166269E-3,-1.394598E-2,-3.2684295E-3],"split_indices":[0,0,0,0,0,3,0,0,0,0,0],"split_type":[0,0,0,0,0,0,0,0,0,0,0],"sum_hessian":[2.99918E2,1.1025991E2,1.8965808E2,1.0305563E2,7.2042737E0,2.6325623E1,1.6333246E2,2.9894161E0,4.2148576E0,2.2121727E1,4.2038956E0],"tree_param":{"num_deleted":"0","num_feature":"4","num_nodes":"11","size_leaf_vector":"0"}},{"base_weights":[-4.4565475E-1,6.5952116E-1,-1.3945487E0,9.1481084E-1,-1.3236779E-1,-1.5389404E0,-7.48981E-1,7.870576E-1,1.2310128E0,6.058901E-1,-6.968307E-1,-8.618232E-1,-1.6047475E0,6.707855E-1,-9.180957E-1],"categories":[],"categories_nodes":[],"categories_segments":[],"categories_sizes":[],"default_left":[1,1,1,1,1,1,1,0,0,0,0,0,0,0,0],"id":25,"left_children":[1,3,5,7,9,11,13,-1,-1,-1,-1,-1,-1,-1,-1],"loss_changes":[3.1557486E2,2.8279476E1,1.3925507E1,3.2911377E0,1.4936569E1,4.4651184E0,8.1826515E0,0E0,0E0,0E0,0E0,0E0,0E0,0E0,0E0],"parents":[2147483647,0,0,1,1,2,2,3,3,4,4,5,5,6,6],"right_children":[2,4,6,8,10,12,14,-1,-1,-1,-1,-1,-1,-1,-1],"split_conditions":[1.8366667E3,1.1898071E3,5.678484E-1,2.05E1,5.5E0,3.9883065E-1,6.625447E-1,7.870575E-3,1.2310128E-2,6.0589006E-3,-6.968307E-3,-8.618232E-3,-1.6047476E-2,6.7078546E-3,-9.1809565E-3],"split_indices":[2,2,3,1,1,3,3,0,0,0,0,0,0,0,0],"split_type":[0,0,0,0,0,0,0,0,0,0,0,0,0,0,0],"sum_hessian":[2.9904456E2,1.382869E2,1.6075768E2,1.0445682E2,3.3830086E1,1.3024289E2,3.0514788E1,7.6883224E1,2.7573593E1,1.4626619E1,1.9203466E1,1.2785347E1,1.17457535E2,2.9321444E0,2.7582644E1],"tree_param":{"num_deleted":"0","num_feature":"4","num_nodes":"15","size_leaf_vector":"0"}},{"base_weights":[-4.4209185E-1,1.5145006E0,-1.5832632E0,1.5999197E0,2.5001636E-1,-1.2279763E0,-1.6327837E0,1.6142546E0,4.851204E-1,-6.756744E-1,9.105185E-1,-7.60435E-1,-1.4604325E0],"categories":[],"categories_nodes":[],"categories_segments":[],"categories_sizes":[],"default_left":[1,1,1,1,1,1,0,0,0,0,0,0,0],"id":26,"left_children":[1,3,5,7,9,11,-1,-1,-1,-1,-1,-1,-1],"loss_changes":[6.7103925E2,1.1570709E1,1.3313904E0,8.7298584E-1,5.627774E0,1.8490334E0,0E0,0E0,0E0,0E0,0E0,0E0,0E0],"parents":[2147483647,0,0,1,1,2,2,3,3,4,4,5,5],"right_children":[2,4,6,8,10,12,-1,-1,-1,-1,-1,-1,-1],"split_conditions":[8.8266235E1,8.629648E1,9.119867E1,3.006E3,8.6879555E1,1.8632E3,-1.6327836E-2,1.6142545E-2,4.851204E-3,-6.7567434E-3,9.105185E-3,-7.60435E-3,-1.4604325E-2],"split_indices":[0,0,0,2,0,2,0,0,0,0,0,0,0],"split_type":[0,0,0,0,0,0,0,0,0,0,0,0,0],"sum_hessian":[2.984622E2,1.09828636E2,1.8863356E2,1.0263042E2,7.198216E0,2.6231516E1,1.6240204E2,1.0088514E2,1.7452774E0,2.987824E0,4.210392E0,1.012942E1,1.6102097E1],"tree_param":{"num_deleted":"0","num_feature":"4","num_nodes":"13","size_leaf_vector":"0"}},{"base_weights":[-4.3907517E-1,1.5038048E0,-1.5726928E0,1.5888412E0,2.4794154E-1,-1.218954E0,-1.6220695E0,1.6031058E0,4.8210987E-1,-6.707906E-1,9.0376836E-1,-1.3699999E0,-3.1648117E-1],"categories":[],"categories_nodes":[],"categories_segments":[],"categories_sizes":[],"default_left":[1,1,1,1,1,1,0,0,0,0,0,0,0],"id":27,"left_children":[1,3,5,7,9,11,-1,-1,-1,-1,-1,-1,-1],"loss_changes":[6.5990424E2,1.1408722E1,1.3244019E0,8.583069E-1,5.543167E0,3.2710876E0,0E0,0E0,0E0,0E0,0E0,0E0,0E0],"parents":[2147483647,0,0,1,1,2,2,3,3,4,4,5,5],"right_children":[2,4,6,8,10,12,-1,-1,-1,-1,-1,-1,-1],"split_conditions":[8.8266235E1,8.629648E1,9.119867E1,3.006E3,8.6879555E1,5.83925E-1,-1.6220694E-2,1.6031057E-2,4.8210984E-3,-6.707906E-3,9.037684E-3,-1.3699998E-2,-3.1648118E-3],"split_indices":[0,0,0,2,0,3,0,0,0,0,0,0,0],"split_type":[0,0,0,0,0,0,0,0,0,0,0,0,0],"sum_hessian":[2.9754453E2,1.095179E2,1.8802664E2,1.0232422E2,7.193674E0,2.6177267E1,1.6184937E2,1.0057936E2,1.7448605E0,2.9867668E0,4.2069073E0,2.1980383E1,4.196884E0],"tree_param":{"num_deleted":"0","num_feature":"4","num_nodes":"13","size_leaf_vector":"0"}},{"base_weights":[-4.36103E-1,1.493328E0,-1.562312E0,1.5779991E0,2.4589032E-1,-1.2098497E0,-1.6115919E0,1.5921975E0,4.7912133E-1,-6.6595256E-1,8.9709425E-1,-1.3600916E0,-3.1400678E-1],"categories":[],"categories_nodes":[],"categories_segments":[],"categories_sizes":[],"default_left":[1,1,1,1,1,1,0,0,0,0,0,0,0],"id":28,"left_children":[1,3,5,7,9,11,-1,-1,-1,-1,-1,-1,-1],"loss_changes":[6.490044E2,1.1251251E1,1.3226624E0,8.4432983E-1,5.459975E0,3.223381E0,0E0,0E0,0E0,0E0,0E0,0E0,0E0],"parents":[2147483647,0,0,1,1,2,2,3,3,4,4,5,5],"right_children":[2,4,6,8,10,12,-1,-1,-1,-1,-1,-1,-1],"split_conditions":[8.8266235E1,8.629648E1,9.119867E1,3.006E3,8.6879555E1,5.83925E-1,-1.6115919E-2,1.5921975E-2,4.791213E-3,-6.6595254E-3,8.970942E-3,-1.3600916E-2,-3.1400677E-3],"split_indices":[0,0,0,2,0,3,0,0,0,0,0,0,0],"split_type":[0,0,0,0,0,0,0,0,0,0,0,0,0],"sum_hessian":[2.9660168E2,1.0919754E2,1.8740413E2,1.02008606E2,7.1889324E0,2.6122204E1,1.6128192E2,1.0026418E2,1.7444261E0,2.9856508E0,4.2032814E0,2.192666E1,4.195544E0],"tree_param":{"num_deleted":"0","num_feature":"4","num_nodes":"13","size_leaf_vector":"0"}},{"base_weights":[-4.3319198E-1,1.4830633E0,-1.5521474E0,1.5673857E0,2.438623E-1,-1.5601965E0,-3.2887694E-1,1.581522E0,4.7615474E-1,-6.611596E-1,8.904947E-1,-1.0436996E0,-1.5880523E0],"categories":[],"categories_nodes":[],"categories_segments":[],"categories_sizes":[],"default_left":[1,1,1,1,1,1,0,0,0,0,0,0,0],"id":29,"left_children":[1,3,5,7,9,11,-1,-1,-1,-1,-1,-1,-1],"loss_changes":[6.383456E2,1.1098129E1,1.3356323E0,8.309479E-1,5.378168E0,1.0225525E0,0E0,0E0,0E0,0E0,0E0,0E0,0E0],"parents":[2147483647,0,0,1,1,2,2,3,3,4,4,5,5],"right_children":[2,4,6,8,10,12,-1,-1,-1,-1,-1,-1,-1],"split_conditions":[8.8266235E1,8.629648E1,3.15E1,3.006E3,8.6879555E1,9.013647E1,-3.2887694E-3,1.5815219E-2,4.7615473E-3,-6.6115954E-3,8.904947E-3,-1.0436996E-2,-1.5880523E-2],"split_indices":[0,0,1,2,0,0,0,0,0,0,0,0,0],"split_type":[0,0,0,0,0,0,0,0,0,0,0,0,0],"sum_hessian":[2.9563388E2,1.0886791E2,1.8676598E2,1.01683914E2,7.183995E0,1.8527147E2,1.4945068E0,9.993994E1,1.7439747E0,2.984477E0,4.1995177E0,1.1449249E1,1.7382222E2],"tree_param":{"num_deleted":"0","num_feature":"4","num_nodes":"13","size_leaf_vector":"0"}},{"base_weights":[-4.3032998E-1,1.4730039E0,-1.5421764E0,1.5569936E0,2.4185696E-1,-1.1910583E0,-1.5914514E0,1.5710719E0,4.7320953E-1,-6.56411E-1,8.839682E-1,-7.2549546E-1,-1.4255087E0],"categories":[],"categories_nodes":[],"categories_segments":[],"categories_sizes":[],"default_left":[1,1,1,1,1,1,0,0,0,0,0,0,0],"id":30,"left_children":[1,3,5,7,9,11,-1,-1,-1,-1,-1,-1,-1],"loss_changes":[6.2791376E2,1.0949188E1,1.3418274E0,8.181915E-1,5.2977195E0,1.9131126E0,0E0,0E0,0E0,0E0,0E0,0E0,0E0],"parents":[2147483647,0,0,1,1,2,2,3,3,4,4,5,5],"right_children":[2,4,6,8,10,12,-1,-1,-1,-1,-1,-1,-1],"split_conditions":[8.8266235E1,8.629648E1,9.119867E1,3.006E3,8.6879555E1,1.8632E3,-1.5914513E-2,1.5710719E-2,4.732095E-3,-6.5641096E-3,8.839682E-3,-7.2549544E-3,-1.4255087E-2],"split_indices":[0,0,0,2,0,2,0,0,0,0,0,0,0],"split_type":[0,0,0,0,0,0,0,0,0,0,0,0,0],"sum_hessian":[2.9464206E2,1.0852935E2,1.861127E2,1.0135048E2,7.1788683E0,2.6002062E1,1.6011064E2,9.960697E1,1.7435062E0,2.9832475E0,4.195621E0,1.0080012E1,1.592205E1],"tree_param":{"num_deleted":"0","num_feature":"4","num_nodes":"13","size_leaf_vector":"0"}},{"base_weights":[-4.275528E-1,1.4631435E0,-1.5324515E0,1.546816E0,2.3987405E-1,-1.1825625E0,-1.5816376E0,1.56084E0,4.7028586E-1,-6.517059E-1,8.775134E-1,-7.1947414E-1,-1.416351E0],"categories":[],"categories_nodes":[],"categories_segments":[],"categories_sizes":[],"default_left":[1,1,1,1,1,1,0,0,0,0,0,0,0],"id":31,"left_children":[1,3,5,7,9,11,-1,-1,-1,-1,-1,-1,-1],"loss_changes":[6.1772644E2,1.08042145E1,1.3382568E0,8.06015E-1,5.2186007E0,1.8979111E0,0E0,0E0,0E0,0E0,0E0,0E0,0E0],"parents":[2147483647,0,0,1,1,2,2,3,3,4,4,5,5],"right_children":[2,4,6,8,10,12,-1,-1,-1,-1,-1,-1,-1],"split_conditions":[8.8266235E1,8.629648E1,9.119867E1,3.006E3,8.6879555E1,1.8632E3,-1.5816376E-2,1.56084E-2,4.7028586E-3,-6.517059E-3,8.775134E-3,-7.194741E-3,-1.4163509E-2],"split_indices":[0,0,0,2,0,2,0,0,0,0,0,0,0],"split_type":[0,0,0,0,0,0,0,0,0,0,0,0,0],"sum_hessian":[2.936271E2,1.0818218E2,1.8544493E2,1.0100862E2,7.1735573E0,2.5942612E1,1.5950232E2,9.92656E1,1.7430214E0,2.9819632E0,4.191594E0,1.0071143E1,1.5871469E1],"tree_param":{"num_deleted":"0","num_feature":"4","num_nodes":"13","size_leaf_vector":"0"}},{"base_weights":[-4.248309E-1,1.4534755E0,-1.5229224E0,1.5368459E0,2.3791304E-1,-1.1741873E0,-1.5720322E0,1.5508194E0,4.6738324E-1,-6.4704394E-1,8.711288E-1,-1.325007E0,-2.8603253E-1],"categories":[],"categories_nodes":[],"categories_segments":[],"categories_sizes":[],"default_left":[1,1,1,1,1,1,0,0,0,0,0,0,0],"id":32,"left_children":[1,3,5,7,9,11,-1,-1,-1,-1,-1,-1,-1],"loss_changes":[6.0775836E2,1.0663071E1,1.3356018E0,7.943878E-1,5.1407876E0,3.221878E0,0E0,0E0,0E0,0E0,0E0,0E0,0E0],"parents":[2147483647,0,0,1,1,2,2,3,3,4,4,5,5],"right_children":[2,4,6,8,10,12,-1,-1,-1,-1,-1,-1,-1],"split_conditions":[8.8266235E1,8.629648E1,9.119867E1,3.006E3,8.6879555E1,5.83925E-1,-1.572032E-2,1.55081935E-2,4.673832E-3,-6.4704395E-3,8.711288E-3,-1.325007E-2,-2.8603252E-3],"split_indices":[0,0,0,2,0,3,0,0,0,0,0,0,0],"split_type":[0,0,0,0,0,0,0,0,0,0,0,0,0],"sum_hessian":[2.9259006E2,1.0782673E2,1.8476332E2,1.0065866E2,7.1680675E0,2.5881964E1,1.5888135E2,9.891614E1,1.7425203E0,2.9806259E0,4.187442E0,2.1704422E1,4.1775413E0],"tree_param":{"num_deleted":"0","num_feature":"4","num_nodes":"13","size_leaf_vector":"0"}},{"base_weights":[-4.2214465E-1,1.4439944E0,-1.5135523E0,1.5270772E0,2.3597363E-1,-1.5217007E0,-3.0498046E-1,1.5410037E0,4.645015E-1,-6.424243E-1,8.64813E-1,-1.0104761E0,-1.5495679E0],"categories":[],"categories_nodes":[],"categories_segments":[],"categories_sizes":[],"default_left":[1,1,1,1,1,1,0,0,0,0,0,0,0],"id":33,"left_children":[1,3,5,7,9,11,-1,-1,-1,-1,-1,-1,-1],"loss_changes":[5.979911E2,1.0525635E1,1.3584595E0,7.832489E-1,5.064254E0,1.0494995E0,0E0,0E0,0E0,0E0,0E0,0E0,0E0],"parents":[2147483647,0,0,1,1,2,2,3,3,4,4,5,5],"right_children":[2,4,6,8,10,12,-1,-1,-1,-1,-1,-1,-1],"split_conditions":[8.8266235E1,8.629648E1,3.15E1,3.006E3,8.6879555E1,9.013647E1,-3.0498046E-3,1.5410037E-2,4.645015E-3,-6.4242426E-3,8.64813E-3,-1.01047605E-2,-1.5495679E-2],"split_indices":[0,0,1,2,0,0,0,0,0,0,0,0,0],"split_type":[0,0,0,0,0,0,0,0,0,0,0,0,0],"sum_hessian":[2.9153207E2,1.074633E2,1.8406877E2,1.003009E2,7.1624036E0,1.8257869E2,1.490073E0,9.85589E1,1.7420037E0,2.9792368E0,4.183167E0,1.1364108E1,1.7121458E2],"tree_param":{"num_deleted":"0","num_feature":"4","num_nodes":"13","size_leaf_vector":"0"}},{"base_weights":[-4.195003E-1,1.4346944E0,-1.5043503E0,1.5175036E0,2.3405537E-1,-1.1564244E0,-1.553548E0,1.5313866E0,4.6164066E-1,-6.3784635E-1,8.585648E-1,-6.950046E-1,-1.3916237E0],"categories":[],"categories_nodes":[],"categories_segments":[],"categories_sizes":[],"default_left":[1,1,1,1,1,1,0,0,0,0,0,0,0],"id":34,"left_children":[1,3,5,7,9,11,-1,-1,-1,-1,-1,-1,-1],"loss_changes":[5.8842413E2,1.0391785E1,1.3591003E0,7.726288E-1,4.9889736E0,1.9360542E0,0E0,0E0,0E0,0E0,0E0,0E0,0E0],"parents":[2147483647,0,0,1,1,2,2,3,3,4,4,5,5],"right_children":[2,4,6,8,10,12,-1,-1,-1,-1,-1,-1,-1],"split_conditions":[8.8266235E1,8.629648E1,9.119867E1,3.006E3,8.6879555E1,1.8632E3,-1.5535479E-2,1.5313866E-2,4.6164063E-3,-6.3784635E-3,8.585648E-3,-6.9500455E-3,-1.3916237E-2],"split_indices":[0,0,0,2,0,2,0,0,0,0,0,0,0],"split_type":[0,0,0,0,0,0,0,0,0,0,0,0,0],"sum_hessian":[2.9045367E2,1.0709222E2,1.8336145E2,9.9935646E1,7.1565704E0,2.5751644E1,1.5760982E2,9.8194176E1,1.7414715E0,2.977797E0,4.1787734E0,1.0029833E1,1.5721811E1],"tree_param":{"num_deleted":"0","num_feature":"4","num_nodes":"13","size_leaf_vector":"0"}},{"base_weights":[-4.1693443E-1,6.167274E-1,-1.31113E0,8.266974E-1,-2.1808645E-1,-1.4518248E0,-6.8740135E-1,6.2903786E-1,1.0507826E0,4.9496663E-1,-8.771286E-1,-8.008458E-1,-1.5155118E0,6.3159674E-1,-8.46006E-1],"categories":[],"categories_nodes":[],"categories_segments":[],"categories_sizes":[],"default_left":[1,1,1,1,1,1,1,0,0,0,0,0,0,0,0],"id":35,"left_children":[1,3,5,7,9,11,13,-1,-1,-1,-1,-1,-1,-1,-1],"loss_changes":[2.6918295E2,2.3906147E1,1.2691864E1,4.1386337E0,1.358923E1,4.0262146E0,6.938257E0,0E0,0E0,0E0,0E0,0E0,0E0,0E0,0E0],"parents":[2147483647,0,0,1,1,2,2,3,3,4,4,5,5,6,6],"right_children":[2,4,6,8,10,12,14,-1,-1,-1,-1,-1,-1,-1,-1],"split_conditions":[1.8366667E3,1.2977976E3,5.678484E-1,4.2678794E-1,5.5E0,3.9883065E-1,6.625447E-1,6.2903785E-3,1.0507826E-2,4.949666E-3,-8.771285E-3,-8.008458E-3,-1.5155117E-2,6.315967E-3,-8.46006E-3],"split_indices":[2,2,3,3,1,3,3,0,0,0,0,0,0,0,0],"split_type":[0,0,0,0,0,0,0,0,0,0,0,0,0,0,0],"sum_hessian":[2.893554E2,1.3435527E2,1.5500014E2,1.07361694E2,2.6993578E1,1.25388535E2,2.9611603E1,5.906721E1,4.829448E1,1.3085084E1,1.3908493E1,1.2383599E1,1.1300494E2,2.8583755E0,2.6753227E1],"tree_param":{"num_deleted":"0","num_feature":"4","num_nodes":"15","size_leaf_vector":"0"}},{"base_weights":[-4.1382107E-1,1.4222533E0,-1.4899832E0,1.5047778E0,2.3084648E-1,-1.1442001E0,-1.5390098E0,-6.3507193E-1,8.518201E-1,-1.294656E0,-2.676404E-1],"categories":[],"categories_nodes":[],"categories_segments":[],"categories_sizes":[],"default_left":[1,1,1,0,1,1,0,0,0,0,0],"id":36,"left_children":[1,3,5,-1,7,9,-1,-1,-1,-1,-1],"loss_changes":[5.7444684E2,1.0226685E1,1.3432007E0,0E0,4.9222746E0,3.1663132E0,0E0,0E0,0E0,0E0,0E0],"parents":[2147483647,0,0,1,1,2,2,4,4,5,5],"right_children":[2,4,6,-1,8,10,-1,-1,-1,-1,-1],"split_conditions":[8.8266235E1,8.629648E1,9.119867E1,1.5047777E-2,8.6879555E1,5.83925E-1,-1.5390098E-2,-6.3507194E-3,8.518201E-3,-1.294656E-2,-2.676404E-3],"split_indices":[0,0,0,0,0,3,0,0,0,0,0],"split_type":[0,0,0,0,0,0,0,0,0,0,0],"sum_hessian":[2.886522E2,1.06547134E2,1.8210504E2,9.9399086E1,7.148048E0,2.5635698E1,1.5646935E2,2.9757714E0,4.1722765E0,2.1473015E1,4.1626825E0],"tree_param":{"num_deleted":"0","num_feature":"4","num_nodes":"11","size_leaf_vector":"0"}},{"base_weights":[-4.113367E-1,1.4132882E0,-1.4812577E0,1.4955648E0,2.2897871E-1,-1.1361471E0,-1.5302924E0,1.5093504E0,4.5526603E-1,-6.305606E-1,8.4570986E-1,-6.849506E-1,-1.3674896E0],"categories":[],"categories_nodes":[],"categories_segments":[],"categories_sizes":[],"default_left":[1,1,1,1,1,1,0,0,0,0,0,0,0],"id":37,"left_children":[1,3,5,7,9,11,-1,-1,-1,-1,-1,-1,-1],"loss_changes":[5.653587E2,1.0099442E1,1.3474121E0,7.472229E-1,4.8493295E0,1.8367729E0,0E0,0E0,0E0,0E0,0E0,0E0,0E0],"parents":[2147483647,0,0,1,1,2,2,3,3,4,4,5,5],"right_children":[2,4,6,8,10,12,-1,-1,-1,-1,-1,-1,-1],"split_conditions":[8.8266235E1,8.629648E1,9.119867E1,3.006E3,8.6879555E1,1.8632E3,-1.53029235E-2,1.50935035E-2,4.55266E-3,-6.3056056E-3,8.457098E-3,-6.849506E-3,-1.3674895E-2],"split_indices":[0,0,0,2,0,2,0,0,0,0,0,0,0],"split_type":[0,0,0,0,0,0,0,0,0,0,0,0,0],"sum_hessian":[2.8752777E2,1.0616125E2,1.813665E2,9.901935E1,7.1418986E0,2.557036E1,1.5579614E2,9.7279366E1,1.7399876E0,2.9742532E0,4.1676455E0,1.0009394E1,1.5560967E1],"tree_param":{"num_deleted":"0","num_feature":"4","num_nodes":"13","size_leaf_vector":"0"}},{"base_weights":[-4.0890342E-1,6.041839E-1,-1.2885145E0,8.098355E-1,-2.1276209E-1,-1.4283915E0,-6.709141E-1,6.1484075E-1,1.0312823E0,4.8753095E-1,-8.612159E-1,-7.837097E-1,-1.4917207E0,3.8159463E-1,-8.6789435E-1],"categories":[],"categories_nodes":[],"categories_segments":[],"categories_sizes":[],"default_left":[1,1,1,1,1,1,1,0,0,0,0,0,0,0,0],"id":38,"left_children":[1,3,5,7,9,11,13,-1,-1,-1,-1,-1,-1,-1,-1],"loss_changes":[2.5687222E2,2.272528E1,1.2357864E1,4.0057526E0,1.303877E1,3.9259033E0,6.623496E0,0E0,0E0,0E0,0E0,0E0,0E0,0E0,0E0],"parents":[2147483647,0,0,1,1,2,2,3,3,4,4,5,5,6,6],"right_children":[2,4,6,8,10,12,14,-1,-1,-1,-1,-1,-1,-1,-1],"split_conditions":[1.8366667E3,1.2977976E3,5.678484E-1,4.2678794E-1,5.5E0,3.9883065E-1,6.7455435E-1,6.1484072E-3,1.0312823E-2,4.8753093E-3,-8.612159E-3,-7.837097E-3,-1.4917206E-2,3.8159462E-3,-8.678943E-3],"split_indices":[2,2,3,3,1,3,3,0,0,0,0,0,0,0,0],"split_type":[0,0,0,0,0,0,0,0,0,0,0,0,0,0,0],"sum_hessian":[2.8638318E2,1.33239E2,1.5314418E2,1.0645066E2,2.6788343E1,1.2379395E2,2.9350225E1,5.8614353E1,4.7836308E1,1.2998678E1,1.3789665E1,1.226931E1,1.1152464E2,4.479271E0,2.4870955E1],"tree_param":{"num_deleted":"0","num_feature":"4","num_nodes":"15","size_leaf_vector":"0"}},{"base_weights":[-4.059102E-1,5.990002E-1,-1.2804927E0,8.029969E-1,-2.1094492E-1,-1.4201893E0,-6.653587E-1,6.0929966E-1,1.0232482E0,4.8313498E-1,-8.5429245E-1,-7.775384E-1,-1.4835277E0,6.1714184E-1,-8.2026744E-1],"categories":[],"categories_nodes":[],"categories_segments":[],"categories_sizes":[],"default_left":[1,1,1,1,1,1,1,0,0,0,0,0,0,0,0],"id":39,"left_children":[1,3,5,7,9,11,13,-1,-1,-1,-1,-1,-1,-1,-1],"loss_changes":[2.5269914E2,2.2321072E1,1.2252808E1,3.9543228E0,1.2810997E1,3.905182E0,6.526969E0,0E0,0E0,0E0,0E0,0E0,0E0,0E0,0E0],"parents":[2147483647,0,0,1,1,2,2,3,3,4,4,5,5,6,6],"right_children":[2,4,6,8,10,12,14,-1,-1,-1,-1,-1,-1,-1,-1],"split_conditions":[1.8366667E3,1.2977976E3,5.678484E-1,4.2678794E-1,5.5E0,3.9883065E-1,6.625447E-1,6.0929963E-3,1.0232482E-2,4.83135E-3,-8.542924E-3,-7.775384E-3,-1.4835277E-2,6.1714184E-3,-8.202674E-3],"split_indices":[2,2,3,3,1,3,3,0,0,0,0,0,0,0,0],"split_type":[0,0,0,0,0,0,0,0,0,0,0,0,0,0,0],"sum_hessian":[2.856523E2,1.3306891E2,1.525834E2,1.06303406E2,2.6765505E1,1.2327821E2,2.9305193E1,5.856528E1,4.773813E1,1.2994899E1,1.3770605E1,1.2251053E1,1.1102716E2,2.836629E0,2.6468563E1],"tree_param":{"num_deleted":"0","num_feature":"4","num_nodes":"15","size_leaf_vector":"0"}},{"base_weights":[-4.029438E-1,1.3983812E0,-1.462763E0,1.4804041E0,2.2464353E-1,-1.1205195E0,-1.5115716E0,1.4937894E0,4.6399775E-1,-6.295644E-1,8.387205E-1,4.3446377E-2,-1.1765126E0],"categories":[],"categories_nodes":[],"categories_segments":[],"categories_sizes":[],"default_left":[1,1,1,1,1,1,0,0,0,0,0,0,0],"id":40,"left_children":[1,3,5,7,9,11,-1,-1,-1,-1,-1,-1,-1],"loss_changes":[5.478764E2,9.912735E0,1.3213196E0,6.576996E-1,4.792549E0,1.7712975E0,0E0,0E0,0E0,0E0,0E0,0E0,0E0],"parents":[2147483647,0,0,1,1,2,2,3,3,4,4,5,5],"right_children":[2,4,6,8,10,12,-1,-1,-1,-1,-1,-1,-1],"split_conditions":[8.8266235E1,8.629648E1,9.119867E1,3.006E3,8.6879555E1,1.5E0,-1.51157165E-2,1.4937894E-2,4.6399776E-3,-6.2956437E-3,8.387205E-3,4.3446376E-4,-1.1765126E-2],"split_indices":[0,0,0,2,0,1,0,0,0,0,0,0,0],"split_type":[0,0,0,0,0,0,0,0,0,0,0,0,0],"sum_hessian":[2.8491327E2,1.05418655E2,1.794946E2,9.828878E1,7.1298747E0,2.539363E1,1.5410097E2,9.6547646E1,1.7411351E0,2.971361E0,4.1585135E0,1.1757886E0,2.421784E1],"tree_param":{"num_deleted":"0","num_feature":"4","num_nodes":"13","size_leaf_vector":"0"}},{"base_weights":[-4.005867E-1,1.3899275E0,-1.4545127E0,1.4717449E0,2.2283268E-1,-1.1125066E0,-1.5034125E0,-6.251033E-1,8.327479E-1,-1.26196E0,-2.5245965E-1],"categories":[],"categories_nodes":[],"categories_segments":[],"categories_sizes":[],"default_left":[1,1,1,0,1,1,0,0,0,0,0],"id":41,"left_children":[1,3,5,-1,7,9,-1,-1,-1,-1,-1],"loss_changes":[5.393426E2,9.795105E0,1.3332214E0,0E0,4.7217436E0,3.0655785E0,0E0,0E0,0E0,0E0,0E0],"parents":[2147483647,0,0,1,1,2,2,4,4,5,5],"right_children":[2,4,6,-1,8,10,-1,-1,-1,-1,-1],"split_conditions":[8.8266235E1,8.629648E1,9.119867E1,1.47174485E-2,8.6879555E1,5.83925E-1,-1.5034124E-2,-6.251033E-3,8.327479E-3,-1.26196E-2,-2.5245964E-3],"split_indices":[0,0,0,0,0,3,0,0,0,0,0],"split_type":[0,0,0,0,0,0,0,0,0,0,0],"sum_hessian":[2.8373828E2,1.0501299E2,1.787253E2,9.788955E1,7.123438E0,2.5328424E1,1.5339687E2,2.9697852E0,4.1536527E0,2.1180498E1,4.1479273E0],"tree_param":{"num_deleted":"0","num_feature":"4","num_nodes":"11","size_leaf_vector":"0"}},{"base_weights":[-3.983037E-1,5.874115E-1,-1.2595052E0,8.145698E-1,-1.1369955E-1,-1.3985567E0,-6.499148E-1,6.9490427E-1,1.111697E0,5.576999E-1,-6.2975323E-1,-7.61229E-1,-1.4616567E0,3.7422112E-1,-8.4236467E-1],"categories":[],"categories_nodes":[],"categories_segments":[],"categories_sizes":[],"default_left":[1,1,1,1,1,1,1,0,0,0,0,0,0,0,0],"id":42,"left_children":[1,3,5,7,9,11,13,-1,-1,-1,-1,-1,-1,-1,-1],"loss_changes":[2.4144298E2,2.1258316E1,1.1945526E1,2.8007889E0,1.1923275E1,3.8183289E0,6.235031E0,0E0,0E0,0E0,0E0,0E0,0E0,0E0,0E0],"parents":[2147483647,0,0,1,1,2,2,3,3,4,4,5,5,6,6],"right_children":[2,4,6,8,10,12,14,-1,-1,-1,-1,-1,-1,-1,-1],"split_conditions":[1.8366667E3,1.1898071E3,5.678484E-1,2.05E1,5.5E0,3.9883065E-1,6.7455435E-1,6.9490424E-3,1.1116969E-2,5.576999E-3,-6.297532E-3,-7.6122894E-3,-1.4616567E-2,3.742211E-3,-8.423647E-3],"split_indices":[2,2,3,1,1,3,3,0,0,0,0,0,0,0,0],"split_type":[0,0,0,0,0,0,0,0,0,0,0,0,0,0,0],"sum_hessian":[2.825473E2,1.3189764E2,1.5064966E2,9.949853E1,3.239911E1,1.2161437E2,2.9035295E1,7.331162E1,2.6186905E1,1.4045214E1,1.8353895E1,1.2132855E1,1.09481514E2,4.4436383E0,2.4591658E1],"tree_param":{"num_deleted":"0","num_feature":"4","num_nodes":"15","size_leaf_vector":"0"}},{"base_weights":[-3.9542705E-1,1.3786873E0,-1.4418381E0,1.460257E0,2.2059053E-1,-1.1012621E0,-1.4906896E0,1.4735724E0,4.5789945E-1,-6.22551E-1,8.276146E-1,5.264304E-2,-1.1573269E0],"categories":[],"categories_nodes":[],"categories_segments":[],"categories_sizes":[],"default_left":[1,1,1,1,1,1,0,0,0,0,0,0,0],"id":43,"left_children":[1,3,5,7,9,11,-1,-1,-1,-1,-1,-1,-1],"loss_changes":[5.2696814E2,9.636902E0,1.3258362E0,6.373749E-1,4.6684775E0,1.7560501E0,0E0,0E0,0E0,0E0,0E0,0E0,0E0],"parents":[2147483647,0,0,1,1,2,2,3,3,4,4,5,5],"right_children":[2,4,6,8,10,12,-1,-1,-1,-1,-1,-1,-1],"split_conditions":[8.8266235E1,8.629648E1,9.119867E1,3.006E3,8.6879555E1,1.5E0,-1.4906896E-2,1.4735724E-2,4.5789946E-3,-6.22551E-3,8.276146E-3,5.264304E-4,-1.1573269E-2],"split_indices":[0,0,0,2,0,1,0,0,0,0,0,0,0],"split_type":[0,0,0,0,0,0,0,0,0,0,0,0,0],"sum_hessian":[2.8178674E2,1.044247E2,1.7736205E2,9.730983E1,7.1148624E0,2.5202414E1,1.5215964E2,9.557017E1,1.7396635E0,2.9674995E0,4.1473627E0,1.1705991E0,2.4031815E1],"tree_param":{"num_deleted":"0","num_feature":"4","num_nodes":"13","size_leaf_vector":"0"}},{"base_weights":[-3.93184E-1,1.3705819E0,-1.4339724E0,1.4519744E0,2.1881968E-1,-1.0934907E0,-1.4829417E0,1.4652712E0,4.5508638E-1,-6.1815244E-1,8.217559E-1,-1.2424167E0,-2.4344747E-1],"categories":[],"categories_nodes":[],"categories_segments":[],"categories_sizes":[],"default_left":[1,1,1,1,1,1,0,0,0,0,0,0,0],"id":44,"left_children":[1,3,5,7,9,11,-1,-1,-1,-1,-1,-1,-1],"loss_changes":[5.1885394E2,9.525986E0,1.3390503E0,6.308594E-1,4.599684E0,3.0060863E0,0E0,0E0,0E0,0E0,0E0,0E0,0E0],"parents":[2147483647,0,0,1,1,2,2,3,3,4,4,5,5],"right_children":[2,4,6,8,10,12,-1,-1,-1,-1,-1,-1,-1],"split_conditions":[8.8266235E1,8.629648E1,9.119867E1,3.006E3,8.6879555E1,5.83925E-1,-1.4829417E-2,1.4652712E-2,4.5508635E-3,-6.181524E-3,8.217558E-3,-1.2424167E-2,-2.4344746E-3],"split_indices":[0,0,0,2,0,3,0,0,0,0,0,0,0],"split_type":[0,0,0,0,0,0,0,0,0,0,0,0,0],"sum_hessian":[2.8057465E2,1.04005486E2,1.7656915E2,9.6897316E1,7.1081705E0,2.5135204E1,1.5143394E2,9.515822E1,1.7390969E0,2.9658535E0,4.142317E0,2.099528E1,4.139925E0],"tree_param":{"num_deleted":"0","num_feature":"4","num_nodes":"13","size_leaf_vector":"0"}},{"base_weights":[-3.9099863E-1,1.3626168E0,-1.4262941E0,1.4438426E0,2.1706747E-1,-1.086098E0,-1.475342E0,-6.1379224E-1,8.1595606E-1,-1.2344879E0,-2.4155623E-1],"categories":[],"categories_nodes":[],"categories_segments":[],"categories_sizes":[],"default_left":[1,1,1,0,1,1,0,0,0,0,0],"id":45,"left_children":[1,3,5,-1,7,9,-1,-1,-1,-1,-1],"loss_changes":[5.109139E2,9.417633E0,1.3471375E0,0E0,4.531993E0,2.9681873E0,0E0,0E0,0E0,0E0,0E0],"parents":[2147483647,0,0,1,1,2,2,4,4,5,5],"right_children":[2,4,6,-1,8,10,-1,-1,-1,-1,-1],"split_conditions":[8.8266235E1,8.629648E1,9.119867E1,1.4438426E-2,8.6879555E1,5.83925E-1,-1.475342E-2,-6.1379224E-3,8.15956E-3,-1.2344879E-2,-2.4155623E-3],"split_indices":[0,0,0,0,0,3,0,0,0,0,0],"split_type":[0,0,0,0,0,0,0,0,0,0,0],"sum_hessian":[2.793457E2,1.0358094E2,1.7576476E2,9.64796E1,7.1013412E0,2.506405E1,1.507007E2,2.9641643E0,4.137177E0,2.0925598E1,4.1384516E0],"tree_param":{"num_deleted":"0","num_feature":"4","num_nodes":"11","size_leaf_vector":"0"}},{"base_weights":[-3.8886464E-1,1.35471E0,-1.4187516E0,1.4357721E0,2.1533334E-1,-1.0787971E0,-1.4678863E0,1.4491978E0,4.4344965E-1,-6.094702E-1,8.102139E-1,-1.2266676E0,-2.3967978E-1],"categories":[],"categories_nodes":[],"categories_segments":[],"categories_sizes":[],"default_left":[1,1,1,1,1,1,0,0,0,0,0,0,0],"id":46,"left_children":[1,3,5,7,9,11,-1,-1,-1,-1,-1,-1,-1],"loss_changes":[5.0310873E2,9.310501E0,1.3554993E0,6.5045166E-1,4.4653864E0,2.931116E0,0E0,0E0,0E0,0E0,0E0,0E0,0E0],"parents":[2147483647,0,0,1,1,2,2,3,3,4,4,5,5],"right_children":[2,4,6,8,10,12,-1,-1,-1,-1,-1,-1,-1],"split_conditions":[8.8266235E1,8.629648E1,9.119867E1,3.006E3,8.6879555E1,5.83925E-1,-1.4678863E-2,1.4491977E-2,4.434496E-3,-6.0947016E-3,8.102139E-3,-1.2266676E-2,-2.3967978E-3],"split_indices":[0,0,0,2,0,3,0,0,0,0,0,0,0],"split_type":[0,0,0,0,0,0,0,0,0,0,0,0,0],"sum_hessian":[2.781062E2,1.0315381E2,1.7495238E2,9.6059425E1,7.094379E0,2.499212E1,1.4996027E2,9.432287E1,1.7365566E0,2.9624329E0,4.131946E0,2.085514E1,4.136979E0],"tree_param":{"num_deleted":"0","num_feature":"4","num_nodes":"13","size_leaf_vector":"0"}},{"base_weights":[-3.8675442E-1,1.347013E0,-1.4113413E0,1.4279292E0,2.1361715E-1,-1.0085275E0,-1.4514476E0,1.4413432E0,4.407388E-1,-6.051856E-1,8.045286E-1,-1.1872605E0,6.0735393E-2],"categories":[],"categories_nodes":[],"categories_segments":[],"categories_sizes":[],"default_left":[1,1,1,1,1,1,0,0,0,0,0,0,0],"id":47,"left_children":[1,3,5,7,9,11,-1,-1,-1,-1,-1,-1,-1],"loss_changes":[4.9547565E2,9.207077E0,1.365509E0,6.4434814E-1,4.3998413E0,3.729082E0,0E0,0E0,0E0,0E0,0E0,0E0,0E0],"parents":[2147483647,0,0,1,1,2,2,3,3,4,4,5,5],"right_children":[2,4,6,8,10,12,-1,-1,-1,-1,-1,-1,-1],"split_conditions":[8.8266235E1,8.629648E1,9.085226E1,3.006E3,8.6879555E1,6.4715093E-1,-1.4514476E-2,1.4413431E-2,4.4073877E-3,-6.051856E-3,8.045286E-3,-1.18726045E-2,6.073539E-4],"split_indices":[0,0,0,2,0,3,0,0,0,0,0,0,0],"split_type":[0,0,0,0,0,0,0,0,0,0,0,0,0],"sum_hessian":[2.7685175E2,1.0271931E2,1.7413245E2,9.563202E1,7.087288E0,1.8135185E1,1.5599727E2,9.38961E1,1.7359194E0,2.9606605E0,4.126627E0,1.5443386E1,2.6917984E0],"tree_param":{"num_deleted":"0","num_feature":"4","num_nodes":"13","size_leaf_vector":"0"}},{"base_weights":[-3.846684E-1,1.3394446E0,-1.4040426E0,1.4202247E0,2.1191853E-1,-1.0640156E0,-1.4534364E0,1.4336296E0,4.3804696E-1,-6.0093814E-1,7.98899E-1,-6.321963E-1,-1.2921879E0],"categories":[],"categories_nodes":[],"categories_segments":[],"categories_sizes":[],"default_left":[1,1,1,1,1,1,0,0,0,0,0,0,0],"id":48,"left_children":[1,3,5,7,9,11,-1,-1,-1,-1,-1,-1,-1],"loss_changes":[4.879836E2,9.105942E0,1.3810425E0,6.385803E-1,4.335341E0,1.7291775E0,0E0,0E0,0E0,0E0,0E0,0E0,0E0],"parents":[2147483647,0,0,1,1,2,2,3,3,4,4,5,5],"right_children":[2,4,6,8,10,12,-1,-1,-1,-1,-1,-1,-1],"split_conditions":[8.8266235E1,8.629648E1,9.119867E1,3.006E3,8.6879555E1,1.8632E3,-1.45343635E-2,1.4336296E-2,4.3804697E-3,-6.0093813E-3,7.988989E-3,-6.321963E-3,-1.2921879E-2],"split_indices":[0,0,0,2,0,2,0,0,0,0,0,0,0],"split_type":[0,0,0,0,0,0,0,0,0,0,0,0,0],"sum_hessian":[2.7558517E2,1.0228017E2,1.7330501E2,9.5200096E1,7.0800714E0,2.484101E1,1.4846399E2,9.346483E1,1.7352693E0,2.9588482E0,4.121223E0,9.891637E0,1.4949373E1],"tree_param":{"num_deleted":"0","num_feature":"4","num_nodes":"13","size_leaf_vector":"0"}},{"base_weights":[-3.8264644E-1,5.6409985E-1,-1.2157559E0,7.5579524E-1,-1.9495077E-1,-1.353665E0,-6.1611754E-1,5.6765366E-1,9.705789E-1,4.6549112E-1,-8.106897E-1,-7.2675765E-1,-1.4161812E0,5.842658E-1,-7.626381E-1],"categories":[],"categories_nodes":[],"categories_segments":[],"categories_sizes":[],"default_left":[1,1,1,1,1,1,1,0,0,0,0,0,0,0,0],"id":49,"left_children":[1,3,5,7,9,11,13,-1,-1,-1,-1,-1,-1,-1,-1],"loss_changes":[2.1783295E2,1.8997463E1,1.1302353E1,3.6368294E0,1.1322734E1,3.614334E0,5.5948334E0,0E0,0E0,0E0,0E0,0E0,0E0,0E0,0E0],"parents":[2147483647,0,0,1,1,2,2,3,3,4,4,5,5,6,6],"right_children":[2,4,6,8,10,12,14,-1,-1,-1,-1,-1,-1,-1,-1],"split_conditions":[1.8366667E3,1.2977976E3,5.678484E-1,4.2678794E-1,5.5E0,3.9883065E-1,6.625447E-1,5.6765364E-3,9.705788E-3,4.654911E-3,-8.106897E-3,-7.267576E-3,-1.4161812E-2,5.842658E-3,-7.626381E-3],"split_indices":[2,2,3,3,1,3,3,0,0,0,0,0,0,0,0],"split_type":[0,0,0,0,0,0,0,0,0,0,0,0,0,0,0],"sum_hessian":[2.7430774E2,1.2854828E2,1.4575948E2,1.0263299E2,2.5915287E1,1.1748254E2,2.8276934E1,5.665152E1,4.598147E1,1.2621486E1,1.3293801E1,1.1798032E1,1.0568451E2,2.7510545E0,2.5525879E1],"tree_param":{"num_deleted":"0","num_feature":"4","num_nodes":"15","size_leaf_vector":"0"}},{"base_weights":[-3.7997937E-1,5.593592E-1,-1.2088504E0,7.753949E-1,-1.0555568E-1,-1.346785E0,-6.1103004E-1,6.001745E-1,9.631353E-1,5.386512E-1,-6.022481E-1,-7.211625E-1,-1.4094183E0,3.6097613E-1,-7.9490376E-1],"categories":[],"categories_nodes":[],"categories_segments":[],"categories_sizes":[],"default_left":[1,1,1,1,1,1,1,0,0,0,0,0,0,0,0],"id":50,"left_children":[1,3,5,7,9,11,13,-1,-1,-1,-1,-1,-1,-1,-1],"loss_changes":[2.1440443E2,1.8664127E1,1.1228165E1,2.637806E0,1.0756694E1,3.6040802E0,5.5108786E0,0E0,0E0,0E0,0E0,0E0,0E0,0E0,0E0],"parents":[2147483647,0,0,1,1,2,2,3,3,4,4,5,5,6,6],"right_children":[2,4,6,8,10,12,14,-1,-1,-1,-1,-1,-1,-1,-1],"split_conditions":[1.8366667E3,1.1898071E3,5.678484E-1,4.2678794E-1,5.5E0,3.9883065E-1,6.7455435E-1,6.001745E-3,9.6313525E-3,5.3865123E-3,-6.022481E-3,-7.2116246E-3,-1.4094183E-2,3.6097611E-3,-7.9490375E-3],"split_indices":[2,2,3,3,1,3,3,0,0,0,0,0,0,0,0],"split_type":[0,0,0,0,0,0,0,0,0,0,0,0,0,0,0],"sum_hessian":[2.7350662E2,1.2836218E2,1.4514445E2,9.6758484E1,3.1603697E1,1.1691577E2,2.8228683E1,5.221884E1,4.4539642E1,1.3721944E1,1.7881752E1,1.1778527E1,1.05137245E2,4.3373113E0,2.3891373E1],"tree_param":{"num_deleted":"0","num_feature":"4","num_nodes":"15","size_leaf_vector":"0"}},{"base_weights":[-3.7733638E-1,1.3270302E0,-1.3889536E0,1.4077146E0,2.0846316E-1,-1.0504912E0,-1.4383507E0,1.4207783E0,4.461866E-1,-6.002533E-1,7.935114E-1,-1.1970972E0,-2.2955738E-1],"categories":[],"categories_nodes":[],"categories_segments":[],"categories_sizes":[],"default_left":[1,1,1,1,1,1,0,0,0,0,0,0,0],"id":51,"left_children":[1,3,5,7,9,11,-1,-1,-1,-1,-1,-1,-1],"loss_changes":[4.73752E2,8.953369E0,1.3688049E0,5.642853E-1,4.2931256E0,2.8117104E0,0E0,0E0,0E0,0E0,0E0,0E0,0E0],"parents":[2147483647,0,0,1,1,2,2,3,3,4,4,5,5],"right_children":[2,4,6,8,10,12,-1,-1,-1,-1,-1,-1,-1],"split_conditions":[8.8266235E1,8.629648E1,9.119867E1,3.006E3,8.6879555E1,5.83925E-1,-1.4383506E-2,1.4207782E-2,4.461866E-3,-6.002533E-3,7.935113E-3,-1.1970972E-2,-2.2955737E-3],"split_indices":[0,0,0,2,0,3,0,0,0,0,0,0,0],"split_type":[0,0,0,0,0,0,0,0,0,0,0,0,0],"sum_hessian":[2.727026E2,1.0145688E2,1.7124573E2,9.4389854E1,7.067026E0,2.464534E1,1.4660039E2,9.2653404E1,1.7364519E0,2.9555533E0,4.1114726E0,2.0522186E1,4.123155E0],"tree_param":{"num_deleted":"0","num_feature":"4","num_nodes":"13","size_leaf_vector":"0"}},{"base_weights":[-3.7538218E-1,1.3197937E0,-1.3820617E0,1.4003695E0,2.0681025E-1,-1.043619E0,-1.4315888E0,-5.960492E-1,7.8799033E-1,-1.1897779E0,-2.2777523E-1],"categories":[],"categories_nodes":[],"categories_segments":[],"categories_sizes":[],"default_left":[1,1,1,0,1,1,0,0,0,0,0],"id":52,"left_children":[1,3,5,-1,7,9,-1,-1,-1,-1,-1],"loss_changes":[4.6668307E2,8.858276E0,1.3789673E0,0E0,4.230343E0,2.778057E0,0E0,0E0,0E0,0E0,0E0],"parents":[2147483647,0,0,1,1,2,2,4,4,5,5],"right_children":[2,4,6,-1,8,10,-1,-1,-1,-1,-1],"split_conditions":[8.8266235E1,8.629648E1,9.119867E1,1.4003695E-2,8.6879555E1,5.83925E-1,-1.4315887E-2,-5.960492E-3,7.879904E-3,-1.1897778E-2,-2.2777522E-3],"split_indices":[0,0,0,0,0,3,0,0,0,0,0],"split_type":[0,0,0,0,0,0,0,0,0,0,0],"sum_hessian":[2.7140512E2,1.0100647E2,1.7039867E2,9.394686E1,7.05961E0,2.4570166E1,1.4582849E2,2.9536984E0,4.1059113E0,2.0448473E1,4.1216927E0],"tree_param":{"num_deleted":"0","num_feature":"4","num_nodes":"11","size_leaf_vector":"0"}},{"base_weights":[-3.734732E-1,1.3125925E0,-1.3752843E0,1.3930602E0,2.0517404E-1,-1.0368259E0,-1.4249483E0,1.4062791E0,4.3490595E-1,-5.918811E-1,7.825221E-1,9.166159E-2,-1.09374E0],"categories":[],"categories_nodes":[],"categories_segments":[],"categories_sizes":[],"default_left":[1,1,1,1,1,1,0,0,0,0,0,0,0],"id":53,"left_children":[1,3,5,7,9,11,-1,-1,-1,-1,-1,-1,-1],"loss_changes":[4.5972696E2,8.7638855E0,1.3893127E0,5.8535767E-1,4.1685514E0,1.7376804E0,0E0,0E0,0E0,0E0,0E0,0E0,0E0],"parents":[2147483647,0,0,1,1,2,2,3,3,4,4,5,5],"right_children":[2,4,6,8,10,12,-1,-1,-1,-1,-1,-1,-1],"split_conditions":[8.8266235E1,8.629648E1,9.119867E1,3.006E3,8.6879555E1,1.5E0,-1.4249483E-2,1.406279E-2,4.3490594E-3,-5.9188106E-3,7.825221E-3,9.166158E-4,-1.0937399E-2],"split_indices":[0,0,0,2,0,1,0,0,0,0,0,0,0],"split_type":[0,0,0,0,0,0,0,0,0,0,0,0,0],"sum_hessian":[2.701009E2,1.0055494E2,1.6954596E2,9.350286E1,7.0520797E0,2.4494421E1,1.4505153E2,9.1769104E1,1.7337589E0,2.9518058E0,4.1002736E0,1.1467253E0,2.3347696E1],"tree_param":{"num_deleted":"0","num_feature":"4","num_nodes":"13","size_leaf_vector":"0"}},{"base_weights":[-3.7156168E-1,1.3055843E0,-1.3685639E0,1.3859608E0,2.0355433E-1,-9.672418E-1,-1.4092281E0,-5.8774817E-1,7.7710575E-1,-1.1453893E0,7.547583E-2],"categories":[],"categories_nodes":[],"categories_segments":[],"categories_sizes":[],"default_left":[1,1,1,0,1,1,0,0,0,0,0],"id":54,"left_children":[1,3,5,-1,7,9,-1,-1,-1,-1,-1],"loss_changes":[4.5290546E2,8.672806E0,1.40625E0,0E0,4.107733E0,3.5787983E0,0E0,0E0,0E0,0E0,0E0],"parents":[2147483647,0,0,1,1,2,2,4,4,5,5],"right_children":[2,4,6,-1,8,10,-1,-1,-1,-1,-1],"split_conditions":[8.8266235E1,8.629648E1,9.085226E1,1.3859608E-2,8.6879555E1,6.4715093E-1,-1.40922805E-2,-5.877482E-3,7.7710575E-3,-1.1453893E-2,7.5475825E-4],"split_indices":[0,0,0,0,0,3,0,0,0,0,0],"split_type":[0,0,0,0,0,0,0,0,0,0,0],"sum_hessian":[2.6878876E2,1.0009708E2,1.6869168E2,9.3052635E1,7.04444E0,1.7800577E1,1.508911E2,2.9498773E0,4.0945625E0,1.5119036E1,2.6815412E0],"tree_param":{"num_deleted":"0","num_feature":"4","num_nodes":"11","size_leaf_vector":"0"}},{"base_weights":[-3.697015E-1,1.2986058E0,-1.3619884E0,1.3788913E0,2.0195065E-1,-1.0227195E0,-1.4120615E0,1.3922713E0,4.238229E-1,-5.8365035E-1,7.717403E-1,-1.1688241E0,-2.1581833E-1],"categories":[],"categories_nodes":[],"categories_segments":[],"categories_sizes":[],"default_left":[1,1,1,1,1,1,0,0,0,0,0,0,0],"id":55,"left_children":[1,3,5,7,9,11,-1,-1,-1,-1,-1,-1,-1],"loss_changes":[4.4619946E2,8.582321E0,1.4239502E0,6.060333E-1,4.0478706E0,2.735098E0,0E0,0E0,0E0,0E0,0E0,0E0,0E0],"parents":[2147483647,0,0,1,1,2,2,3,3,4,4,5,5],"right_children":[2,4,6,8,10,12,-1,-1,-1,-1,-1,-1,-1],"split_conditions":[8.8266235E1,8.629648E1,9.119867E1,3.006E3,8.6879555E1,5.83925E-1,-1.4120614E-2,1.3922713E-2,4.238229E-3,-5.8365036E-3,7.717403E-3,-1.1688241E-2,-2.1581834E-3],"split_indices":[0,0,0,2,0,3,0,0,0,0,0,0,0],"split_type":[0,0,0,0,0,0,0,0,0,0,0,0,0],"sum_hessian":[2.6746695E2,9.9638504E1,1.6782843E2,9.260181E1,7.0366936E0,2.4339712E1,1.4348872E2,9.087099E1,1.7308221E0,2.9479136E0,4.08878E0,2.0228437E1,4.1112733E0],"tree_param":{"num_deleted":"0","num_feature":"4","num_nodes":"13","size_leaf_vector":"0"}},{"base_weights":[-3.6787003E-1,1.2918135E0,-1.3555359E0,1.3720245E0,2.0036295E-1,-1.0161532E0,-1.4057668E0,1.3854107E0,4.2124882E-1,-5.7958704E-1,7.6642513E-1,-1.0980482E0,1.9253212E-1],"categories":[],"categories_nodes":[],"categories_segments":[],"categories_sizes":[],"default_left":[1,1,1,1,1,1,0,0,0,0,0,0,0],"id":56,"left_children":[1,3,5,7,9,11,-1,-1,-1,-1,-1,-1,-1],"loss_changes":[4.396418E2,8.49498E0,1.4348145E0,6.018524E-1,3.9889464E0,2.7120247E0,0E0,0E0,0E0,0E0,0E0,0E0,0E0],"parents":[2147483647,0,0,1,1,2,2,3,3,4,4,5,5],"right_children":[2,4,6,8,10,12,-1,-1,-1,-1,-1,-1,-1],"split_conditions":[8.8266235E1,8.629648E1,9.119867E1,3.006E3,8.6879555E1,7.923335E-1,-1.4057668E-2,1.3854106E-2,4.212488E-3,-5.7958704E-3,7.664251E-3,-1.0980482E-2,1.9253212E-3],"split_indices":[0,0,0,2,0,3,0,0,0,0,0,0,0],"split_type":[0,0,0,0,0,0,0,0,0,0,0,0,0],"sum_hessian":[2.661348E2,9.917395E1,1.6696085E2,9.21451E1,7.0288444E0,2.4262482E1,1.4269836E2,9.041501E1,1.7300986E0,2.9459155E0,4.0829287E0,2.2808609E1,1.4538724E0],"tree_param":{"num_deleted":"0","num_feature":"4","num_nodes":"13","size_leaf_vector":"0"}},{"base_weights":[-3.6604768E-1,5.389629E-1,-1.1707845E0,7.218543E-1,-1.8345526E-1,-1.3081317E0,-5.8077264E-1,5.393319E-1,9.310729E-1,4.5210302E-1,-7.7917475E-1,-6.8995243E-1,-1.370511E0,5.6029785E-1,-7.2129226E-1],"categories":[],"categories_nodes":[],"categories_segments":[],"categories_sizes":[],"default_left":[1,1,1,1,1,1,1,0,0,0,0,0,0,0,0],"id":57,"left_children":[1,3,5,7,9,11,13,-1,-1,-1,-1,-1,-1,-1,-1],"loss_changes":[1.9420924E2,1.675214E1,1.0667038E1,3.3386765E0,1.0275486E1,3.4343414E0,4.961871E0,0E0,0E0,0E0,0E0,0E0,0E0,0E0,0E0],"parents":[2147483647,0,0,1,1,2,2,3,3,4,4,5,5,6,6],"right_children":[2,4,6,8,10,12,14,-1,-1,-1,-1,-1,-1,-1,-1],"split_conditions":[1.8366667E3,1.2977976E3,5.678484E-1,4.2678794E-1,5.5E0,3.9883065E-1,6.625447E-1,5.393319E-3,9.310729E-3,4.52103E-3,-7.7917473E-3,-6.899524E-3,-1.370511E-2,5.602978E-3,-7.2129224E-3],"split_indices":[2,2,3,3,1,3,3,0,0,0,0,0,0,0,0],"split_type":[0,0,0,0,0,0,0,0,0,0,0,0,0,0,0],"sum_hessian":[2.6479633E2,1.2478869E2,1.4000764E2,9.957939E1,2.52093E1,1.1258271E2,2.742493E1,5.5093567E1,4.4485825E1,1.2313458E1,1.2895841E1,1.1424686E1,1.0115803E2,2.6794548E0,2.4745476E1],"tree_param":{"num_deleted":"0","num_feature":"4","num_nodes":"15","size_leaf_vector":"0"}},{"base_weights":[-3.6357445E-1,1.2829336E0,-1.3456862E0,1.3631306E0,1.9772997E-1,-1.0063909E0,-1.39612E0,1.3763713E0,4.2374426E-1,-5.771168E-1,7.6086706E-1,-1.1518483E0,-2.1023569E-1],"categories":[],"categories_nodes":[],"categories_segments":[],"categories_sizes":[],"default_left":[1,1,1,1,1,1,0,0,0,0,0,0,0],"id":58,"left_children":[1,3,5,7,9,11,-1,-1,-1,-1,-1,-1,-1],"loss_changes":[4.3019382E2,8.390823E0,1.4433289E0,5.671997E-1,3.9374797E0,2.667263E0,0E0,0E0,0E0,0E0,0E0,0E0,0E0],"parents":[2147483647,0,0,1,1,2,2,3,3,4,4,5,5],"right_children":[2,4,6,8,10,12,-1,-1,-1,-1,-1,-1,-1],"split_conditions":[8.8266235E1,8.629648E1,9.119867E1,3.006E3,8.6879555E1,5.83925E-1,-1.39612E-2,1.3763713E-2,4.2374427E-3,-5.7711676E-3,7.6086703E-3,-1.1518483E-2,-2.1023569E-3],"split_indices":[0,0,0,2,0,3,0,0,0,0,0,0,0],"split_type":[0,0,0,0,0,0,0,0,0,0,0,0,0],"sum_hessian":[2.6396774E2,9.850987E1,1.6545786E2,9.149243E1,7.017442E0,2.4123098E1,1.4133476E2,8.9762054E1,1.7303746E0,2.9430866E0,4.0743556E0,2.0018888E1,4.1042104E0],"tree_param":{"num_deleted":"0","num_feature":"4","num_nodes":"13","size_leaf_vector":"0"}},{"base_weights":[-3.6182094E-1,1.2763811E0,-1.3394958E0,1.356523E0,1.9618043E-1,-1.0000011E0,-1.3901058E0,1.3697752E0,4.2117098E-1,-5.731086E-1,7.5565314E-1,1.09923586E-1,-1.0572519E0],"categories":[],"categories_nodes":[],"categories_segments":[],"categories_sizes":[],"default_left":[1,1,1,1,1,1,0,0,0,0,0,0,0],"id":59,"left_children":[1,3,5,7,9,11,-1,-1,-1,-1,-1,-1,-1],"loss_changes":[4.239287E2,8.307587E0,1.4548645E0,5.638275E-1,3.8802912E0,1.7076702E0,0E0,0E0,0E0,0E0,0E0,0E0,0E0],"parents":[2147483647,0,0,1,1,2,2,3,3,4,4,5,5],"right_children":[2,4,6,8,10,12,-1,-1,-1,-1,-1,-1,-1],"split_conditions":[8.8266235E1,8.629648E1,9.119867E1,3.006E3,8.6879555E1,1.5E0,-1.3901059E-2,1.3697752E-2,4.21171E-3,-5.731086E-3,7.556531E-3,1.0992358E-3,-1.0572519E-2],"split_indices":[0,0,0,2,0,1,0,0,0,0,0,0,0],"split_type":[0,0,0,0,0,0,0,0,0,0,0,0,0],"sum_hessian":[2.626185E2,9.803856E1,1.6457996E2,9.1029144E1,7.0094113E0,2.4044859E1,1.405351E2,8.929949E1,1.729651E0,2.9410377E0,4.0683737E0,1.13429E0,2.291057E1],"tree_param":{"num_deleted":"0","num_feature":"4","num_nodes":"13","size_leaf_vector":"0"}},{"base_weights":[-3.6007318E-1,1.2699263E0,-1.3333448E0,1.3500206E0,1.946461E-1,-9.307404E-1,-1.3748671E0,1.3632863E0,4.1861534E-1,-5.6913364E-1,7.504868E-1,-1.1083438E0,8.7282084E-2],"categories":[],"categories_nodes":[],"categories_segments":[],"categories_sizes":[],"default_left":[1,1,1,1,1,1,0,0,0,0,0,0,0],"id":60,"left_children":[1,3,5,7,9,11,-1,-1,-1,-1,-1,-1,-1],"loss_changes":[4.1776202E2,8.225983E0,1.4737244E0,5.606384E-1,3.823993E0,3.4405365E0,0E0,0E0,0E0,0E0,0E0,0E0,0E0],"parents":[2147483647,0,0,1,1,2,2,3,3,4,4,5,5],"right_children":[2,4,6,8,10,12,-1,-1,-1,-1,-1,-1,-1],"split_conditions":[8.8266235E1,8.629648E1,9.085226E1,3.006E3,8.6879555E1,6.4715093E-1,-1.3748671E-2,1.3632862E-2,4.1861534E-3,-5.6913365E-3,7.504868E-3,-1.1083438E-2,8.7282085E-4],"split_indices":[0,0,0,2,0,3,0,0,0,0,0,0,0],"split_type":[0,0,0,0,0,0,0,0,0,0,0,0,0],"sum_hessian":[2.6126697E2,9.756459E1,1.6370238E2,9.05633E1,7.001288E0,1.7494019E1,1.4620836E2,8.883438E1,1.7289169E0,2.9389567E0,4.0623307E0,1.4819839E1,2.674179E0],"tree_param":{"num_deleted":"0","num_feature":"4","num_nodes":"13","size_leaf_vector":"0"}},{"base_weights":[-3.5835996E-1,5.273203E-1,-1.1501805E0,7.058791E-1,-1.7721899E-1,-1.2875694E0,-5.6379044E-1,1.1360235E0,6.140913E-1,4.4687042E-1,-7.639762E-1,-6.727702E-1,-1.3499953E0,5.488906E-1,-7.014308E-1],"categories":[],"categories_nodes":[],"categories_segments":[],"categories_sizes":[],"default_left":[1,1,1,1,1,1,1,0,0,0,0,0,0,0,0],"id":61,"left_children":[1,3,5,7,9,11,13,-1,-1,-1,-1,-1,-1,-1,-1],"loss_changes":[1.8357945E2,1.5704277E1,1.0397171E1,3.2111092E0,9.803393E0,3.3549194E0,4.671198E0,0E0,0E0,0E0,0E0,0E0,0E0,0E0,0E0],"parents":[2147483647,0,0,1,1,2,2,3,3,4,4,5,5,6,6],"right_children":[2,4,6,8,10,12,14,-1,-1,-1,-1,-1,-1,-1,-1],"split_conditions":[1.8366667E3,1.2977976E3,5.678484E-1,3.097669E-1,5.5E0,3.9883065E-1,6.625447E-1,1.1360235E-2,6.1409124E-3,4.468704E-3,-7.639762E-3,-6.727702E-3,-1.3499952E-2,5.4889056E-3,-7.0143077E-3],"split_indices":[2,2,3,3,1,3,3,0,0,0,0,0,0,0,0],"split_type":[0,0,0,0,0,0,0,0,0,0,0,0,0,0,0],"sum_hessian":[2.5990546E2,1.22839264E2,1.370662E2,9.800016E1,2.4839106E1,1.1007928E2,2.6986912E1,1.523375E1,8.27664E1,1.2152167E1,1.2686938E1,1.1232599E1,9.884668E1,2.6419106E0,2.4345001E1],"tree_param":{"num_deleted":"0","num_feature":"4","num_nodes":"15","size_leaf_vector":"0"}},{"base_weights":[-3.559573E-1,5.229789E-1,-1.1441922E0,7.243643E-1,-9.428357E-2,-1.2817583E0,-5.591983E-1,5.5386597E-1,9.0806246E-1,5.1530224E-1,-5.6690025E-1,-6.676803E-1,-1.344392E0,3.442756E-1,-7.3183507E-1],"categories":[],"categories_nodes":[],"categories_segments":[],"categories_sizes":[],"default_left":[1,1,1,1,1,1,1,0,0,0,0,0,0,0,0],"id":62,"left_children":[1,3,5,7,9,11,13,-1,-1,-1,-1,-1,-1,-1,-1],"loss_changes":[1.8077742E2,1.5438576E1,1.0342453E1,2.4206543E0,9.3101635E0,3.3518524E0,4.609455E0,0E0,0E0,0E0,0E0,0E0,0E0,0E0,0E0],"parents":[2147483647,0,0,1,1,2,2,3,3,4,4,5,5,6,6],"right_children":[2,4,6,8,10,12,14,-1,-1,-1,-1,-1,-1,-1,-1],"split_conditions":[1.8366667E3,1.1898071E3,5.678484E-1,4.2678794E-1,5.5E0,3.9883065E-1,6.7455435E-1,5.5386596E-3,9.080624E-3,5.1530222E-3,-5.6690024E-3,-6.676803E-3,-1.3443919E-2,3.442756E-3,-7.3183505E-3],"split_indices":[2,2,3,3,1,3,3,0,0,0,0,0,0,0,0],"split_type":[0,0,0,0,0,0,0,0,0,0,0,0,0,0,0],"sum_hessian":[2.590706E2,1.2264712E2,1.3642348E2,9.23454E1,3.0301722E1,1.094859E2,2.6937578E1,4.9975773E1,4.2369625E1,1.3193847E1,1.7107876E1,1.1212769E1,9.827313E1,4.1620035E0,2.2775574E1],"tree_param":{"num_deleted":"0","num_feature":"4","num_nodes":"15","size_leaf_vector":"0"}},{"base_weights":[-3.535851E-1,1.2595024E0,-1.3209538E0,1.3397037E0,1.9084051E-1,-9.8109776E-1,-1.3720667E0,1.3526754E0,4.2624164E-1,-5.6880426E-1,7.449603E-1,1.2370972E-1,-1.0389181E0],"categories":[],"categories_nodes":[],"categories_segments":[],"categories_sizes":[],"default_left":[1,1,1,1,1,1,0,0,0,0,0,0,0],"id":63,"left_children":[1,3,5,7,9,11,-1,-1,-1,-1,-1,-1,-1],"loss_changes":[4.0618723E2,8.117554E0,1.477356E0,4.9824524E-1,3.7853646E0,1.7101307E0,0E0,0E0,0E0,0E0,0E0,0E0,0E0],"parents":[2147483647,0,0,1,1,2,2,3,3,4,4,5,5],"right_children":[2,4,6,8,10,12,-1,-1,-1,-1,-1,-1,-1],"split_conditions":[8.8266235E1,8.629648E1,9.119867E1,3.006E3,8.6879555E1,1.5E0,-1.3720667E-2,1.3526754E-2,4.262416E-3,-5.6880424E-3,7.4496027E-3,1.2370972E-3,-1.0389181E-2],"split_indices":[0,0,0,2,0,1,0,0,0,0,0,0,0],"split_type":[0,0,0,0,0,0,0,0,0,0,0,0,0],"sum_hessian":[2.5823505E2,9.669468E1,1.6154036E2,8.9708565E1,6.9861126E0,2.3758896E1,1.3778146E2,8.797839E1,1.7301698E0,2.9354262E0,4.0506864E0,1.1249154E0,2.2633982E1],"tree_param":{"num_deleted":"0","num_feature":"4","num_nodes":"13","size_leaf_vector":"0"}},{"base_weights":[-3.5192704E-1,1.2532969E0,-1.3150907E0,1.3334714E0,1.8935075E-1,-9.746411E-1,-1.3664666E0,1.346463E0,4.236516E-1,-5.648659E-1,7.39892E-1,-1.0567584E0,2.02747E-1],"categories":[],"categories_nodes":[],"categories_segments":[],"categories_sizes":[],"default_left":[1,1,1,1,1,1,0,0,0,0,0,0,0],"id":64,"left_children":[1,3,5,7,9,11,-1,-1,-1,-1,-1,-1,-1],"loss_changes":[4.003378E2,8.040085E0,1.4956665E0,4.961548E-1,3.73056E0,2.6007519E0,0E0,0E0,0E0,0E0,0E0,0E0,0E0],"parents":[2147483647,0,0,1,1,2,2,3,3,4,4,5,5],"right_children":[2,4,6,8,10,12,-1,-1,-1,-1,-1,-1,-1],"split_conditions":[8.8266235E1,8.629648E1,9.119867E1,3.006E3,8.6879555E1,7.923335E-1,-1.3664667E-2,1.346463E-2,4.236516E-3,-5.6486586E-3,7.3989197E-3,-1.0567584E-2,2.02747E-3],"split_indices":[0,0,0,2,0,3,0,0,0,0,0,0,0],"split_type":[0,0,0,0,0,0,0,0,0,0,0,0,0],"sum_hessian":[2.5686908E2,9.621477E1,1.6065431E2,8.9236916E1,6.977847E0,2.3683481E1,1.3697083E2,8.750746E1,1.7294569E0,2.9333167E0,4.0445304E0,2.223514E1,1.448341E0],"tree_param":{"num_deleted":"0","num_feature":"4","num_nodes":"13","size_leaf_vector":"0"}},{"base_weights":[-3.5029462E-1,1.2471799E0,-1.3093333E0,1.3273345E0,1.8787536E-1,-9.683379E-1,-1.3609587E0,1.3403475E0,4.2107943E-1,-5.6095994E-1,7.3486894E-1,1.2597144E-1,-1.0260475E0],"categories":[],"categories_nodes":[],"categories_segments":[],"categories_sizes":[],"default_left":[1,1,1,1,1,1,0,0,0,0,0,0,0],"id":65,"left_children":[1,3,5,7,9,11,-1,-1,-1,-1,-1,-1,-1],"loss_changes":[3.945947E2,7.96402E0,1.5122375E0,4.9420166E-1,3.6766033E0,1.6831093E0,0E0,0E0,0E0,0E0,0E0,0E0,0E0],"parents":[2147483647,0,0,1,1,2,2,3,3,4,4,5,5],"right_children":[2,4,6,8,10,12,-1,-1,-1,-1,-1,-1,-1],"split_conditions":[8.8266235E1,8.629648E1,9.119867E1,3.006E3,8.6879555E1,1.5E0,-1.3609586E-2,1.3403475E-2,4.2107943E-3,-5.6095994E-3,7.3486893E-3,1.2597144E-3,-1.0260475E-2],"split_indices":[0,0,0,2,0,1,0,0,0,0,0,0,0],"split_type":[0,0,0,0,0,0,0,0,0,0,0,0,0],"sum_hessian":[2.554958E2,9.573282E1,1.5976299E2,8.876332E1,6.9694986E0,2.3604961E1,1.3615802E2,8.7034584E1,1.7287334E0,2.9311779E0,4.038321E0,1.1232203E0,2.248174E1],"tree_param":{"num_deleted":"0","num_feature":"4","num_nodes":"13","size_leaf_vector":"0"}},{"base_weights":[-3.4868363E-1,1.2411488E0,-1.3036404E0,1.3212904E0,1.864141E-1,-9.6200573E-1,-1.3555411E0,-5.570859E-1,7.298902E-1,-1.1083626E0,-1.82654E-1],"categories":[],"categories_nodes":[],"categories_segments":[],"categories_sizes":[],"default_left":[1,1,1,0,1,1,0,0,0,0,0],"id":66,"left_children":[1,3,5,-1,7,9,-1,-1,-1,-1,-1],"loss_changes":[3.8894855E2,7.8894196E0,1.5306702E0,0E0,3.6234772E0,2.595415E0,0E0,0E0,0E0,0E0,0E0],"parents":[2147483647,0,0,1,1,2,2,4,4,5,5],"right_children":[2,4,6,-1,8,10,-1,-1,-1,-1,-1],"split_conditions":[8.8266235E1,8.629648E1,9.119867E1,1.3212903E-2,8.6879555E1,5.83925E-1,-1.3555411E-2,-5.5708587E-3,7.298902E-3,-1.1083625E-2,-1.8265399E-3],"split_indices":[0,0,0,0,0,3,0,0,0,0,0],"split_type":[0,0,0,0,0,0,0,0,0,0,0],"sum_hessian":[2.5412128E2,9.5249E1,1.5887227E2,8.8287926E1,6.961071E0,2.352901E1,1.3534326E2,2.9290104E0,4.0320606E0,1.9453602E1,4.0754094E0],"tree_param":{"num_deleted":"0","num_feature":"4","num_nodes":"11","size_leaf_vector":"0"}},{"base_weights":[-3.4712955E-1,1.2351173E0,-1.2980869E0,1.315243E0,1.8496671E-1,-9.560527E-1,-1.3502114E0,-5.532436E-1,7.2495544E-1,-1.102086E0,-1.8123616E-1],"categories":[],"categories_nodes":[],"categories_segments":[],"categories_sizes":[],"default_left":[1,1,1,0,1,1,0,0,0,0,0],"id":67,"left_children":[1,3,5,-1,7,9,-1,-1,-1,-1,-1],"loss_changes":[3.833962E2,7.8148956E0,1.543396E0,0E0,3.5711706E0,2.5666294E0,0E0,0E0,0E0,0E0,0E0],"parents":[2147483647,0,0,1,1,2,2,4,4,5,5],"right_children":[2,4,6,-1,8,10,-1,-1,-1,-1,-1],"split_conditions":[8.8266235E1,8.629648E1,9.119867E1,1.315243E-2,8.6879555E1,5.83925E-1,-1.35021135E-2,-5.5324356E-3,7.249554E-3,-1.1020859E-2,-1.8123615E-3],"split_indices":[0,0,0,0,0,3,0,0,0,0,0],"split_type":[0,0,0,0,0,0,0,0,0,0,0],"sum_hessian":[2.5274213E2,9.476647E1,1.5797566E2,8.78139E1,6.9525666E0,2.3448889E1,1.3452678E2,2.9268157E0,4.025751E0,1.937484E1,4.074049E0],"tree_param":{"num_deleted":"0","num_feature":"4","num_nodes":"11","size_leaf_vector":"0"}},{"base_weights":[-3.4559745E-1,1.2291679E0,-1.2926135E0,1.3092842E0,1.83533E-1,-8.873986E-1,-1.3354193E0,1.3226738E0,4.025751E-1,-5.494324E-1,7.200636E-1,-1.0653834E0,1.0430309E-1],"categories":[],"categories_nodes":[],"categories_segments":[],"categories_sizes":[],"default_left":[1,1,1,1,1,1,0,0,0,0,0,0,0],"id":68,"left_children":[1,3,5,7,9,11,-1,-1,-1,-1,-1,-1,-1],"loss_changes":[3.7793988E2,7.741745E0,1.5568848E0,5.399933E-1,3.5196664E0,3.3031082E0,0E0,0E0,0E0,0E0,0E0,0E0,0E0],"parents":[2147483647,0,0,1,1,2,2,3,3,4,4,5,5],"right_children":[2,4,6,8,10,12,-1,-1,-1,-1,-1,-1,-1],"split_conditions":[8.8266235E1,8.629648E1,9.085226E1,3.006E3,8.6879555E1,6.4715093E-1,-1.33541925E-2,1.3226737E-2,4.025751E-3,-5.494324E-3,7.200636E-3,-1.0653834E-2,1.0430309E-3],"split_indices":[0,0,0,2,0,3,0,0,0,0,0,0,0],"split_type":[0,0,0,0,0,0,0,0,0,0,0,0,0],"sum_hessian":[2.5135965E2,9.428235E1,1.570773E2,8.733836E1,6.943989E0,1.7084095E1,1.3999321E2,8.561529E1,1.7230698E0,2.9245942E0,4.0193944E0,1.4421509E1,2.662586E0],"tree_param":{"num_deleted":"0","num_feature":"4","num_nodes":"13","size_leaf_vector":"0"}},{"base_weights":[-3.4406167E-1,1.2233818E0,-1.2872002E0,1.3035042E0,1.8211295E-1,-9.439007E-1,-1.339844E0,-2.4702907E-1,1.1202295E0,-1.0895324E0,-1.7693764E-1],"categories":[],"categories_nodes":[],"categories_segments":[],"categories_sizes":[],"default_left":[1,1,1,0,1,1,0,0,0,0,0],"id":69,"left_children":[1,3,5,-1,7,9,-1,-1,-1,-1,-1],"loss_changes":[3.7258914E2,7.671173E0,1.5758972E0,0E0,3.4713793E0,2.5193634E0,0E0,0E0,0E0,0E0,0E0],"parents":[2147483647,0,0,1,1,2,2,4,4,5,5],"right_children":[2,4,6,-1,8,10,-1,-1,-1,-1,-1],"split_conditions":[8.8266235E1,8.629648E1,9.119867E1,1.3035042E-2,5.5487835E-1,5.83925E-1,-1.339844E-2,-2.4702905E-3,1.1202294E-2,-1.0895324E-2,-1.7693763E-3],"split_indices":[0,0,0,0,3,3,0,0,0,0,0],"split_type":[0,0,0,0,0,0,0,0,0,0,0],"sum_hessian":[2.499709E2,9.379377E1,1.5617712E2,8.685843E1,6.93534E0,2.3281864E1,1.3289526E2,5.2639966E0,1.6713433E0,1.9213083E1,4.068781E0],"tree_param":{"num_deleted":"0","num_feature":"4","num_nodes":"11","size_leaf_vector":"0"}},{"base_weights":[-3.425347E-1,1.2175784E0,-1.2818812E0,1.2977154E0,1.814412E-1,-9.381194E-1,-1.3347653E0,1.3271246E0,7.0673966E-1,-5.456087E-1,7.142176E-1,-1.0202433E0,2.0956153E-1],"categories":[],"categories_nodes":[],"categories_segments":[],"categories_sizes":[],"default_left":[1,1,1,1,1,1,0,0,0,0,0,0,0],"id":70,"left_children":[1,3,5,7,9,11,-1,-1,-1,-1,-1,-1,-1],"loss_changes":[3.67331E2,7.5956573E0,1.5888672E0,5.807495E-1,3.4626799E0,2.4948082E0,0E0,0E0,0E0,0E0,0E0,0E0,0E0],"parents":[2147483647,0,0,1,1,2,2,3,3,4,4,5,5],"right_children":[2,4,6,8,10,12,-1,-1,-1,-1,-1,-1,-1],"split_conditions":[8.8266235E1,8.629648E1,9.119867E1,2.192125E3,8.6879555E1,7.923335E-1,-1.3347653E-2,1.3271246E-2,7.0673963E-3,-5.4560867E-3,7.142176E-3,-1.0202433E-2,2.0956153E-3],"split_indices":[0,0,0,2,0,3,0,0,0,0,0,0,0],"split_type":[0,0,0,0,0,0,0,0,0,0,0,0,0],"sum_hessian":[2.4858955E2,9.331357E1,1.5527599E2,8.638029E1,6.933282E0,2.320115E1,1.3207483E2,8.109885E1,5.281441E0,2.9218762E0,4.0114055E0,2.175545E1,1.4457018E0],"tree_param":{"num_deleted":"0","num_feature":"4","num_nodes":"13","size_leaf_vector":"0"}},{"base_weights":[-3.4101874E-1,5.016931E-1,-1.1043514E0,6.6388226E-1,-1.9634488E-1,-1.242244E0,-5.248108E-1,1.0353903E0,5.500584E-1,5.0331974E-1,-8.30596E-1,-6.3245434E-1,-1.3050952E0,5.233941E-1,-6.5605307E-1],"categories":[],"categories_nodes":[],"categories_segments":[],"categories_sizes":[],"default_left":[1,1,1,1,1,1,1,0,0,0,0,0,0,0,0],"id":71,"left_children":[1,3,5,7,9,11,13,-1,-1,-1,-1,-1,-1,-1,-1],"loss_changes":[1.6021245E2,1.3563566E1,9.780502E0,3.5115547E0,1.068801E1,3.1881561E0,4.0333323E0,0E0,0E0,0E0,0E0,0E0,0E0,0E0,0E0],"parents":[2147483647,0,0,1,1,2,2,3,3,4,4,5,5,6,6],"right_children":[2,4,6,8,10,12,14,-1,-1,-1,-1,-1,-1,-1,-1],"split_conditions":[1.8366667E3,1.3164167E3,5.678484E-1,3.3174646E-1,5.5E0,3.9883065E-1,6.625447E-1,1.0353902E-2,5.500584E-3,5.0331973E-3,-8.30596E-3,-6.324543E-3,-1.3050952E-2,5.233941E-3,-6.5605305E-3],"split_indices":[2,2,3,3,1,3,3,0,0,0,0,0,0,0,0],"split_type":[0,0,0,0,0,0,0,0,0,0,0,0,0,0,0],"sum_hessian":[2.4719829E2,1.1765314E2,1.2954515E2,9.551026E1,2.2142878E1,1.0372251E2,2.5822641E1,2.0500982E1,7.500928E1,1.0626666E1,1.1516212E1,1.0725457E1,9.2997055E1,2.5409107E0,2.328173E1],"tree_param":{"num_deleted":"0","num_feature":"4","num_nodes":"15","size_leaf_vector":"0"}},{"base_weights":[-3.3880365E-1,4.976011E-1,-1.0989448E0,6.5852875E-1,-1.9478615E-1,-1.2371134E0,-5.2056205E-1,1.029037E0,5.452804E-1,4.9898046E-1,-8.245944E-1,-6.277186E-1,-1.300232E0,3.3165562E-1,-6.84806E-1],"categories":[],"categories_nodes":[],"categories_segments":[],"categories_sizes":[],"default_left":[1,1,1,1,1,1,1,0,0,0,0,0,0,0,0],"id":72,"left_children":[1,3,5,7,9,11,13,-1,-1,-1,-1,-1,-1,-1,-1],"loss_changes":[1.5781287E2,1.3327471E1,9.73671E0,3.4815483E0,1.0510032E1,3.1888733E0,3.9747171E0,0E0,0E0,0E0,0E0,0E0,0E0,0E0,0E0],"parents":[2147483647,0,0,1,1,2,2,3,3,4,4,5,5,6,6],"right_children":[2,4,6,8,10,12,14,-1,-1,-1,-1,-1,-1,-1,-1],"split_conditions":[1.8366667E3,1.3164167E3,5.678484E-1,3.3174646E-1,5.5E0,3.9883065E-1,6.7455435E-1,1.0290369E-2,5.452804E-3,4.9898047E-3,-8.245944E-3,-6.2771863E-3,-1.300232E-2,3.316556E-3,-6.8480596E-3],"split_indices":[2,2,3,3,1,3,3,0,0,0,0,0,0,0,0],"split_type":[0,0,0,0,0,0,0,0,0,0,0,0,0,0,0],"sum_hessian":[2.4635696E2,1.17458954E2,1.2889801E2,9.534691E1,2.2112047E1,1.0312403E2,2.577398E1,2.0427822E1,7.491908E1,1.0620613E1,1.1491433E1,1.0705955E1,9.2418076E1,3.9999628E0,2.1774015E1],"tree_param":{"num_deleted":"0","num_feature":"4","num_nodes":"15","size_leaf_vector":"0"}},{"base_weights":[-3.3661598E-1,4.9354336E-1,-1.09361E0,6.532195E-1,-1.9324094E-1,-1.2320435E0,-5.1643646E-1,1.0227387E0,5.405431E-1,4.9467996E-1,-8.1864107E-1,-6.2301797E-1,-1.2954363E0,5.178686E-1,-6.463198E-1],"categories":[],"categories_nodes":[],"categories_segments":[],"categories_sizes":[],"default_left":[1,1,1,1,1,1,1,0,0,0,0,0,0,0,0],"id":73,"left_children":[1,3,5,7,9,11,13,-1,-1,-1,-1,-1,-1,-1,-1],"loss_changes":[1.554566E2,1.3095526E1,9.690903E0,3.4518814E0,1.0335088E1,3.1898193E0,3.9249368E0,0E0,0E0,0E0,0E0,0E0,0E0,0E0,0E0],"parents":[2147483647,0,0,1,1,2,2,3,3,4,4,5,5,6,6],"right_children":[2,4,6,8,10,12,14,-1,-1,-1,-1,-1,-1,-1,-1],"split_conditions":[1.8366667E3,1.3164167E3,5.678484E-1,3.3174646E-1,5.5E0,3.9883065E-1,6.625447E-1,1.0227387E-2,5.4054307E-3,4.9467995E-3,-8.18641E-3,-6.2301797E-3,-1.2954363E-2,5.1786858E-3,-6.463198E-3],"split_indices":[2,2,3,3,1,3,3,0,0,0,0,0,0,0,0],"split_type":[0,0,0,0,0,0,0,0,0,0,0,0,0,0,0],"sum_hessian":[2.4551581E2,1.1726494E2,1.2825087E2,9.5183754E1,2.2081188E1,1.02525734E2,2.5725134E1,2.0354609E1,7.482915E1,1.0614539E1,1.1466648E1,1.0686505E1,9.1839226E1,2.5367723E0,2.318836E1],"tree_param":{"num_deleted":"0","num_feature":"4","num_nodes":"15","size_leaf_vector":"0"}},{"base_weights":[-3.3443645E-1,1.2066699E0,-1.2685794E0,1.287211E0,1.7533508E-1,-9.248028E-1,-1.321892E0,1.3004591E0,4.0241468E-1,-5.472902E-1,7.070911E-1,1.5531021E-1,-9.837358E-1],"categories":[],"categories_nodes":[],"categories_segments":[],"categories_sizes":[],"default_left":[1,1,1,1,1,1,0,0,0,0,0,0,0],"id":74,"left_children":[1,3,5,7,9,11,-1,-1,-1,-1,-1,-1,-1],"loss_changes":[3.5520868E2,7.518341E0,1.5898285E0,4.884796E-1,3.4268355E0,1.6760616E0,0E0,0E0,0E0,0E0,0E0,0E0,0E0],"parents":[2147483647,0,0,1,1,2,2,3,3,4,4,5,5],"right_children":[2,4,6,8,10,12,-1,-1,-1,-1,-1,-1,-1],"split_conditions":[8.8266235E1,8.629648E1,9.119867E1,3.006E3,8.6879555E1,1.5E0,-1.321892E-2,1.3004591E-2,4.0241466E-3,-5.4729017E-3,7.0709107E-3,1.553102E-3,-9.837357E-3],"split_indices":[0,0,0,2,0,1,0,0,0,0,0,0,0],"split_type":[0,0,0,0,0,0,0,0,0,0,0,0,0],"sum_hessian":[2.4467557E2,9.222887E1,1.524467E2,8.531795E1,6.9109163E0,2.293048E1,1.2951622E2,8.3596466E1,1.7214844E0,2.9172845E0,3.9936318E0,1.1017861E0,2.1828693E1],"tree_param":{"num_deleted":"0","num_feature":"4","num_nodes":"13","size_leaf_vector":"0"}},{"base_weights":[-3.3299917E-1,1.2011812E0,-1.2634654E0,1.2817545E0,1.739783E-1,-9.1885924E-1,-1.3171046E0,-2.5295484E-1,1.1088763E0,-1.001249E0,2.1322668E-1],"categories":[],"categories_nodes":[],"categories_segments":[],"categories_sizes":[],"default_left":[1,1,1,0,1,1,0,0,0,0,0],"id":75,"left_children":[1,3,5,-1,7,9,-1,-1,-1,-1,-1],"loss_changes":[3.502355E2,7.4523163E0,1.6095581E0,0E0,3.4345572E0,2.4383945E0,0E0,0E0,0E0,0E0,0E0],"parents":[2147483647,0,0,1,1,2,2,4,4,5,5],"right_children":[2,4,6,-1,8,10,-1,-1,-1,-1,-1],"split_conditions":[8.8266235E1,8.629648E1,9.119867E1,1.2817545E-2,5.5487835E-1,7.923335E-1,-1.3171045E-2,-2.5295482E-3,1.1088763E-2,-1.001249E-2,2.1322668E-3],"split_indices":[0,0,0,0,3,3,0,0,0,0,0],"split_type":[0,0,0,0,0,0,0,0,0,0,0],"sum_hessian":[2.4328517E2,9.173645E1,1.5154872E2,8.483429E1,6.902164E0,2.2853848E1,1.2869487E2,5.2390947E0,1.6630692E0,2.1411179E1,1.4426682E0],"tree_param":{"num_deleted":"0","num_feature":"4","num_nodes":"11","size_leaf_vector":"0"}},{"base_weights":[-3.3155826E-1,1.1956661E0,-1.2584419E0,1.2762779E0,1.7337117E-1,-9.130694E-1,-1.3123902E0,1.289747E0,3.922688E-1,-2.508044E-1,1.103122E0,-1.0590441E0,-1.6186601E-1],"categories":[],"categories_nodes":[],"categories_segments":[],"categories_sizes":[],"default_left":[1,1,1,1,1,1,0,0,0,0,0,0,0],"id":76,"left_children":[1,3,5,7,9,11,-1,-1,-1,-1,-1,-1,-1],"loss_changes":[3.4534473E2,7.3812256E0,1.6272125E0,5.103607E-1,3.392252E0,2.4355679E0,0E0,0E0,0E0,0E0,0E0,0E0,0E0],"parents":[2147483647,0,0,1,1,2,2,3,3,4,4,5,5],"right_children":[2,4,6,8,10,12,-1,-1,-1,-1,-1,-1,-1],"split_conditions":[8.8266235E1,8.629648E1,9.119867E1,3.006E3,5.5487835E-1,5.83925E-1,-1.3123902E-2,1.289747E-2,3.922688E-3,-2.5080438E-3,1.103122E-2,-1.0590441E-2,-1.61866E-3],"split_indices":[0,0,0,2,3,3,0,0,0,0,0,0,0],"split_type":[0,0,0,0,0,0,0,0,0,0,0,0,0],"sum_hessian":[2.419005E2,9.125305E1,1.5064745E2,8.435304E1,6.9000034E0,2.2774124E1,1.2787332E2,8.263501E1,1.7180375E0,5.239746E0,1.6602576E0,1.8725555E1,4.0485687E0],"tree_param":{"num_deleted":"0","num_feature":"4","num_nodes":"13","size_leaf_vector":"0"}},{"base_weights":[-3.3014268E-1,4.8386583E-1,-1.077003E0,6.4025754E-1,-1.8828239E-1,-1.2159308E0,-5.018971E-1,1.0725957E0,5.4413766E-1,4.896137E-1,-8.067347E-1,-6.0733527E-1,-1.2797664E0,5.0761056E-1,-6.2926143E-1],"categories":[],"categories_nodes":[],"categories_segments":[],"categories_sizes":[],"default_left":[1,1,1,1,1,1,1,0,0,0,0,0,0,0,0],"id":77,"left_children":[1,3,5,7,9,11,13,-1,-1,-1,-1,-1,-1,-1,-1],"loss_changes":[1.4734767E2,1.2340614E1,9.477692E0,3.3448715E0,9.918465E0,3.1462708E0,3.6969705E0,0E0,0E0,0E0,0E0,0E0,0E0,0E0,0E0],"parents":[2147483647,0,0,1,1,2,2,3,3,4,4,5,5,6,6],"right_children":[2,4,6,8,10,12,14,-1,-1,-1,-1,-1,-1,-1,-1],"split_conditions":[1.8366667E3,1.3164167E3,5.678484E-1,3.1345564E-1,5.5E0,3.9883065E-1,6.625447E-1,1.0725957E-2,5.4413765E-3,4.896137E-3,-8.067346E-3,-6.0733524E-3,-1.2797664E-2,5.0761057E-3,-6.292614E-3],"split_indices":[2,2,3,3,1,3,3,0,0,0,0,0,0,0,0],"split_type":[0,0,0,0,0,0,0,0,0,0,0,0,0,0,0],"sum_hessian":[2.4051065E2,1.15250465E2,1.2526019E2,9.353477E1,2.1715702E1,9.999114E1,2.5269049E1,1.5165012E1,7.836975E1,1.0459352E1,1.125635E1,1.049055E1,8.9500595E1,2.496437E0,2.2772612E1],"tree_param":{"num_deleted":"0","num_feature":"4","num_nodes":"15","size_leaf_vector":"0"}},{"base_weights":[-3.2801893E-1,1.1887004E0,-1.2510843E0,1.2694982E0,1.7123173E-1,-9.0527636E-1,-1.3053697E0,1.2983882E0,6.994968E-1,-5.4500675E-1,6.9964457E-1,-1.0507952E0,-1.611459E-1],"categories":[],"categories_nodes":[],"categories_segments":[],"categories_sizes":[],"default_left":[1,1,1,1,1,1,0,0,0,0,0,0,0],"id":78,"left_children":[1,3,5,7,9,11,-1,-1,-1,-1,-1,-1,-1],"loss_changes":[3.3844028E2,7.310486E0,1.6360779E0,4.861908E-1,3.368402E0,2.389368E0,0E0,0E0,0E0,0E0,0E0,0E0,0E0],"parents":[2147483647,0,0,1,1,2,2,3,3,4,4,5,5],"right_children":[2,4,6,8,10,12,-1,-1,-1,-1,-1,-1,-1],"split_conditions":[8.8266235E1,8.629648E1,9.119867E1,2.192125E3,8.6879555E1,5.83925E-1,-1.3053697E-2,1.2983882E-2,6.994968E-3,-5.4500676E-3,6.9964454E-3,-1.05079515E-2,-1.611459E-3],"split_indices":[0,0,0,2,0,3,0,0,0,0,0,0,0],"split_type":[0,0,0,0,0,0,0,0,0,0,0,0,0],"sum_hessian":[2.3967543E2,9.056966E1,1.4910577E2,8.36771E1,6.8925514E0,2.2629288E1,1.26476494E2,7.842436E1,5.25274E0,2.912879E0,3.9796727E0,1.858314E1,4.046149E0],"tree_param":{"num_deleted":"0","num_feature":"4","num_nodes":"13","size_leaf_vector":"0"}},{"base_weights":[-3.2665873E-1,1.1834626E0,-1.2462659E0,1.264315E0,1.6990723E-1,-8.9983594E-1,-1.3008358E0,1.2933421E0,6.947143E-1,-5.412641E-1,6.9497204E-1,1.6737658E-1,-9.5920694E-1],"categories":[],"categories_nodes":[],"categories_segments":[],"categories_sizes":[],"default_left":[1,1,1,1,1,1,0,0,0,0,0,0,0],"id":79,"left_children":[1,3,5,7,9,11,-1,-1,-1,-1,-1,-1,-1],"loss_changes":[3.337676E2,7.2487183E0,1.650116E0,4.93515E-1,3.3200383E0,1.652607E0,0E0,0E0,0E0,0E0,0E0,0E0,0E0],"parents":[2147483647,0,0,1,1,2,2,3,3,4,4,5,5],"right_children":[2,4,6,8,10,12,-1,-1,-1,-1,-1,-1,-1],"split_conditions":[8.8266235E1,8.629648E1,9.119867E1,2.192125E3,8.6879555E1,1.5E0,-1.3008358E-2,1.2933421E-2,6.947143E-3,-5.412641E-3,6.9497204E-3,1.6737657E-3,-9.592069E-3],"split_indices":[0,0,0,2,0,1,0,0,0,0,0,0,0],"split_type":[0,0,0,0,0,0,0,0,0,0,0,0,0],"sum_hessian":[2.382801E2,9.0076004E1,1.482041E2,8.319226E1,6.8837376E0,2.2548365E1,1.2565574E2,7.794932E1,5.2429457E0,2.9106164E0,3.9731212E0,1.0924301E0,2.1455935E1],"tree_param":{"num_deleted":"0","num_feature":"4","num_nodes":"13","size_leaf_vector":"0"}},{"base_weights":[-3.2529208E-1,1.1782892E0,-1.241446E0,1.2592013E0,1.6859497E-1,-8.308549E-1,-1.2864314E0,1.2883687E0,6.899709E-1,-5.3755134E-1,6.903385E-1,-6.1844494E-2,-9.9342144E-1],"categories":[],"categories_nodes":[],"categories_segments":[],"categories_sizes":[],"default_left":[1,1,1,1,1,1,0,0,0,0,0,0,0],"id":80,"left_children":[1,3,5,7,9,11,-1,-1,-1,-1,-1,-1,-1],"loss_changes":[3.2915768E2,7.1879272E0,1.6704712E0,5.008545E-1,3.2724075E0,2.1223507E0,0E0,0E0,0E0,0E0,0E0,0E0,0E0],"parents":[2147483647,0,0,1,1,2,2,3,3,4,4,5,5],"right_children":[2,4,6,8,10,12,-1,-1,-1,-1,-1,-1,-1],"split_conditions":[8.8266235E1,8.629648E1,9.085226E1,2.192125E3,8.6879555E1,8.518667E2,-1.2864314E-2,1.2883686E-2,6.899709E-3,-5.3755133E-3,6.903385E-3,-6.1844493E-4,-9.934214E-3],"split_indices":[0,0,0,2,0,2,0,0,0,0,0,0,0],"split_type":[0,0,0,0,0,0,0,0,0,0,0,0,0],"sum_hessian":[2.3688898E2,8.9581955E1,1.47307E2,8.270709E1,6.8748655E0,1.646816E1,1.3083885E2,7.747397E1,5.2331233E0,2.90833E0,3.9665356E0,3.1147E0,1.3353461E1],"tree_param":{"num_deleted":"0","num_feature":"4","num_nodes":"13","size_leaf_vector":"0"}},{"base_weights":[-3.2395732E-1,1.1731786E0,-1.2367308E0,1.2541555E0,1.6729479E-1,-8.8835794E-1,-1.2920023E0,1.2834663E0,6.8526626E-1,-5.3386825E-1,6.8574345E-1,-4.8955783E-1,-1.1239046E0],"categories":[],"categories_nodes":[],"categories_segments":[],"categories_sizes":[],"default_left":[1,1,1,1,1,1,0,0,0,0,0,0,0],"id":81,"left_children":[1,3,5,7,9,11,-1,-1,-1,-1,-1,-1,-1],"loss_changes":[3.2463202E2,7.128151E0,1.6905823E0,5.0816345E-1,3.2254994E0,1.6465263E0,0E0,0E0,0E0,0E0,0E0,0E0,0E0],"parents":[2147483647,0,0,1,1,2,2,3,3,4,4,5,5],"right_children":[2,4,6,8,10,12,-1,-1,-1,-1,-1,-1,-1],"split_conditions":[8.8266235E1,8.629648E1,9.119867E1,2.192125E3,8.6879555E1,1.8632E3,-1.2920023E-2,1.28346635E-2,6.852662E-3,-5.3386823E-3,6.8574343E-3,-4.895578E-3,-1.1239045E-2],"split_indices":[0,0,0,2,0,2,0,0,0,0,0,0,0],"split_type":[0,0,0,0,0,0,0,0,0,0,0,0,0],"sum_hessian":[2.3549489E2,8.9087616E1,1.4640727E2,8.222167E1,6.865938E0,2.2385525E1,1.2402174E2,7.69984E1,5.2232757E0,2.9060209E0,3.9599175E0,9.4553E0,1.2930224E1],"tree_param":{"num_deleted":"0","num_feature":"4","num_nodes":"13","size_leaf_vector":"0"}},{"base_weights":[-3.226638E-1,1.168129E0,-1.2321172E0,1.2491759E0,1.6600654E-1,-8.832107E-1,-1.2876657E0,1.2786332E0,6.805997E-1,-5.302144E-1,6.811863E-1,1.7875598E-1,-9.431011E-1],"categories":[],"categories_nodes":[],"categories_segments":[],"categories_sizes":[],"default_left":[1,1,1,1,1,1,0,0,0,0,0,0,0],"id":82,"left_children":[1,3,5,7,9,11,-1,-1,-1,-1,-1,-1,-1],"loss_changes":[3.201906E2,7.06929E0,1.7022247E0,5.154877E-1,3.1793003E0,1.6508427E0,0E0,0E0,0E0,0E0,0E0,0E0,0E0],"parents":[2147483647,0,0,1,1,2,2,3,3,4,4,5,5],"right_children":[2,4,6,8,10,12,-1,-1,-1,-1,-1,-1,-1],"split_conditions":[8.8266235E1,8.629648E1,9.119867E1,2.192125E3,8.6879555E1,1.5E0,-1.2876657E-2,1.27863325E-2,6.805997E-3,-5.302144E-3,6.811863E-3,1.7875598E-3,-9.431011E-3],"split_indices":[0,0,0,2,0,1,0,0,0,0,0,0,0],"split_type":[0,0,0,0,0,0,0,0,0,0,0,0,0],"sum_hessian":[2.3410092E2,8.859308E1,1.4550784E2,8.1736115E1,6.8569584E0,2.230533E1,1.2320251E2,7.652271E1,5.213404E0,2.9036896E0,3.953269E0,1.0848166E0,2.1220512E1],"tree_param":{"num_deleted":"0","num_feature":"4","num_nodes":"13","size_leaf_vector":"0"}},{"base_weights":[-3.2134506E-1,1.1631391E0,-1.2274734E0,1.2442608E0,1.6473001E-1,-8.7760687E-1,-1.2833921E0,1.2738678E0,6.759707E-1,-2.5695196E-1,1.0911249E0,-1.0257025E0,-1.3581279E-1],"categories":[],"categories_nodes":[],"categories_segments":[],"categories_sizes":[],"default_left":[1,1,1,1,1,1,0,0,0,0,0,0,0],"id":83,"left_children":[1,3,5,7,9,11,-1,-1,-1,-1,-1,-1,-1],"loss_changes":[3.1580048E2,7.01136E0,1.7224731E0,5.228119E-1,3.3461127E0,2.4125214E0,0E0,0E0,0E0,0E0,0E0,0E0,0E0],"parents":[2147483647,0,0,1,1,2,2,3,3,4,4,5,5],"right_children":[2,4,6,8,10,12,-1,-1,-1,-1,-1,-1,-1],"split_conditions":[8.8266235E1,8.629648E1,9.119867E1,2.192125E3,5.5487835E-1,5.83925E-1,-1.283392E-2,1.2738679E-2,6.7597064E-3,-2.5695194E-3,1.0911249E-2,-1.0257024E-2,-1.3581278E-3],"split_indices":[0,0,0,2,3,3,0,0,0,0,0,0,0],"split_type":[0,0,0,0,0,0,0,0,0,0,0,0,0],"sum_hessian":[2.3271126E2,8.809845E1,1.4461281E2,8.125052E1,6.8479285E0,2.2228727E1,1.2238408E2,7.6047005E1,5.2035117E0,5.2024693E0,1.6454589E0,1.821038E1,4.018347E0],"tree_param":{"num_deleted":"0","num_feature":"4","num_nodes":"13","size_leaf_vector":"0"}},{"base_weights":[-3.2002616E-1,1.1581972E0,-1.2229495E0,1.239409E0,1.6419753E-1,-8.7238157E-1,-1.27918E0,1.2691687E0,6.713788E-1,-2.547691E-1,1.0855935E0,-1.0202289E0,-1.3475627E-1],"categories":[],"categories_nodes":[],"categories_segments":[],"categories_sizes":[],"default_left":[1,1,1,1,1,1,0,0,0,0,0,0,0],"id":84,"left_children":[1,3,5,7,9,11,-1,-1,-1,-1,-1,-1,-1],"loss_changes":[3.115059E2,6.949539E0,1.7367706E0,5.300827E-1,3.3052275E0,2.38694E0,0E0,0E0,0E0,0E0,0E0,0E0,0E0],"parents":[2147483647,0,0,1,1,2,2,3,3,4,4,5,5],"right_children":[2,4,6,8,10,12,-1,-1,-1,-1,-1,-1,-1],"split_conditions":[8.8266235E1,8.629648E1,9.119867E1,2.192125E3,5.5487835E-1,5.83925E-1,-1.27918E-2,1.2691687E-2,6.7137876E-3,-2.5476909E-3,1.0855935E-2,-1.0202289E-2,-1.3475626E-3],"split_indices":[0,0,0,2,3,3,0,0,0,0,0,0,0],"split_type":[0,0,0,0,0,0,0,0,0,0,0,0,0],"sum_hessian":[2.3132507E2,8.761054E1,1.4371454E2,8.0764984E1,6.8455534E0,2.2147964E1,1.21566574E2,7.557139E1,5.1936E0,5.2031384E0,1.6424149E0,1.8130764E1,4.0171995E0],"tree_param":{"num_deleted":"0","num_feature":"4","num_nodes":"13","size_leaf_vector":"0"}},{"base_weights":[-3.1872252E-1,1.1533122E0,-1.2184812E0,1.2346187E0,1.6366813E-1,-8.671985E-1,-1.2750283E0,1.2645341E0,6.668233E-1,-2.526055E-1,1.080123E0,-1.0148027E0,-1.3370785E-1],"categories":[],"categories_nodes":[],"categories_segments":[],"categories_sizes":[],"default_left":[1,1,1,1,1,1,0,0,0,0,0,0,0],"id":85,"left_children":[1,3,5,7,9,11,-1,-1,-1,-1,-1,-1,-1],"loss_changes":[3.0727982E2,6.888687E0,1.7510986E0,5.373688E-1,3.264954E0,2.3617172E0,0E0,0E0,0E0,0E0,0E0,0E0,0E0],"parents":[2147483647,0,0,1,1,2,2,3,3,4,4,5,5],"right_children":[2,4,6,8,10,12,-1,-1,-1,-1,-1,-1,-1],"split_conditions":[8.8266235E1,8.629648E1,9.119867E1,2.192125E3,5.5487835E-1,5.83925E-1,-1.2750283E-2,1.26453405E-2,6.6682333E-3,-2.5260549E-3,1.080123E-2,-1.0148027E-2,-1.3370785E-3],"split_indices":[0,0,0,2,3,3,0,0,0,0,0,0,0],"split_type":[0,0,0,0,0,0,0,0,0,0,0,0,0],"sum_hessian":[2.2994006E2,8.712269E1,1.4281738E2,8.0279594E1,6.843094E0,2.206724E1,1.20750145E2,7.5095924E1,5.183671E0,5.203788E0,1.6393064E0,1.805118E1,4.0160584E0],"tree_param":{"num_deleted":"0","num_feature":"4","num_nodes":"13","size_leaf_vector":"0"}},{"base_weights":[-3.1743357E-1,4.6499088E-1,-1.042655E0,6.151612E-1,-1.7924172E-1,-1.1835014E0,-4.6767247E-1,1.0403506E0,5.204874E-1,4.833891E-1,-7.878466E-1,-5.729313E-1,-1.2484243E0,3.225616E-1,-6.2254703E-1],"categories":[],"categories_nodes":[],"categories_segments":[],"categories_sizes":[],"default_left":[1,1,1,1,1,1,1,0,0,0,0,0,0,0,0],"id":86,"left_children":[1,3,5,7,9,11,13,-1,-1,-1,-1,-1,-1,-1,-1],"loss_changes":[1.3074226E2,1.0860033E1,9.119385E0,3.0949135E0,9.16389E0,3.0619202E0,3.2794127E0,0E0,0E0,0E0,0E0,0E0,0E0,0E0,0E0],"parents":[2147483647,0,0,1,1,2,2,3,3,4,4,5,5,6,6],"right_children":[2,4,6,8,10,12,14,-1,-1,-1,-1,-1,-1,-1,-1],"split_conditions":[1.8366667E3,1.3164167E3,5.678484E-1,3.1345564E-1,5.5E0,3.9883065E-1,6.7455435E-1,1.04035055E-2,5.204874E-3,4.833891E-3,-7.8784665E-3,-5.7293125E-3,-1.2484242E-2,3.225616E-3,-6.22547E-3],"split_indices":[2,2,3,3,1,3,3,0,0,0,0,0,0,0,0],"split_type":[0,0,0,0,0,0,0,0,0,0,0,0,0,0,0],"sum_hessian":[2.2855646E2,1.101149E2,1.1844157E2,8.933587E1,2.0779026E1,9.428694E1,2.4154625E1,1.4450125E1,7.488575E1,1.0046472E1,1.0732555E1,1.0006391E1,8.428055E1,3.7807822E0,2.0373842E1],"tree_param":{"num_deleted":"0","num_feature":"4","num_nodes":"15","size_leaf_vector":"0"}},{"base_weights":[-3.154366E-1,1.1470648E0,-1.2119297E0,1.2286189E0,1.6168705E-1,-8.599142E-1,-1.2688978E0,1.2426289E0,3.6643022E-1,-2.5213864E-1,1.0737486E0,-9.4378245E-1,2.3451902E-1],"categories":[],"categories_nodes":[],"categories_segments":[],"categories_sizes":[],"default_left":[1,1,1,1,1,1,0,0,0,0,0,0,0],"id":87,"left_children":[1,3,5,7,9,11,-1,-1,-1,-1,-1,-1,-1],"loss_changes":[3.01293E2,6.828247E0,1.7623901E0,5.183258E-1,3.2280717E0,2.3254204E0,0E0,0E0,0E0,0E0,0E0,0E0,0E0],"parents":[2147483647,0,0,1,1,2,2,3,3,4,4,5,5],"right_children":[2,4,6,8,10,12,-1,-1,-1,-1,-1,-1,-1],"split_conditions":[8.8266235E1,8.629648E1,9.119867E1,3.006E3,5.5487835E-1,7.923335E-1,-1.2688978E-2,1.2426289E-2,3.6643022E-3,-2.5213864E-3,1.0737485E-2,-9.437825E-3,2.3451902E-3],"split_indices":[0,0,0,2,3,3,0,0,0,0,0,0,0],