{"learner":{"attributes":{"best_iteration":"399","best_ntree_limit":"400","scikit_learn":"{\"use_label_encoder\": null, \"n_estimators\": 400, \"objective\": \"binary:logistic\", \"max_depth\": 5, \"max_leaves\": null, \"max_bin\": null, \"grow_policy\": null, \"learning_rate\": 0.02, \"verbosity\": null, \"booster\": null, \"tree_method\": null, \"gamma\": 1, \"min_child_weight\": 3, \"max_delta_step\": null, \"subsample\": 0.7, \"sampling_method\": null, \"colsample_bytree\": 0.4, \"colsample_bylevel\": null, \"colsample_bynode\": null, \"reg_alpha\": null, \"reg_lambda\": null, \"scale_pos_weight\": null, \"base_score\": null, \"missing\": NaN, \"num_parallel_tree\": null, \"random_state\": null, \"n_jobs\": null, \"monotone_constraints\": null, \"interaction_constraints\": null, \"importance_type\": null, \"gpu_id\": null, \"validate_parameters\": null, \"predictor\": null, \"enable_categorical\": false, \"feature_types\": null, \"max_cat_to_onehot\": null, \"max_cat_threshold\": null, \"eval_metric\": null, \"early_stopping_rounds\": null, \"callbacks\": null, \"classes_\": [0, 1], \"n_classes_\": 2, \"_estimator_type\": \"classifier\"}"},"feature_names":[],"feature_types":[],"gradient_booster":{"model":{"gbtree_model_param":{"num_parallel_tree":"1","num_trees":"400","size_leaf_vector":"0"},"tree_info":[0,0,0,0,0,0,0,0,0,0,0,0,0,0,0,0,0,0,0,0,0,0,0,0,0,0,0,0,0,0,0,0,0,0,0,0,0,0,0,0,0,0,0,0,0,0,0,0,0,0,0,0,0,0,0,0,0,0,0,0,0,0,0,0,0,0,0,0,0,0,0,0,0,0,0,0,0,0,0,0,0,0,0,0,0,0,0,0,0,0,0,0,0,0,0,0,0,0,0,0,0,0,0,0,0,0,0,0,0,0,0,0,0,0,0,0,0,0,0,0,0,0,0,0,0,0,0,0,0,0,0,0,0,0,0,0,0,0,0,0,0,0,0,0,0,0,0,0,0,0,0,0,0,0,0,0,0,0,0,0,0,0,0,0,0,0,0,0,0,0,0,0,0,0,0,0,0,0,0,0,0,0,0,0,0,0,0,0,0,0,0,0,0,0,0,0,0,0,0,0,0,0,0,0,0,0,0,0,0,0,0,0,0,0,0,0,0,0,0,0,0,0,0,0,0,0,0,0,0,0,0,0,0,0,0,0,0,0,0,0,0,0,0,0,0,0,0,0,0,0,0,0,0,0,0,0,0,0,0,0,0,0,0,0,0,0,0,0,0,0,0,0,0,0,0,0,0,0,0,0,0,0,0,0,0,0,0,0,0,0,0,0,0,0,0,0,0,0,0,0,0,0,0,0,0,0,0,0,0,0,0,0,0,0,0,0,0,0,0,0,0,0,0,0,0,0,0,0,0,0,0,0,0,0,0,0,0,0,0,0,0,0,0,0,0,0,0,0,0,0,0,0,0,0,0,0,0,0,0,0,0,0,0,0,0,0,0,0,0,0,0,0,0,0,0,0,0,0,0,0,0,0,0,0,0,0,0,0,0,0,0,0,0,0,0,0,0,0,0,0],"trees":[{"base_weights":[-2.007435E-1,-1.4609164E0,4.5980254E-1,-1.5766016E0,1.5E0,-5.477707E-1,1.2481203E0,-5.5737704E-1,-1.7615894E0,-1.4285715E0,-1.0050251E-2,9.756097E-2,1.5264797E0,-1.3513514E0,5.714286E-1,-1.2238806E0,-1.8828452E0,-1.0526316E-1,-1.6153846E0,-5.0980395E-1,4.950495E-1,5.5172414E-1,-8.5714287E-1,1.6579926E0,7.8571427E-1,-5E-1,-1.68E0,1.25E0,-2.5E-1,-5.6E-1,-1.4782609E0,-1.7362638E0,-5.882353E-1,-3.181818E-1,-1.3333334E0,-7.4285716E-1,1.0857143E0,1.8181819E-1,1.3333334E0,-2.5E-1,-1.25E0,1.3333334E0,1.7814207E0,5.7142857E-2,1.68E0],"categories":[],"categories_nodes":[],"categories_segments":[],"categories_sizes":[],"default_left":[1,1,1,1,0,1,1,1,1,1,1,1,1,1,1,1,0,0,1,1,1,1,1,1,1,0,0,0,0,0,0,0,0,0,0,0,0,0,0,0,0,1,1,0,0],"id":0,"left_children":[1,3,5,7,-1,9,11,13,15,17,19,21,23,25,27,29,-1,-1,31,33,35,37,39,-1,43,-1,-1,-1,-1,-1,-1,-1,-1,-1,-1,-1,-1,-1,-1,-1,-1,-1,-1,-1,-1],"loss_changes":[2.2458794E2,3.4134964E1,1.414712E2,1.5939957E1,0E0,3.716517E1,3.1797928E1,1.4439901E1,2.6182404E0,7.1845016E0,1.2810545E1,9.361528E0,6.5152435E0,1.7481079E0,4.214286E0,2.000883E0,0E0,0E0,2.2068558E0,3.599822E0,1.9269024E1,3.949843E0,1.3571429E0,3.1962585E-1,9.025714E0,0E0,0E0,0E0,0E0,0E0,0E0,0E0,0E0,0E0,0E0,0E0,0E0,0E0,0E0,0E0,0E0,0E0,0E0,0E0,0E0],"parents":[2147483647,0,0,1,1,2,2,3,3,5,5,6,6,7,7,8,8,9,9,10,10,11,11,12,12,13,13,14,14,15,15,18,18,19,19,20,20,21,21,22,22,23,23,24,24],"right_children":[2,4,6,8,-1,10,12,14,16,18,20,22,24,26,28,30,-1,-1,32,34,36,38,40,-1,44,-1,-1,-1,-1,-1,-1,-1,-1,-1,-1,-1,-1,-1,-1,-1,-1,-1,-1,-1,-1],"split_conditions":[3.6922145E-1,2.63605E4,7.962E3,1.163E4,3E-2,6.5047204E-1,4.119714E-1,3.3212855E-1,3.25E0,2.75E0,1.8905E3,4.1964474E-1,1.49915E4,5.5E0,1.275E1,2.565244E-1,-3.7656903E-2,-2.105263E-3,1.168E3,2.43E2,3.955E3,3.990286E-1,1.536E4,3.3159852E-2,2.5636E4,-1E-2,-3.36E-2,2.4999999E-2,-5E-3,-1.12E-2,-2.9565217E-2,-3.4725275E-2,-1.1764706E-2,-6.363636E-3,-2.6666667E-2,-1.4857143E-2,2.1714287E-2,3.6363637E-3,2.6666667E-2,-5E-3,-2.4999999E-2,2.6666667E-2,3.5628412E-2,1.1428571E-3,3.36E-2],"split_indices":[6,4,4,4,0,6,6,6,3,3,3,9,4,3,3,9,0,0,3,3,4,6,4,9,4,0,0,0,0,0,0,0,0,0,0,0,0,0,0,0,0,2147483647,2147483647,0,0],"split_type":[0,0,0,0,0,0,0,0,0,0,0,0,0,0,0,0,0,0,0,0,0,0,0,0,0,0,0,0,0,0,0,0,0,0,0,0,0,0,0,0,0,0,0,0,0],"sum_hessian":[2.68E2,9.175E1,1.7625E2,8.875E1,3E0,7.75E1,9.875E1,1.425E1,7.45E1,2.875E1,4.875E1,1.95E1,7.925E1,8.25E0,6E0,1.575E1,5.875E1,3.75E0,2.5E1,2.45E1,2.425E1,1.35E1,6E0,6.625E1,1.3E1,3E0,5.25E0,3E0,3E0,5.25E0,1.05E1,2.175E1,3.25E0,2.1E1,3.5E0,7.75E0,1.65E1,1E1,3.5E0,3E0,3E0,2.15E1,4.475E1,7.75E0,5.25E0],"tree_param":{"num_deleted":"2","num_feature":"10","num_nodes":"45","size_leaf_vector":"0"}},{"base_weights":[-2.3554444E-1,-1.6931316E0,1.5711039E0,-1.8954252E0,-7.1762615E-1,-4.845936E-1,1.7395115E0,-1.805729E-1,-1.7578022E0,1.4857331E-2,-1.098306E0,4.6409145E-1,1.7851902E0,1.3466425E-1,-1.0467749E0,1.4245708E0,1.912631E0,-2.7376074E-1,1.0061226E0,1.6007665E0,-1.1280159E-1],"categories":[],"categories_nodes":[],"categories_segments":[],"categories_sizes":[],"default_left":[1,1,1,0,1,1,1,1,0,0,0,0,1,1,0,1,0,0,0,0,0],"id":1,"left_children":[1,3,5,-1,7,9,11,13,-1,-1,-1,-1,15,17,-1,19,-1,-1,-1,-1,-1],"loss_changes":[7.174633E2,2.8381897E1,4.298413E1,0E0,1.5042468E1,3.0812552E0,5.7389526E0,5.3967314E0,0E0,0E0,0E0,0E0,2.2607117E0,5.613599E0,0E0,8.914902E0,0E0,0E0,0E0,0E0,0E0],"parents":[2147483647,0,0,1,1,2,2,4,4,5,5,6,6,7,7,12,12,13,13,15,15],"right_children":[2,4,6,-1,8,10,12,14,-1,-1,-1,-1,16,18,-1,20,-1,-1,-1,-1,-1],"split_conditions":[8.941994E1,8.641626E1,3.8715E3,-3.7908502E-2,1.6166E4,6.6597545E-1,9.0057976E1,7.1468866E-1,-3.5156045E-2,2.9714662E-4,-2.1966118E-2,9.281829E-3,9.255705E1,6.4037114E-1,-2.0935496E-2,1.52645E4,3.825262E-2,-5.4752147E-3,2.0122452E-2,3.201533E-2,-2.2560318E-3],"split_indices":[0,0,4,0,4,8,0,8,0,0,0,0,0,6,0,4,0,0,0,0,0],"split_type":[0,0,0,0,0,0,0,0,0,0,0,0,0,0,0,0,0,0,0,0,0],"sum_hessian":[2.704428E2,1.4971608E2,1.20726715E2,1.2322046E2,2.6495625E1,8.999169E0,1.1172755E2,1.8247736E1,8.247889E0,5.4994235E0,3.4997458E0,4.249003E0,1.07478546E2,1.3997981E1,4.249755E0,3.1244427E1,7.6234116E1,9.998063E0,3.9999175E0,2.7994759E1,3.2496688E0],"tree_param":{"num_deleted":"0","num_feature":"10","num_nodes":"21","size_leaf_vector":"0"}},{"base_weights":[-1.7690986E-1,-1.6463944E0,1.5768462E0,-1.8663685E0,-7.0992595E-1,1.7479202E0,8.8524437E-1,-1.0070409E0,-3.7321258E-1,3.3748856E-1,1.7909487E0,-4.5926526E-1,1.2423508E0,-5.2320355E-1,-1.1990657E0,-1.167598E0,2.5578833E-1,1.8171123E0,7.81531E-1,1.5373199E0,3.480228E-1,-1.4078338E0,-5.6076056E-1,-3.628994E-1,8.551884E-1],"categories":[],"categories_nodes":[],"categories_segments":[],"categories_sizes":[],"default_left":[1,1,1,0,1,1,1,1,1,0,1,0,1,1,1,0,1,0,0,0,0,1,1,0,0],"id":2,"left_children":[1,3,5,-1,7,9,11,-1,15,-1,17,-1,19,-1,-1,-1,23,-1,-1,-1,-1,-1,-1,-1,-1],"loss_changes":[7.254567E2,3.0214325E1,1.3642853E1,0E0,2.6991453E0,5.5798645E0,1.3767637E1,8.35001E-1,8.291899E0,0E0,1.1852722E0,0E0,5.2653427E0,0E0,6.08902E-1,0E0,3.9253788E0,0E0,0E0,0E0,0E0,0E0,0E0,0E0,0E0],"parents":[2147483647,0,0,1,1,2,2,4,4,5,5,6,6,7,7,8,8,10,10,12,12,14,14,16,16],"right_children":[2,4,6,-1,8,10,12,-1,16,-1,18,-1,20,-1,-1,-1,24,-1,-1,-1,-1,-1,-1,-1,-1],"split_conditions":[8.973972E1,8.636259E1,5.9496653E-1,-3.732737E-2,4.7213113E-1,9.010033E1,9.159619E1,-2.0140817E-2,2.5E0,6.749771E-3,1.25575E4,-9.185305E-3,5.025E2,-1.046407E-2,-2.3981312E-2,-2.335196E-2,8.8088005E1,3.6342245E-2,1.563062E-2,3.0746397E-2,6.960456E-3,-2.8156675E-2,-1.1215211E-2,-7.2579877E-3,1.7103769E-2],"split_indices":[0,0,9,0,9,0,0,0,1,0,5,0,5,2147483647,2147483647,0,0,0,0,0,0,2147483647,2147483647,0,0],"split_type":[0,0,0,0,0,0,0,0,0,0,0,0,0,0,0,0,0,0,0,0,0,0,0,0,0],"sum_hessian":[2.794919E2,1.5210408E2,1.2738785E2,1.223673E2,2.9736774E1,1.0090159E2,2.6486265E1,1.4739707E1,1.4997067E1,3.2489157E0,9.765267E1,5.498454E0,2.098781E1,5.2460685E0,9.493639E0,6.248881E0,8.748186E0,9.440557E1,3.2471018E0,1.5241773E1,5.7460384E0,6.245398E0,3.2482407E0,4.4989896E0,4.2491965E0],"tree_param":{"num_deleted":"4","num_feature":"10","num_nodes":"25","size_leaf_vector":"0"}},{"base_weights":[-1.738066E-1,-1.6538827E0,6.3948977E-1,-1.6920863E0,-9.6596885E-1,2.1393892E-1,1.4928823E0,6.4106894E-1,-3.466123E-1,7.308135E-1,1.6362592E0,8.0366033E-1,-5.0538486E-1,-1.3739583E0,-6.557925E-2,1.3089178E0,-1.2335742E-1,5.3928244E-1,1.7058105E0,5.5220395E-1,1.4684691E0,-9.105717E-1,-1.92531E-2,-5.479662E-1,-1.6587279E0,1.4445558E-1,-1.2966365E0,1.7792423E0,9.149134E-1],"categories":[],"categories_nodes":[],"categories_segments":[],"categories_sizes":[],"default_left":[1,1,1,1,1,1,1,1,1,1,1,1,1,1,1,0,0,0,1,0,0,0,0,0,0,0,0,1,1],"id":3,"left_children":[1,-1,5,-1,-1,7,9,11,13,15,17,19,21,23,25,-1,-1,-1,-1,-1,-1,-1,-1,-1,-1,-1,-1,-1,-1],"loss_changes":[3.1666684E2,8.1640625E-1,6.1393166E1,0E0,0E0,2.76502E1,4.9638977E0,1.2590696E1,1.4400589E1,5.461956E0,2.6386108E0,8.823742E0,1.7026134E0,1.6150455E0,1.0648678E1,0E0,0E0,0E0,8.9255524E-1,0E0,0E0,0E0,0E0,0E0,0E0,0E0,0E0,0E0,0E0],"parents":[2147483647,0,0,1,1,2,2,5,5,6,6,7,7,8,8,9,9,10,10,11,11,12,12,13,13,14,14,18,18],"right_children":[2,-1,6,-1,-1,8,10,12,14,16,18,20,22,24,26,-1,-1,-1,-1,-1,-1,-1,-1,-1,-1,-1,-1,-1,-1],"split_conditions":[1.736627E-1,-3.3077653E-2,3.8975E3,-3.3841725E-2,-1.9319376E-2,5.469672E-1,5.252516E-1,5.5E0,4.9844158E-1,5.090946E-1,3.8E2,2.445E2,3.02E2,5.788714E-1,4.41E2,2.6178354E-2,-2.4671485E-3,1.0785649E-2,3.411621E-2,1.10440785E-2,2.9369382E-2,-1.8211434E-2,-3.8506198E-4,-1.09593235E-2,-3.3174556E-2,2.8891116E-3,-2.593273E-2,3.5584845E-2,1.8298268E-2],"split_indices":[8,8,3,2147483647,2147483647,9,9,5,8,9,5,3,3,9,5,0,0,0,8,0,0,0,0,0,0,0,0,2147483647,2147483647],"split_type":[0,0,0,0,0,0,0,0,0,0,0,0,0,0,0,0,0,0,0,0,0,0,0,0,0,0,0,0,0],"sum_hessian":[2.6119037E2,9.225915E1,1.6893121E2,8.602213E1,6.237013E0,1.1355621E2,5.5375008E1,6.436647E1,4.918974E1,9.734091E0,4.564092E1,5.663363E1,7.7328424E0,9.730374E0,3.9459366E1,5.487654E0,4.2464366E0,3.2431486E0,4.239777E1,4.241954E1,1.42140875E1,3.7413561E0,3.991486E0,3.2443051E0,6.486069E0,3.4462296E1,4.9970713E0,3.7652256E1,4.7455153E0],"tree_param":{"num_deleted":"4","num_feature":"10","num_nodes":"29","size_leaf_vector":"0"}},{"base_weights":[-1.6597292E-1,-1.6060185E0,1.5516992E0,-1.753478E0,-5.1408345E-1,-7.050475E-2,1.7001995E0,-1.8080412E0,-1.3145521E0,-1.7982544E-1,-1.4982793E0,5.701549E-1,-8.7329936E-1,1.1314733E0,1.7836565E0,1.3436283E-1,-1.7649446E0,8.2020116E-1,-5.9887683E-1,-2.0707828E-1,1.6114234E0,1.8100685E0,7.6990414E-1,-1.0904576E0,8.208112E-2],"categories":[],"categories_nodes":[],"categories_segments":[],"categories_sizes":[],"default_left":[1,1,1,1,1,1,1,0,1,1,0,0,0,1,1,0,0,0,1,0,0,0,0,0,0],"id":4,"left_children":[1,3,5,7,9,11,13,-1,15,17,-1,-1,-1,19,21,-1,-1,-1,23,-1,-1,-1,-1,-1,-1],"loss_changes":[6.8113306E2,2.3208038E1,3.0383514E1,7.7267456E-1,6.056636E0,6.410536E0,3.4464722E0,0E0,1.211647E1,6.9828334E0,0E0,0E0,0E0,1.1555729E1,1.2481995E0,0E0,0E0,0E0,3.937211E0,0E0,0E0,0E0,0E0,0E0,0E0],"parents":[2147483647,0,0,1,1,2,2,3,3,4,4,5,5,6,6,8,8,9,9,13,13,14,14,18,18],"right_children":[2,4,6,8,10,12,14,-1,16,18,-1,-1,-1,20,22,-1,-1,-1,24,-1,-1,-1,-1,-1,-1],"split_conditions":[8.973526E1,8.773289E1,3.8675E3,8.579814E1,1.6567E4,7.067684E-1,5.2033377E-1,-3.6160823E-2,1.06125E4,5.481256E-1,-2.9965585E-2,1.1403098E-2,-1.7465986E-2,9.332485E1,8.4703285E-1,2.6872566E-3,-3.529889E-2,1.6404023E-2,7.647735E-1,-4.1415654E-3,3.2228466E-2,3.620137E-2,1.5398082E-2,-2.1809151E-2,1.6416223E-3],"split_indices":[0,0,4,0,4,9,7,0,4,7,0,0,0,0,7,0,0,0,7,0,0,0,0,0,0],"split_type":[0,0,0,0,0,0,0,0,0,0,0,0,0,0,0,0,0,0,0,0,0,0,0,0,0],"sum_hessian":[2.7336176E2,1.4873322E2,1.2462854E2,1.3050362E2,1.8229595E1,1.04960375E1,1.141325E2,1.1329999E2,1.7203625E1,1.4490847E1,3.7387488E0,5.9986677E0,4.49737E0,1.6467896E1,9.766461E1,4.245976E0,1.2957648E1,3.9964402E0,1.0494407E1,4.4963613E0,1.1971534E1,9.441913E1,3.2454813E0,5.7454395E0,4.748967E0],"tree_param":{"num_deleted":"0","num_feature":"10","num_nodes":"25","size_leaf_vector":"0"}},{"base_weights":[-1.8758272E-1,-1.0705216E0,9.601712E-1,4.2263535E-1,-1.2618457E0,3.3933E-1,1.4117919E0,-4.7479797E-2,1.4092891E0,-1.4039848E0,-4.2267057E-1,4.9445882E-1,-1.3041228E0,1.0613332E0,1.5344292E0,-5.178356E-1,3.972524E-1,-8.977792E-1,-1.6274081E0,-1.5674205E-1,-1.4650294E0,-4.7288457E-1,8.1849515E-1,1.2238468E0,1.8505557E-1,8.2415706E-1,1.5874667E0,6.0021585E-1,1.0055813E-1,-1.2641338E0,1.4726764E-2,-4.4467342E-1,3.994433E-1,7.432273E-1,-1.2894651E0,1.5837177E0,6.316704E-1,1.328461E0,6.5733427E-1,1.0635697E0,1.7076375E0],"categories":[],"categories_nodes":[],"categories_segments":[],"categories_sizes":[],"default_left":[1,1,1,1,1,1,1,1,0,1,1,1,0,1,1,0,1,1,0,1,0,1,1,1,0,1,1,1,1,0,0,0,0,0,0,0,0,1,1,1,1],"id":5,"left_children":[1,3,5,7,9,11,13,15,-1,17,19,21,-1,23,-1,-1,-1,29,-1,31,-1,33,35,-1,-1,-1,-1,-1,-1,-1,-1,-1,-1,-1,-1,-1,-1,-1,-1,-1,-1],"loss_changes":[2.7924078E2,4.4996323E1,3.3137444E1,8.614047E0,1.589267E1,1.3852264E1,1.3408813E0,3.018739E0,0E0,1.1857803E1,5.7162743E0,1.54521475E1,0E0,2.7858543E0,5.351715E-1,0E0,3.8995588E-1,1.2819485E1,0E0,3.093848E0,0E0,1.3563723E1,4.1988716E0,1.7370987E-1,0E0,0E0,9.826584E-1,0E0,0E0,0E0,0E0,0E0,0E0,0E0,0E0,0E0,0E0,0E0,0E0,0E0,0E0],"parents":[2147483647,0,0,1,1,2,2,3,3,4,4,5,5,6,6,7,7,9,9,10,10,11,11,13,13,14,14,16,16,17,17,19,19,21,21,22,22,23,23,26,26],"right_children":[2,4,6,8,10,12,14,16,-1,18,20,22,-1,24,-1,-1,-1,30,-1,32,-1,34,36,-1,-1,-1,-1,-1,-1,-1,-1,-1,-1,-1,-1,-1,-1,-1,-1,-1,-1],"split_conditions":[1.86375E3,1.75E0,3.8718667E3,1.0971667E3,6.831384E-1,2.112E3,4E2,3.5458136E-1,2.8185781E-2,8.25E0,2.71E2,4.4165498E-1,-2.6082456E-2,2.7E1,3.0688584E-2,-1.0356712E-2,7.945048E-3,3.733929E-1,-3.2548163E-2,5.975E1,-2.9300587E-2,1.375E1,6.75E0,2.4476936E-2,3.7011113E-3,1.6483141E-2,3.1749334E-2,1.2004317E-2,2.0111627E-3,-2.5282675E-2,2.9453528E-4,-8.893468E-3,7.9888655E-3,1.4864545E-2,-2.57893E-2,3.167435E-2,1.2633408E-2,2.6569221E-2,1.3146685E-2,2.1271393E-2,3.415275E-2],"split_indices":[2,3,2,2,9,5,5,9,0,3,3,9,0,5,9,0,2,9,0,3,0,3,3,3,0,2147483647,2147483647,2147483647,2147483647,0,0,0,0,0,0,0,0,2147483647,2147483647,2147483647,2147483647],"split_type":[0,0,0,0,0,0,0,0,0,0,0,0,0,0,0,0,0,0,0,0,0,0,0,0,0,0,0,0,0,0,0,0,0,0,0,0,0,0,0,0,0],"sum_hessian":[2.735351E2,1.5464091E2,1.18894165E2,1.7426868E1,1.3721405E2,5.080462E1,6.808955E1,1.2447725E1,4.979143E0,1.1676363E2,2.0450418E1,4.7061523E1,3.7430983E0,2.0152964E1,4.7936584E1,5.9697003E0,6.4780254E0,3.729146E1,7.9472176E1,1.7210114E1,3.2403042E0,1.1693535E1,3.536799E1,1.6665545E1,3.4874184E0,4.480009E0,4.3456573E1,3.2391605E0,3.238865E0,2.6333637E1,1.0957822E1,1.1471785E1,5.7383294E0,4.733656E0,6.959879E0,5.473175E0,2.9894812E1,1.2932417E1,3.7331278E0,9.946085E0,3.351049E1],"tree_param":{"num_deleted":"8","num_feature":"10","num_nodes":"41","size_leaf_vector":"0"}},{"base_weights":[-1.8140647E-1,-1.5456817E0,5.71643E-1,-1.6157988E0,-5.936913E-1,1.2444507E0,-4.057284E-1,-4.3409675E-1,-1.6621081E0,3.8414484E-1,-1.3057692E0,2.5646082E-1,1.4233451E0,-1.4253634E0,2.5636938E-1,-1.7156701E0,-1.2075291E0,1.6218848E0,-9.54977E-1,5.118889E-1,1.5237566E0,-1.6608702E0,-8.387342E-1,4.1112742E-1,-1.1308895E0,-2.8899114E-3,-1.6312964E0,1.250369E0,-1.0299419E-2,1.7153598E0,1.3265759E0,5.6396306E-2,-1.310915E0,4.9459793E-2,1.0868526E0],"categories":[],"categories_nodes":[],"categories_segments":[],"categories_sizes":[],"default_left":[1,1,1,1,1,1,1,0,1,0,0,1,1,1,1,0,1,0,0,1,1,0,1,1,0,0,0,0,0,1,1,0,0,0,0],"id":6,"left_children":[1,3,5,7,9,11,13,-1,15,-1,-1,17,19,21,23,-1,25,-1,-1,27,-1,-1,31,33,-1,-1,-1,-1,-1,-1,-1,-1,-1,-1,-1],"loss_changes":[2.7912048E2,5.488327E0,1.1573539E2,4.169937E0,6.2161803E0,1.8022446E1,4.910746E1,0E0,1.3977051E-2,0E0,0E0,2.9948723E1,7.2614136E0,2.5551033E0,1.0044897E1,0E0,6.328205E0,0E0,0E0,3.955899E0,6.9548035E-1,0E0,4.3878145E0,9.936193E0,0E0,0E0,0E0,0E0,0E0,0E0,0E0,0E0,0E0,0E0,0E0],"parents":[2147483647,0,0,1,1,2,2,3,3,4,4,5,5,6,6,8,8,11,11,12,12,13,13,14,14,16,16,19,19,20,20,22,22,23,23],"right_children":[2,4,6,8,10,12,14,-1,16,-1,-1,18,20,22,24,-1,26,-1,-1,28,-1,-1,32,34,-1,-1,-1,-1,-1,-1,-1,-1,-1,-1,-1],"split_conditions":[1.7345883E-1,2.15575E3,5.664699E-1,2.2862715E-1,5.133247E-1,5.2033377E-1,5.506839E-1,-8.681935E-3,5.300054E-1,7.6828967E-3,-2.6115384E-2,5.0971556E-1,1.0904685E3,5.9913254E-1,8.598841E-1,-3.4313403E-2,3.46563E-1,3.2437697E-2,-1.909954E-2,5.5271614E-1,3.0475132E-2,-3.3217404E-2,6.026111E2,7.7507114E-1,-2.261779E-2,-5.779823E-5,-3.262593E-2,2.5007378E-2,-2.0598837E-4,3.4307197E-2,2.6531518E-2,1.127926E-3,-2.6218299E-2,9.891958E-4,2.173705E-2],"split_indices":[8,2,7,6,7,7,8,0,7,0,0,7,2,6,7,0,6,0,0,7,7,0,2,6,0,0,0,0,0,2147483647,2147483647,0,0,0,0],"split_type":[0,0,0,0,0,0,0,0,0,0,0,0,0,0,0,0,0,0,0,0,0,0,0,0,0,0,0,0,0,0,0,0,0,0,0],"sum_hessian":[2.6982535E2,9.559195E1,1.7423338E2,8.8384834E1,7.207112E0,1.03033455E2,7.1199936E1,3.7242699E0,8.466057E1,3.2309089E0,3.9762027E0,1.6169102E1,8.686435E1,2.757754E1,4.3622395E1,7.325491E1,1.1405652E1,7.442158E0,8.726943E0,9.224997E0,7.763936E1,1.8371109E1,9.206431E0,3.9877438E1,3.744955E0,3.2301517E0,8.175501E0,3.2435215E0,5.981475E0,3.5471638E1,4.2167717E1,3.4833941E0,5.7230372E0,2.6673958E1,1.320348E1],"tree_param":{"num_deleted":"2","num_feature":"10","num_nodes":"35","size_leaf_vector":"0"}},{"base_weights":[-1.2086906E-1,-1.5479918E0,1.4577143E0,-1.690446E0,-5.000276E-1,1.5924054E0,8.30305E-1,-1.7357503E0,-1.0752121E0,-9.638719E-1,7.2546124E-1,8.5057026E-1,1.7199769E0,-7.840546E-1,1.6018304E0,-1.4082901E0,-4.4453603E-1,-3.4625977E-1,-1.6223856E0,1.6302422E0,-6.532345E-2,6.688183E-1,1.7596759E0,1.2269511E-1,-1.5255892E0,-1.0721369E0,5.850409E-1,-5.7313526E-1,4.8309967E-1],"categories":[],"categories_nodes":[],"categories_segments":[],"categories_sizes":[],"default_left":[1,1,1,1,1,1,1,0,1,1,0,1,1,1,0,0,0,1,0,0,1,0,0,0,0,0,0,0,0],"id":7,"left_children":[1,3,5,7,9,11,13,-1,15,17,-1,19,21,23,-1,-1,-1,25,-1,-1,27,-1,-1,-1,-1,-1,-1,-1,-1],"loss_changes":[5.9264734E2,1.9774353E1,9.236511E0,1.5111084E0,1.090189E1,8.168549E0,3.136247E1,0E0,1.6717758E0,4.908372E0,0E0,1.2183239E1,2.406067E0,5.8943014E0,0E0,0E0,0E0,6.178506E0,0E0,0E0,2.7104E0,0E0,0E0,0E0,0E0,0E0,0E0,0E0,0E0],"parents":[2147483647,0,0,1,1,2,2,3,3,4,4,5,5,6,6,8,8,9,9,11,11,12,12,13,13,17,17,20,20],"right_children":[2,4,6,8,10,12,14,-1,16,18,-1,20,22,24,-1,-1,-1,26,-1,-1,28,-1,-1,-1,-1,-1,-1,-1,-1],"split_conditions":[8.946225E1,8.755537E1,7.30665E-1,8.636014E1,7.821899E-1,5.21405E-1,7.8606975E-1,-3.4715004E-2,5.236703E-1,5.594052E-1,1.4509224E-2,5.099597E-1,9.0076416E1,7.4395514E-1,3.2036606E-2,-2.8165802E-2,-8.89072E-3,5.15987E-1,-3.244771E-2,3.2604843E-2,9.310068E1,1.3376365E-2,3.5193518E-2,2.4539023E-3,-3.0511783E-2,-2.1442737E-2,1.1700818E-2,-1.1462705E-2,9.661993E-3],"split_indices":[0,0,7,0,7,7,7,0,7,7,0,7,0,7,0,0,0,7,0,0,0,0,0,0,0,0,0,0,0],"split_type":[0,0,0,0,0,0,0,0,0,0,0,0,0,0,0,0,0,0,0,0,0,0,0,0,0,0,0,0,0],"sum_hessian":[2.6106604E2,1.371209E2,1.23945145E2,1.2017229E2,1.6948612E1,1.0077326E2,2.3171883E1,1.1023367E2,9.938611E0,1.2449854E1,4.498758E0,1.591192E1,8.486134E1,7.4878573E0,1.5684026E1,5.69692E0,4.2416916E0,7.211807E0,5.238047E0,8.173838E0,7.7380824E0,3.737823E0,8.112352E1,3.7441022E0,3.7437549E0,3.9679053E0,3.2439015E0,3.994406E0,3.7436762E0],"tree_param":{"num_deleted":"0","num_feature":"10","num_nodes":"29","size_leaf_vector":"0"}},{"base_weights":[-1.0071599E-1,6.267729E-1,-1.1763304E0,1.2516043E0,-3.930475E-1,-1.5014462E0,-4.0219256E-1,2.1996664E-1,1.4862001E0,-9.2328966E-1,4.2960864E-1,8.587531E-1,-1.6250653E0,1.5532376E0,-7.3503804E-1,1.5657283E0,-6.204475E-1,-1.3142129E0,-3.6708668E-1,-1.0033499E-1,9.1726834E-1,-1.5325929E-1,-1.6497346E0,-1.080778E0,2.617841E-1,3.803999E-2,-1.5701402E0,1.4777997E-1,-1.09697E0,3.764602E-1,-6.731466E-1,-3.387503E-2,1.2626585E0,6.367895E-1,-6.8410397E-1],"categories":[],"categories_nodes":[],"categories_segments":[],"categories_sizes":[],"default_left":[1,1,1,1,1,1,1,1,0,1,1,0,0,0,1,0,1,1,1,1,1,1,0,0,0,0,0,0,0,0,0,0,0,0,0],"id":8,"left_children":[1,3,5,7,9,11,13,15,-1,17,19,-1,-1,-1,21,-1,23,25,27,29,31,33,-1,-1,-1,-1,-1,-1,-1,-1,-1,-1,-1,-1,-1],"loss_changes":[2.1230528E2,1.0368312E2,2.6939102E1,2.403357E1,2.756584E1,2.3774597E1,2.3096544E1,2.3390366E1,0E0,7.8215866E0,6.577099E0,0E0,0E0,0E0,1.5447997E1,0E0,5.529302E0,7.6874123E0,6.6072817E0,3.7839508E0,4.3683023E0,8.461368E0,0E0,0E0,0E0,0E0,0E0,0E0,0E0,0E0,0E0,0E0,0E0,0E0,0E0],"parents":[2147483647,0,0,1,1,2,2,3,3,4,4,5,5,6,6,7,7,9,9,10,10,14,14,16,16,17,17,18,18,19,19,20,20,21,21],"right_children":[2,4,6,8,10,12,14,16,-1,18,20,-1,-1,-1,22,-1,24,26,28,30,32,34,-1,-1,-1,-1,-1,-1,-1,-1,-1,-1,-1,-1,-1],"split_conditions":[8.5E0,5.6814843E-1,5.300054E-1,5.2436584E-1,1.87375E3,5.1118386E-1,5.4332864E-1,5.0968117E-1,2.9724002E-2,7.965117E-1,8.0142516E-1,1.7175062E-2,-3.2501306E-2,3.106475E-2,6.75E0,3.1314567E-2,5.2525E2,8.5E0,8.500284E-1,7.30665E-1,1.13E2,1.35E1,-3.299469E-2,-2.161556E-2,5.2356822E-3,7.607998E-4,-3.1402804E-2,2.9555995E-3,-2.1939399E-2,7.529204E-3,-1.3462932E-2,-6.7750056E-4,2.525317E-2,1.273579E-2,-1.3682079E-2],"split_indices":[1,7,7,7,3,7,7,7,0,7,7,0,0,0,3,0,3,3,7,7,5,1,0,0,0,0,0,0,0,0,0,0,0,0,0],"split_type":[0,0,0,0,0,0,0,0,0,0,0,0,0,0,0,0,0,0,0,0,0,0,0,0,0,0,0,0,0,0,0,0,0,0,0],"sum_hessian":[2.6937527E2,1.6094073E2,1.08434525E2,9.965566E1,6.128508E1,7.570225E1,3.2732277E1,1.8822254E1,8.0833405E1,3.71912E1,2.4093878E1,3.4717145E0,7.223054E1,4.227812E0,2.8504467E1,6.9039164E0,1.1918338E1,2.1040327E1,1.6150875E1,1.1926984E1,1.2166894E1,1.8136547E1,1.036792E1,7.683956E0,4.234382E0,3.4838638E0,1.7556463E1,9.938025E0,6.2128487E0,6.6960945E0,5.230889E0,3.4814682E0,8.685426E0,7.2085633E0,1.0927983E1],"tree_param":{"num_deleted":"0","num_feature":"10","num_nodes":"35","size_leaf_vector":"0"}},{"base_weights":[-1.893164E-1,-1.0204303E0,9.5853806E-1,-1.547535E0,-3.8728222E-1,-8.2594454E-1,1.1244787E0,-1.587434E-1,-1.1193478E0,-1.1524788E0,-7.697786E-2,1.3029128E0,1.064304E-1,-4.2059118E-1,3.8744512E-1,-1.6002214E0,-4.9170876E-1,4.2606294E-1,1.3941417E0,6.028956E-1,-3.4906024E-1,4.51539E-1,-5.904675E-1,-2.9962802E-1,7.4219364E-1,-9.6104395E-1,1.2914371E-1,9.780478E-1,-4.6520802E-1,1.154309E0,1.5958852E0,-1.586599E-1,1.1055257E0,-1.1963469E0,6.5682685E-1],"categories":[],"categories_nodes":[],"categories_segments":[],"categories_sizes":[],"default_left":[1,1,1,0,1,1,1,1,1,0,0,1,1,1,1,0,1,1,1,1,1,0,0,0,0,0,0,0,0,0,0,0,0,0,0],"id":9,"left_children":[1,3,5,-1,7,9,11,13,15,-1,-1,17,19,21,23,-1,25,27,29,31,33,-1,-1,-1,-1,-1,-1,-1,-1,-1,-1,-1,-1,-1,-1],"loss_changes":[2.6162863E2,5.2450836E1,3.505948E1,0E0,1.2127464E1,2.4505377E0,1.9094482E1,8.345907E0,4.4444866E0,0E0,0E0,6.605362E0,4.0273204E0,6.067523E0,4.868435E0,0E0,2.7357075E0,5.335976E0,2.08078E0,3.4071379E0,8.8278E0,0E0,0E0,0E0,0E0,0E0,0E0,0E0,0E0,0E0,0E0,0E0,0E0,0E0,0E0],"parents":[2147483647,0,0,1,1,2,2,4,4,5,5,6,6,7,7,8,8,11,11,12,12,13,13,14,14,16,16,17,17,18,18,19,19,20,20],"right_children":[2,4,6,-1,8,10,12,14,16,-1,-1,18,20,22,24,-1,26,28,30,32,34,-1,-1,-1,-1,-1,-1,-1,-1,-1,-1,-1,-1,-1,-1],"split_conditions":[1.94145E3,1.7345883E-1,1.8775144E-1,-3.0950699E-2,5.5E0,2.96345E3,6.963343E-1,1.1066667E3,5.585967E-1,-2.3049576E-2,-1.5395571E-3,2.3625E3,2.281E3,2.1141514E-1,5.5E0,-3.2004427E-2,4.35E1,2.101E3,5.208827E-1,1.15E2,3.8975E3,9.03078E-3,-1.180935E-2,-5.99256E-3,1.4843873E-2,-1.922088E-2,2.5828741E-3,1.9560955E-2,-9.30416E-3,2.308618E-2,3.1917702E-2,-3.173198E-3,2.2110514E-2,-2.3926938E-2,1.3136537E-2],"split_indices":[2,8,8,0,5,2,8,2,8,0,0,2,2,8,1,0,5,2,8,5,2,0,0,0,0,0,0,0,0,0,0,0,0,0,0],"split_type":[0,0,0,0,0,0,0,0,0,0,0,0,0,0,0,0,0,0,0,0,0,0,0,0,0,0,0,0,0,0,0,0,0,0,0],"sum_hessian":[2.722192E2,1.579588E2,1.14260414E2,8.540977E1,7.2549034E1,9.382807E0,1.048776E2,5.6216125E1,1.6332907E1,6.158895E0,3.2239118E0,8.8998886E1,1.5878718E1,3.8154472E1,1.8061653E1,8.370304E0,7.9626036E0,8.921336E0,8.007755E1,7.4427843E0,8.435934E0,5.949943E0,3.220453E1,6.2030435E0,1.1858609E1,4.222585E0,3.7400181E0,5.4491735E0,3.4721627E0,3.965607E1,4.042148E1,3.2312799E0,4.2115045E0,4.476179E0,3.959755E0],"tree_param":{"num_deleted":"0","num_feature":"10","num_nodes":"35","size_leaf_vector":"0"}},{"base_weights":[-9.40815E-2,-1.4852889E0,1.4193575E0,-1.6683971E0,-6.924159E-1,1.582296E0,7.0873684E-1,-9.556647E-1,3.8787085E-1,4.0452597E-1,1.6275989E0,-5.60741E-1,1.4956518E0,-1.2697077E0,-4.9424034E-1,1.2227466E0,1.6982108E0,-1.4436429E0,6.3889873E-1,1.6306788E0,7.2217137E-1,8.2380575E-1,-1.154803E0,2.0434711E-2,1.550469E0],"categories":[],"categories_nodes":[],"categories_segments":[],"categories_sizes":[],"default_left":[1,1,1,0,1,1,1,1,0,0,1,1,1,0,1,1,0,0,0,1,1,0,0,0,0],"id":10,"left_children":[1,3,5,-1,7,9,11,13,-1,-1,15,17,-1,-1,21,23,-1,-1,-1,-1,-1,-1,-1,-1,-1],"loss_changes":[5.7174304E2,1.9381226E1,1.3941528E1,0E0,8.404025E0,4.9447937E0,2.6888153E1,2.705616E0,0E0,0E0,8.049927E-1,1.2261626E1,5.3211594E-1,0E0,1.0487183E1,7.273882E0,0E0,0E0,0E0,0E0,0E0,0E0,0E0,0E0,0E0],"parents":[2147483647,0,0,1,1,2,2,4,4,5,5,6,6,7,7,10,10,11,11,12,12,14,14,15,15],"right_children":[2,4,6,-1,8,10,12,14,-1,-1,16,18,-1,-1,22,24,-1,-1,-1,-1,-1,-1,-1,-1,-1],"split_conditions":[8.934006E1,8.636259E1,7.1887696E-1,-3.336794E-2,7.77576E-1,9.0057976E1,7.8093725E-1,5.243889E-1,7.757417E-3,8.090519E-3,5.2033377E-1,9.358901E1,2.9913036E-2,-2.5394153E-2,5.571974E-1,9.270448E1,3.3964217E-2,-2.8872857E-2,1.2777974E-2,3.2613575E-2,1.4443427E-2,1.6476115E-2,-2.309606E-2,4.086942E-4,3.100938E-2],"split_indices":[0,0,7,0,7,0,7,7,0,0,7,0,7,0,7,0,0,0,0,2147483647,2147483647,0,0,0,0],"split_type":[0,0,0,0,0,0,0,0,0,0,0,0,0,0,0,0,0,0,0,0,0,0,0,0,0],"sum_hessian":[2.6954517E2,1.404537E2,1.2909148E2,1.1320548E2,2.724822E1,1.0401516E2,2.5076313E1,2.2002031E1,5.2461877E0,4.2205205E0,9.979464E1,9.705879E0,1.5370434E1,1.2049495E1,9.952538E0,1.7540886E1,8.225375E1,5.473867E0,4.2320127E0,1.2142478E1,3.2279556E0,3.2401712E0,6.7123656E0,3.9846802E0,1.3556206E1],"tree_param":{"num_deleted":"2","num_feature":"10","num_nodes":"25","size_leaf_vector":"0"}},{"base_weights":[-1.6087632E-1,-1.4585427E0,1.4018071E0,-1.623634E0,-7.076313E-1,-1.2854019E-1,1.5391074E0,-3.5401326E-1,-1.443938E0,2.8593388E-1,-7.9182154E-1,1.6231815E0,9.3563205E-1,8.15909E-2,-1.081114E0,-5.30464E-1,1.0334836E0,-2.74534E-1,1.3924708E0,5.5885005E-1,-6.817298E-1,-1.4084525E0,-5.318436E-1,7.1590006E-1,1.5626997E0],"categories":[],"categories_nodes":[],"categories_segments":[],"categories_sizes":[],"default_left":[1,1,1,0,1,1,1,1,0,1,0,0,1,1,1,0,0,0,1,0,0,1,1,1,1],"id":11,"left_children":[1,3,5,-1,7,9,11,13,-1,15,-1,-1,17,19,-1,-1,-1,-1,-1,-1,-1,-1,-1,-1,-1],"loss_changes":[5.4475134E2,1.7037537E1,2.5816544E1,0E0,6.834591E0,3.2398055E0,4.1619873E0,6.5444164E0,0E0,5.113608E0,0E0,0E0,9.256581E0,5.3635626E0,6.366215E-1,0E0,0E0,0E0,2.423172E-1,0E0,0E0,0E0,0E0,0E0,0E0],"parents":[2147483647,0,0,1,1,2,2,4,4,5,5,6,6,7,7,9,9,12,12,13,13,14,14,18,18],"right_children":[2,4,6,-1,8,10,12,14,-1,16,-1,-1,18,20,-1,-1,-1,-1,-1,-1,-1,-1,-1,-1,-1],"split_conditions":[8.978691E1,8.6471985E1,3.8715E3,-3.2472678E-2,1.6166E4,7.2884285E-1,1.6282E4,9.745E2,-2.887876E-2,9.221489E1,-1.583643E-2,3.246363E-2,9.332485E1,1.149E4,-2.1622282E-2,-1.0609279E-2,2.0669673E-2,-5.4906798E-3,2.7849415E-2,1.1177001E-2,-1.3634596E-2,-2.8169049E-2,-1.0636872E-2,1.43180005E-2,3.1253994E-2],"split_indices":[0,0,4,0,4,9,4,3,0,0,0,0,0,4,4,0,0,0,4,0,0,2147483647,2147483647,2147483647,2147483647],"split_type":[0,0,0,0,0,0,0,0,0,0,0,0,0,0,0,0,0,0,0,0,0,0,0,0,0],"sum_hessian":[2.6662772E2,1.4570206E2,1.2092567E2,1.1848942E2,2.7212648E1,9.961278E0,1.10964386E2,1.9384068E1,7.82858E0,6.4805775E0,3.4807005E0,9.59125E1,1.5051891E1,1.267706E1,6.7070074E0,3.236451E0,3.2441266E0,4.2342963E0,1.0817595E1,7.964931E0,4.7121296E0,3.2223938E0,3.4846137E0,3.2210636E0,7.596531E0],"tree_param":{"num_deleted":"4","num_feature":"10","num_nodes":"25","size_leaf_vector":"0"}},{"base_weights":[-1.6281989E-1,-1.022415E0,8.8146234E-1,-1.4811708E0,-4.2487064E-1,-7.040197E-1,1.0402387E0,-1.5176246E0,-5.650831E-1,8.4887695E-1,-8.744222E-1,5.516241E-1,-1.3887553E0,-2.0894584E-1,1.1987113E0,2.6220912E-2,1.0563456E0,-1.1817211E0,-3.4599236E-1,6.298011E-1,-1.144998E0,4.6233994E-1,1.3278342E0,1.2630302E0,3.485039E-1,-2.6241004E-1,-1.3457913E0,4.4420266E-1,-9.024035E-1,1.4004017E-1,9.7253585E-1,-8.321777E-1,1.5187511E0,7.196151E-1,1.4427199E0],"categories":[],"categories_nodes":[],"categories_segments":[],"categories_sizes":[],"default_left":[1,1,1,1,1,1,1,0,0,1,1,0,0,1,1,0,1,1,1,1,0,1,1,0,0,0,0,0,0,0,0,0,0,0,0],"id":12,"left_children":[1,3,5,7,9,11,13,-1,-1,15,17,-1,-1,19,21,-1,23,25,27,29,-1,31,33,-1,-1,-1,-1,-1,-1,-1,-1,-1,-1,-1,-1],"loss_changes":[2.3281935E2,3.834427E1,3.0232208E1,1.8148193E0,3.6902206E1,1.0450258E1,2.1416832E1,0E0,0E0,2.870511E0,7.250538E0,0E0,0E0,1.0840173E1,8.422058E0,0E0,1.5400581E0,4.082844E0,8.648124E0,1.1131413E0,0E0,2.2750908E1,4.5742645E0,0E0,0E0,0E0,0E0,0E0,0E0,0E0,0E0,0E0,0E0,0E0,0E0],"parents":[2147483647,0,0,1,1,2,2,3,3,4,4,5,5,6,6,9,9,10,10,13,13,14,14,16,16,17,17,18,18,19,19,21,21,22,22],"right_children":[2,4,6,8,10,12,14,-1,-1,16,18,-1,-1,20,22,-1,24,26,28,30,-1,32,34,-1,-1,-1,-1,-1,-1,-1,-1,-1,-1,-1,-1],"split_conditions":[1.8676667E3,1.7345883E-1,1.7308915E-1,1.92855E4,5.598166E-1,5.1305866E-1,4.079E3,-3.0352492E-2,-1.1301662E-2,2.0140997E-1,7.647735E-1,1.1032482E-2,-2.7775105E-2,2.4945E3,5.204185E-1,5.2441825E-4,2.51951E-1,5.65665E-1,8.303213E-1,7.3764515E-1,-2.289996E-2,2.5636E4,2.36575E3,2.5260603E-2,6.9700778E-3,-5.2482006E-3,-2.6915826E-2,8.884053E-3,-1.8048069E-2,2.8008034E-3,1.9450717E-2,-1.6643554E-2,3.0375022E-2,1.4392301E-2,2.8854398E-2],"split_indices":[2,8,8,4,7,7,4,0,0,8,7,0,0,2,7,0,8,7,7,7,0,4,2,0,0,0,0,0,0,0,0,0,0,0,0],"split_type":[0,0,0,0,0,0,0,0,0,0,0,0,0,0,0,0,0,0,0,0,0,0,0,0,0,0,0,0,0,0,0,0,0,0,0],"sum_hessian":[2.5735858E2,1.411734E2,1.1618517E2,7.902465E1,6.2148746E1,1.0263512E1,1.0592166E2,7.5368866E1,3.6557896E0,1.5980823E1,4.6167923E1,3.6904652E0,6.573046E0,1.1888694E1,9.403297E1,3.4454174E0,1.2535405E1,2.8410192E1,1.775773E1,6.442807E0,5.4458866E0,1.4712149E1,7.9320816E1,9.0953045E0,3.4401007E0,4.696173E0,2.3714018E1,7.420735E0,1.0336995E1,3.232388E0,3.2104192E0,6.7064185E0,8.005731E0,1.3756407E1,6.556441E1],"tree_param":{"num_deleted":"0","num_feature":"10","num_nodes":"35","size_leaf_vector":"0"}},{"base_weights":[-9.582091E-2,7.329031E-1,-8.9518297E-1,1.257146E0,-1.5410858E-1,-1.3201004E0,-2.1179652E-1,-3.872965E-3,1.5116018E0,-7.5848395E-1,5.993206E-1,1.4301081E0,-1.4840002E0,1.5894796E0,-5.497055E-1,1.3915935E0,-8.2208514E-1,-1.0688556E0,1.120144E0,7.737674E-1,-3.343736E-1,1.1165434E-2,-9.174716E-1,-1.11774E0,-2.1441159E-1,-1.4893941E0,-6.5928954E-1,2.0272012E-1,1.0970685E0,3.4333664E-1,-7.359759E-1,-1.4704471E0,-4.630842E-1],"categories":[],"categories_nodes":[],"categories_segments":[],"categories_sizes":[],"default_left":[1,1,1,1,1,1,1,1,0,1,1,0,0,0,1,0,1,1,0,1,0,1,1,0,0,0,0,0,0,0,0,0,0],"id":13,"left_children":[1,3,5,7,9,11,13,15,-1,17,19,-1,-1,-1,21,-1,23,25,-1,27,-1,29,31,-1,-1,-1,-1,-1,-1,-1,-1,-1,-1],"loss_changes":[1.753115E2,6.0643906E1,3.882128E1,2.62585E1,2.2849531E1,3.9461594E1,3.3021267E1,1.7968021E1,0E0,1.7366795E1,3.9153605E0,0E0,0E0,0E0,9.3369875E0,0E0,1.5420856E0,3.205391E0,0E0,3.3255377E0,0E0,4.9420023E0,6.183979E0,0E0,0E0,0E0,0E0,0E0,0E0,0E0,0E0,0E0,0E0],"parents":[2147483647,0,0,1,1,2,2,3,3,4,4,5,5,6,6,7,7,9,9,10,10,14,14,16,16,17,17,19,19,21,21,22,22],"right_children":[2,4,6,8,10,12,14,16,-1,18,20,-1,-1,-1,22,-1,24,26,-1,28,-1,30,32,-1,-1,-1,-1,-1,-1,-1,-1,-1,-1],"split_conditions":[5.5E0,5.6932855E-1,5.3245384E-1,5.201609E-1,7.965117E-1,5.093081E-1,5.4332864E-1,5.0968117E-1,3.0232035E-2,3.8975E3,8.598841E-1,2.860216E-2,-2.9680004E-2,3.178959E-2,5.671524E-1,2.783187E-2,5.0873834E-1,6.5820307E-1,2.2402879E-2,2.85E1,-6.6874716E-3,1.75E1,5.4679525E-1,-2.23548E-2,-4.2882315E-3,-2.9787881E-2,-1.3185791E-2,4.0544025E-3,2.1941371E-2,6.8667326E-3,-1.4719518E-2,-2.9408941E-2,-9.261684E-3],"split_indices":[1,7,7,7,7,7,7,7,0,5,7,0,0,0,7,0,9,9,0,5,0,1,9,0,0,0,0,0,0,0,0,0,0],"split_type":[0,0,0,0,0,0,0,0,0,0,0,0,0,0,0,0,0,0,0,0,0,0,0,0,0,0,0,0,0,0,0,0,0],"sum_hessian":[2.626505E2,1.2899767E2,1.3365283E2,8.0816246E1,4.8181416E1,8.18366E1,5.181624E1,1.37348E1,6.708145E1,2.6731556E1,2.1449858E1,4.168272E0,7.766833E1,7.599904E0,4.4216335E1,4.8175917E0,8.917209E0,2.3311296E1,3.4202592E0,1.8217478E1,3.2323797E0,1.7894903E1,2.632143E1,5.4339986E0,3.48321E0,1.0200752E1,1.3110545E1,7.173661E0,1.10438175E1,1.2761666E1,5.1332364E0,1.0864076E1,1.54573555E1],"tree_param":{"num_deleted":"0","num_feature":"10","num_nodes":"33","size_leaf_vector":"0"}},{"base_weights":[-1.341643E-1,-9.413944E-1,8.8015664E-1,1.1997007E-1,-1.0908309E0,3.6169407E-1,1.2204294E0,-3.855453E-1,1.178295E0,-5.9144205E-1,-1.3331714E0,1.2864004E0,6.5241575E-2,1.2709796E0,3.9614674E-1,-1.6020578E-1,-8.818854E-1,4.390519E-1,-8.907128E-1,-1.0669618E0,-1.4593879E0,4.305361E-1,-1.4889234E0,8.8619155E-1,1.4257119E0,3.6994597E-1,-5.855178E-1,9.4820994E-1,-1.7602237E-2,-1.0919243E0,4.8388132E-1,-3.628914E-1,-1.1576128E0,-1.1837606E0,6.6887516E-1,1.2638037E0,2.0680976E-1],"categories":[],"categories_nodes":[],"categories_segments":[],"categories_sizes":[],"default_left":[1,1,1,1,1,1,1,1,0,1,1,0,1,1,0,1,0,1,1,1,0,1,0,1,0,0,0,0,0,0,0,0,0,0,0,0,0],"id":14,"left_children":[1,3,5,7,9,11,13,15,-1,17,19,-1,21,23,-1,25,-1,27,29,31,-1,33,-1,35,-1,-1,-1,-1,-1,-1,-1,-1,-1,-1,-1,-1,-1],"loss_changes":[2.2303894E2,2.417633E1,2.0867157E1,1.0946628E1,1.5306549E1,1.3425753E1,2.5175095E0,1.4274268E0,0E0,1.4345772E1,1.4246674E0,0E0,2.2425537E1,2.7768784E0,0E0,2.667192E0,0E0,2.5402057E0,1.0318274E1,1.6389961E0,0E0,1.3043987E1,0E0,5.409399E0,0E0,0E0,0E0,0E0,0E0,0E0,0E0,0E0,0E0,0E0,0E0,0E0,0E0],"parents":[2147483647,0,0,1,1,2,2,3,3,4,4,5,5,6,6,7,7,9,9,10,10,12,12,13,13,15,15,17,17,18,18,19,19,21,21,23,23],"right_children":[2,4,6,8,10,12,14,16,-1,18,20,-1,22,24,-1,26,-1,28,30,32,-1,34,-1,36,-1,-1,-1,-1,-1,-1,-1,-1,-1,-1,-1,-1,-1],"split_conditions":[1.89735E3,1.75E0,3.8426665E3,1.11965E3,9.5E0,1.075E1,7.0194626E-1,2.55E1,2.35659E-2,8.5E0,1.025E1,2.5728008E-2,5.5E0,5.271702E-1,7.922934E-3,6.804166E2,-1.7637707E-2,5.8760554E-1,7.6913226E-1,1.35E1,-2.9187758E-2,1.5E0,-2.9778467E-2,5.0787187E-1,2.8514236E-2,7.398919E-3,-1.1710356E-2,1.8964197E-2,-3.5204474E-4,-2.1838486E-2,9.677626E-3,-7.257828E-3,-2.3152256E-2,-2.3675213E-2,1.3377503E-2,2.5276074E-2,4.136195E-3],"split_indices":[2,3,2,2,1,3,9,1,0,3,3,0,1,9,0,2,0,9,9,1,0,1,0,9,0,0,0,0,0,0,0,0,0,0,0,0,0],"split_type":[0,0,0,0,0,0,0,0,0,0,0,0,0,0,0,0,0,0,0,0,0,0,0,0,0,0,0,0,0,0,0,0,0,0,0,0,0],"sum_hessian":[2.7038858E2,1.5060446E2,1.1978411E2,1.8611872E1,1.3199258E2,4.8281746E1,7.1502365E1,1.3025745E1,5.586125E0,4.424919E1,8.77434E1,1.0910371E1,3.7371376E1,6.686015E1,4.642208E0,9.868292E0,3.1574533E0,9.853403E0,3.4395786E1,3.1261555E1,5.6481846E1,3.0844576E1,6.5268E0,2.1104567E1,4.575559E1,4.4506865E0,5.417606E0,4.149918E0,5.703485E0,3.0183239E1,4.212549E0,4.136588E0,2.7124968E1,3.4578009E0,2.7386774E1,1.301203E1,8.092538E0],"tree_param":{"num_deleted":"0","num_feature":"10","num_nodes":"37","size_leaf_vector":"0"}},{"base_weights":[-1.4479916E-1,-1.4464923E0,1.2870109E0,-1.5950006E0,-6.330878E-1,-1.425217E-1,1.4458826E0,-8.9005835E-2,-1.1675305E0,-9.5406675E-1,5.31915E-1,2.9862165E-1,1.4768733E0,7.0328623E-1,-1.0691966E0,1.1024641E0,-1.6070367E-1,1.5509634E0,9.426474E-1,1.0659068E-1,1.5040586E0],"categories":[],"categories_nodes":[],"categories_segments":[],"categories_sizes":[],"default_left":[1,1,1,0,1,1,1,1,0,0,1,0,1,0,0,0,0,0,1,0,0],"id":15,"left_children":[1,3,5,-1,7,9,11,13,-1,-1,15,-1,17,-1,-1,-1,-1,-1,19,-1,-1],"loss_changes":[4.8861926E2,1.55720825E1,2.8571686E1,0E0,6.5407467E0,7.843107E0,3.5586243E0,1.0386395E1,0E0,0E0,3.3233638E0,0E0,2.8634949E0,0E0,0E0,0E0,0E0,0E0,7.283764E0,0E0,0E0],"parents":[2147483647,0,0,1,1,2,2,4,4,5,5,6,6,7,7,10,10,12,12,18,18],"right_children":[2,4,6,-1,8,10,12,14,-1,-1,16,-1,18,-1,-1,-1,-1,-1,20,-1,-1],"split_conditions":[8.92928E1,8.649961E1,3.9775E3,-3.190001E-2,1.149E4,9.2028534E1,8.982051E1,1.5E0,-2.335061E-2,-1.9081336E-2,2.785E2,5.972433E-3,1.601E4,1.4065724E-2,-2.1383932E-2,2.2049282E-2,-3.2140734E-3,3.1019267E-2,2.5824E4,2.1318137E-3,3.0081172E-2],"split_indices":[0,0,4,0,4,0,0,5,0,0,5,0,4,0,0,0,0,0,4,0,0],"split_type":[0,0,0,0,0,0,0,0,0,0,0,0,0,0,0,0,0,0,0,0,0],"sum_hessian":[2.6016724E2,1.3627032E2,1.2389691E2,1.1441921E2,2.1851122E1,1.2402423E1,1.11494484E2,1.1405971E1,1.0445151E1,5.4408607E0,6.9615626E0,3.2123022E0,1.0828219E2,6.4637756E0,4.942195E0,3.4926977E0,3.4688652E0,9.342251E1,1.485968E1,6.447656E0,8.4120245E0],"tree_param":{"num_deleted":"0","num_feature":"10","num_nodes":"21","size_leaf_vector":"0"}},{"base_weights":[-1.3485546E-1,-9.3847317E-1,8.7973756E-1,-1.476797E0,-4.4052407E-1,4.28807E-1,1.2437114E0,4.7613287E-1,-9.102009E-1,-6.3178587E-1,7.425605E-1,8.9170045E-1,1.3971783E0,1.1233305E0,-5.7758926E-3,-1.2873319E0,-3.072131E-1,5.414725E-1,-1.0707767E0,1.00883E0,-7.05057E-1,1.2326151E0,2.7216932E-1,1.4479779E0,5.694513E-1,4.7051E-1,1.3085045E0,-9.055466E-1,3.14089E-1,-1.5254546E0,-7.8379315E-1,1.9596416E-1,-1.1166987E0,-1.2649814E0,-5.150874E-1,1.1224414E0,1.3065196E-2,1.4487079E0,7.3366827E-1,-4.085959E-1,7.0682514E-1],"categories":[],"categories_nodes":[],"categories_segments":[],"categories_sizes":[],"default_left":[1,1,1,0,1,1,1,1,1,1,1,1,1,1,1,1,1,0,1,1,0,1,1,1,1,1,1,0,0,0,0,0,0,1,1,0,0,1,1,0,0],"id":16,"left_children":[1,3,5,-1,7,9,11,13,15,17,19,21,-1,-1,27,29,31,-1,-1,35,-1,-1,39,-1,-1,-1,-1,-1,-1,-1,-1,-1,-1,-1,-1,-1,-1,-1,-1,-1,-1],"loss_changes":[2.165543E2,3.9056137E1,1.874479E1,0E0,3.4176094E1,1.8434633E1,2.2369232E0,8.492727E0,1.1467194E1,7.2061715E0,1.6947882E1,4.382389E0,9.8908997E-1,7.8878975E-1,5.059386E0,2.6148682E0,8.929532E0,0E0,3.950386E-1,4.056919E0,0E0,4.6011353E-1,3.0146887E0,0E0,0E0,0E0,0E0,0E0,0E0,0E0,0E0,0E0,0E0,0E0,0E0,0E0,0E0,0E0,0E0,0E0,0E0],"parents":[2147483647,0,0,1,1,2,2,4,4,5,5,6,6,7,7,8,8,9,9,10,10,11,11,12,12,13,13,14,14,15,15,16,16,18,18,19,19,21,21,22,22],"right_children":[2,4,6,-1,8,10,12,14,16,18,20,22,-1,-1,28,30,32,-1,-1,36,-1,-1,40,-1,-1,-1,-1,-1,-1,-1,-1,-1,-1,-1,-1,-1,-1,-1,-1,-1,-1],"split_conditions":[1.8942E3,5.1747036E-1,4.25025E3,-2.953594E-2,5.6636655E-1,5.305833E-1,5.315343E-1,5.460057E-1,7.9648054E-1,5.125827E-1,4.41E2,5.0876665E-1,2.7943565E-2,2.246661E-2,4.726339E2,5.974271E-1,8.5150707E-1,1.082945E-2,-2.1415533E-2,8.4736156E-1,-1.410114E-2,2.4652302E-2,5.190564E-1,2.8959557E-2,1.13890255E-2,9.4102E-3,2.6170088E-2,-1.811093E-2,6.28178E-3,-3.0509092E-2,-1.5675863E-2,3.919283E-3,-2.2333974E-2,-2.5299627E-2,-1.0301748E-2,2.2448828E-2,2.613039E-4,2.8974159E-2,1.4673365E-2,-8.171918E-3,1.41365025E-2],"split_indices":[2,7,2,0,7,7,6,7,7,7,5,6,6,7,2,6,7,0,6,7,0,7,6,2147483647,2147483647,2147483647,2147483647,0,0,0,0,0,0,2147483647,2147483647,0,0,2147483647,2147483647,0,0],"split_type":[0,0,0,0,0,0,0,0,0,0,0,0,0,0,0,0,0,0,0,0,0,0,0,0,0,0,0,0,0,0,0,0,0,0,0,0,0,0,0,0,0],"sum_hessian":[2.635858E2,1.471273E2,1.16458496E2,6.9752914E1,7.737438E1,5.298858E1,6.346992E1,2.6209055E1,5.1165325E1,1.186551E1,4.112307E1,2.1337626E1,4.2132294E1,1.0618088E1,1.5590966E1,3.077966E1,2.0385668E1,3.1672323E0,8.698277E0,3.499021E1,6.1328607E0,1.3125405E1,8.212221E0,3.8990032E1,3.1422598E0,3.1287525E0,7.4893355E0,3.608718E0,1.1982248E1,1.9519464E1,1.1260195E1,1.3038707E1,7.3469605E0,5.499773E0,3.1985044E0,3.1292667E1,3.6975422E0,7.8305006E0,5.2949047E0,3.223491E0,4.98873E0],"tree_param":{"num_deleted":"8","num_feature":"10","num_nodes":"41","size_leaf_vector":"0"}},{"base_weights":[-1.4201638E-1,-1.3490862E0,4.6507683E-1,-1.4283748E0,4.6432143E-1,-3.608382E-1,1.0382298E0,-1.4558189E0,-5.44281E-1,-1.2552938E0,1.6048633E-1,1.284311E0,3.1985652E-1,-1.4845788E0,-7.337334E-1,-1.4160049E0,-8.4339696E-1,-5.991534E-1,3.5195604E-1,1.3880407E0,2.1445093E-1,-5.2738972E-2,1.3846786E0,-1.2575188E0,2.3911951E-2,5.617613E-3,-1.0711651E0,-2.1096992E-3,6.2003464E-1,8.413023E-1,1.4239455E0,3.763692E-1,3.5500177E-3,4.9071118E-1,-7.2605157E-1],"categories":[],"categories_nodes":[],"categories_segments":[],"categories_sizes":[],"default_left":[1,1,1,1,0,1,1,1,0,1,1,1,1,1,1,0,1,1,1,1,1,1,0,0,0,0,0,0,0,1,1,1,1,0,0],"id":17,"left_children":[1,3,5,7,-1,9,11,-1,-1,15,17,19,21,-1,-1,-1,23,25,27,-1,-1,33,-1,-1,-1,-1,-1,-1,-1,-1,-1,-1,-1,-1,-1],"loss_changes":[1.8940334E2,1.3095032E1,8.186401E1,1.2235565E0,0E0,3.3432186E1,1.759951E1,5.7180786E-1,0E0,5.503273E-1,6.888364E0,8.087051E0,1.0914797E1,0E0,0E0,0E0,3.574998E0,2.7499177E0,3.5414968E0,1.5052795E-1,2.670971E-1,8.116004E0,0E0,0E0,0E0,0E0,0E0,0E0,0E0,0E0,0E0,0E0,0E0,0E0,0E0],"parents":[2147483647,0,0,1,1,2,2,3,3,5,5,6,6,7,7,9,9,10,10,11,11,12,12,16,16,17,17,18,18,19,19,20,20,21,21],"right_children":[2,4,6,8,-1,10,12,-1,-1,16,18,20,22,-1,-1,-1,24,26,28,-1,-1,34,-1,-1,-1,-1,-1,-1,-1,-1,-1,-1,-1,-1,-1],"split_conditions":[1.7344713E-1,1.9565E4,7.288E3,1.6866608E-1,9.286429E-3,5.328653E-1,1.25605E4,-2.9116377E-2,-1.088562E-2,7.5E0,3.659E3,1.35E1,2.5803E4,-2.9691577E-2,-1.4674668E-2,-2.8320096E-2,3.8308635E-1,6.4374685E-1,3.85E1,2.7760813E-2,4.2890185E-3,1.59585E4,2.7693572E-2,-2.5150375E-2,4.78239E-4,1.1235226E-4,-2.14233E-2,-4.2193984E-5,1.2400692E-2,1.6826045E-2,2.8478911E-2,7.527384E-3,7.100035E-5,9.814223E-3,-1.4521031E-2],"split_indices":[8,4,4,8,0,8,4,5,0,1,4,1,4,2147483647,2147483647,0,8,8,5,4,1,4,0,0,0,0,0,0,0,2147483647,2147483647,2147483647,2147483647,0,0],"split_type":[0,0,0,0,0,0,0,0,0,0,0,0,0,0,0,0,0,0,0,0,0,0,0,0,0,0,0,0,0,0,0,0,0,0,0],"sum_hessian":[2.566077E2,8.546245E1,1.7114526E2,8.208569E1,3.3767524E0,7.026444E1,1.0088082E2,7.898708E1,3.0986118E0,2.5354649E1,4.4909794E1,7.455422E1,2.63266E1,7.49461E1,4.0409846E0,1.6484913E1,8.869737E0,8.612239E0,3.6297554E1,6.769351E1,6.8607116E0,2.0206533E1,6.120065E0,5.69878E0,3.1709566E0,4.2083435E0,4.4038954E0,1.606792E1,2.0229633E1,5.6771197E0,6.2016388E1,3.437221E0,3.4234903E0,1.1331638E1,8.874895E0],"tree_param":{"num_deleted":"6","num_feature":"10","num_nodes":"35","size_leaf_vector":"0"}},{"base_weights":[-1.105763E-1,-1.2965328E0,4.911926E-1,-1.3740362E0,-5.5979633E-1,8.0584455E-1,-2.0854215E-1,-5.0766116E-1,-1.4112327E0,6.618294E-1,-1.2226691E0,1.1462424E0,2.418344E-1,-8.9786536E-1,1.13249786E-1,8.704199E-1,1.3379657E0,3.947919E-1,-5.521584E-1,-1.1505153E0,-3.0674472E-1,-2.7084572E-2,9.823854E-1,1.2810823E0,2.2503069E-1,5.911795E-1,1.3868744E0,7.330288E-1,-1.2847199E-1,-9.8425096E-1,8.6410455E-2,-1.3411349E0,-6.072289E-1,2.2209996E-1,-1.177248E0],"categories":[],"categories_nodes":[],"categories_segments":[],"categories_sizes":[],"default_left":[1,1,1,1,1,1,1,0,0,0,0,1,1,1,1,1,1,1,1,1,0,1,0,0,0,1,1,0,0,0,0,1,1,0,0],"id":18,"left_children":[1,3,5,7,9,11,13,-1,-1,-1,-1,15,17,19,21,23,-1,27,29,-1,-1,33,-1,-1,-1,-1,-1,-1,-1,-1,-1,-1,-1,-1,-1],"loss_changes":[1.8564934E2,4.229187E0,3.8192425E1,1.8139191E0,8.923064E0,2.263414E1,1.2160817E1,0E0,0E0,0E0,0E0,2.7568054E0,5.826806E0,2.2477856E0,4.6554723E0,8.529402E0,7.0990753E-1,7.050916E0,2.2583992E0,4.1138268E-1,0E0,9.905163E0,0E0,0E0,0E0,0E0,0E0,0E0,0E0,0E0,0E0,0E0,0E0,0E0,0E0],"parents":[2147483647,0,0,1,1,2,2,3,3,4,4,5,5,6,6,11,11,12,12,13,13,14,14,15,15,16,16,17,17,18,18,19,19,21,21],"right_children":[2,4,6,8,10,12,14,-1,-1,-1,-1,16,18,20,22,24,-1,28,30,-1,-1,34,-1,-1,-1,-1,-1,-1,-1,-1,-1,-1,-1,-1,-1],"split_conditions":[1.7345883E-1,1.430531E-1,5.65058E-1,2.2707453E-1,3.4408298E-1,4.5E0,5.5506796E-1,-1.0153223E-2,-2.8224654E-2,1.3236588E-2,-2.4453381E-2,5.1663154E-1,4.6806124E-1,7.5E0,3.9975E3,7E0,2.6759313E-2,1.15E1,3.8858572E-1,-2.3010306E-2,-6.134894E-3,4.71E2,1.9647708E-2,2.5621645E-2,4.5006135E-3,1.182359E-2,2.7737489E-2,1.4660576E-2,-2.5694396E-3,-1.9685019E-2,1.7282091E-3,-2.6822697E-2,-1.2144578E-2,4.441999E-3,-2.354496E-2],"split_indices":[8,8,6,6,6,1,8,0,0,0,0,8,6,1,5,5,5,1,8,6,0,5,0,0,0,2147483647,2147483647,0,0,0,0,2147483647,2147483647,0,0],"split_type":[0,0,0,0,0,0,0,0,0,0,0,0,0,0,0,0,0,0,0,0,0,0,0,0,0,0,0,0,0,0,0,0,0,0,0],"sum_hessian":[2.5824033E2,8.6538025E1,1.717023E2,7.751822E1,9.019809E0,1.1833746E2,5.336483E1,3.7941296E0,7.372409E1,3.1732736E0,5.8465347E0,7.315427E1,4.5183197E1,1.6413857E1,3.6950974E1,3.2269623E1,4.0884644E1,3.830648E1,6.876715E0,1.083609E1,5.577767E0,3.264828E1,4.3026934E0,1.9119118E1,1.3150504E1,3.3174808E0,3.7567165E1,2.3023348E1,1.5283133E1,3.778575E0,3.0981402E0,6.934475E0,3.901615E0,2.7497751E1,5.150529E0],"tree_param":{"num_deleted":"4","num_feature":"10","num_nodes":"35","size_leaf_vector":"0"}},{"base_weights":[-9.791388E-2,-8.7042457E-1,8.012378E-1,-1.3646978E0,-4.1756853E-1,-5.4011527E-2,1.0240247E0,-5.397664E-1,-1.40873E0,7.8093725E-1,-8.335262E-1,1.4526025E0,-9.010605E-1,1.3499855E0,1.8591887E-1,-7.397189E-1,1.1627953E0,-1.0631889E0,-5.516204E-2,-1.1952066E0,-2.9608503E-1,9.3056154E-1,1.4257334E0,5.46614E-1,-3.485977E-1,1.5074326E0,7.7702796E-1,-1.7006376E-1,-1.2188402E0,3.855329E-1,-7.096903E-1,1.1249529E0,3.5371804E-1,-2.8807032E-1,1.0689778E0,-1.3010762E0,5.648584E-1],"categories":[],"categories_nodes":[],"categories_segments":[],"categories_sizes":[],"default_left":[1,1,1,1,1,1,1,0,0,1,1,0,1,1,1,0,1,1,1,0,0,1,0,1,1,1,1,0,0,0,0,0,0,0,0,0,0],"id":19,"left_children":[1,3,5,7,9,11,13,-1,-1,15,17,-1,19,21,23,-1,-1,27,29,-1,-1,31,-1,33,35,-1,-1,-1,-1,-1,-1,-1,-1,-1,-1,-1,-1],"loss_changes":[1.8158865E2,3.0891365E1,2.3085266E1,1.6647034E0,3.793674E1,3.4398148E1,2.5958687E1,0E0,0E0,1.2349369E1,9.95303E0,0E0,2.7094297E0,8.627243E-1,5.5936193E0,0E0,9.8293686E-1,5.796978E0,4.2584376E0,0E0,0E0,1.1070709E0,0E0,7.7734747E0,1.1090359E1,0E0,0E0,0E0,0E0,0E0,0E0,0E0,0E0,0E0,0E0,0E0,0E0],"parents":[2147483647,0,0,1,1,2,2,3,3,4,4,5,5,6,6,9,9,10,10,12,12,13,13,14,14,16,16,17,17,18,18,21,21,23,23,24,24],"right_children":[2,4,6,8,10,12,14,-1,-1,16,18,-1,20,22,24,-1,-1,28,30,-1,-1,32,-1,34,36,-1,-1,-1,-1,-1,-1,-1,-1,-1,-1,-1,-1],"split_conditions":[1.8366667E3,5.300054E-1,5.2033377E-1,2.2862715E-1,5.598166E-1,5.0971556E-1,5.679979E-1,-1.0795327E-2,-2.81746E-2,5.777702E2,7.2098505E-1,2.9052049E-2,4.519375E3,2.939875E3,1.677E3,-1.4794378E-2,2.3255905E-2,5.6636655E-1,8.5150707E-1,-2.3904132E-2,-5.9217005E-3,4.6763277E-1,2.8514668E-2,1.13E2,3.967E3,3.0148651E-2,1.5540559E-2,-3.4012753E-3,-2.4376804E-2,7.7106575E-3,-1.4193805E-2,2.2499058E-2,7.0743607E-3,-5.7614064E-3,2.1379557E-2,-2.6021523E-2,1.1297167E-2],"split_indices":[2,7,7,6,7,7,7,0,0,2,6,0,2,2,5,0,7,7,7,0,0,6,0,5,2,2147483647,2147483647,0,0,0,0,0,0,0,0,0,0],"split_type":[0,0,0,0,0,0,0,0,0,0,0,0,0,0,0,0,0,0,0,0,0,0,0,0,0,0,0,0,0,0,0,0,0,0,0,0,0],"sum_hessian":[2.5942346E2,1.3955556E2,1.198679E2,6.57637E1,7.379185E1,2.492845E1,9.493945E1,4.0042176E0,6.1759487E1,1.8785997E1,5.5005848E1,8.714104E0,1.6214346E1,6.791486E1,2.7024586E1,3.5824816E0,1.5203516E1,4.2191093E1,1.2814756E1,1.0253396E1,5.96095E0,1.2421392E1,5.5493473E1,1.6122435E1,1.0902151E1,6.4941454E0,8.709371E0,6.5722413E0,3.561885E1,7.903974E0,4.910783E0,8.579864E0,3.841529E0,6.378602E0,9.743832E0,5.129342E0,5.7728095E0],"tree_param":{"num_deleted":"2","num_feature":"10","num_nodes":"37","size_leaf_vector":"0"}},{"base_weights":[-1.1574856E-1,4.6069378E-1,-1.0604846E0,9.6928763E-1,-3.1836084E-1,-1.3388582E0,-3.829318E-1,-2.3919705E-1,1.2911378E0,-7.0011497E-1,2.5795016E-1,-2.5873005E-1,-1.4264488E0,1.1672834E0,-6.107239E-1,1.3510666E0,-9.554624E-1,1.3401861E0,9.033558E-1,2.774543E-1,-9.9928653E-1,6.146694E-1,-2.61368E-1,2.987863E-1,-1.1104604E0,-4.259165E-1,-1.1522865E0,1.215795E0,3.722998E-2,8.6467695E-1,-7.2282076E-1,-1.4149574E0,-4.820442E-1,-5.189202E-1,1.034089E0,-1.2594497E0,6.750134E-1,9.082351E-1,-4.9621853E-1,-3.5750446E-1,-1.3174593E0],"categories":[],"categories_nodes":[],"categories_segments":[],"categories_sizes":[],"default_left":[1,1,1,1,1,1,1,1,1,1,1,0,0,0,1,0,1,0,1,1,1,1,1,1,1,0,0,0,0,0,0,0,0,0,0,0,0,0,0,0,0],"id":20,"left_children":[1,3,5,7,9,11,13,15,17,19,21,-1,-1,-1,23,-1,25,-1,27,29,31,33,35,37,39,-1,-1,-1,-1,-1,-1,-1,-1,-1,-1,-1,-1,-1,-1,-1,-1],"loss_changes":[1.403693E2,6.3791187E1,1.7902985E1,3.810846E1,1.4269123E1,6.1404266E0,1.1247864E1,2.5532972E1,2.519989E-1,1.1621609E1,5.0229E0,0E0,0E0,0E0,1.2452709E1,0E0,1.0996656E0,0E0,3.1215906E0,6.423643E0,5.7502346E0,8.076084E0,1.1494378E1,5.4143953E0,2.2445755E0,0E0,0E0,0E0,0E0,0E0,0E0,0E0,0E0,0E0,0E0,0E0,0E0,0E0,0E0,0E0,0E0],"parents":[2147483647,0,0,1,1,2,2,3,3,4,4,5,5,6,6,7,7,8,8,9,9,10,10,14,14,16,16,18,18,19,19,20,20,21,21,22,22,23,23,24,24],"right_children":[2,4,6,8,10,12,14,16,18,20,22,-1,-1,-1,24,-1,26,-1,28,30,32,34,36,38,40,-1,-1,-1,-1,-1,-1,-1,-1,-1,-1,-1,-1,-1,-1,-1,-1],"split_conditions":[9.5E0,5.679979E-1,5.300054E-1,5.2033377E-1,1.87375E3,5.1162827E-1,5.4389167E-1,5.0971556E-1,5.5E0,8.25E0,1.3695E3,-5.174601E-3,-2.8528975E-2,2.3345668E-2,1.75E0,2.7021332E-2,3.5E0,2.6803723E-2,9.25E0,8.258649E-1,7.647735E-1,4.65E1,3.8975E3,1.95E1,5.594111E-1,-8.51833E-3,-2.304573E-2,2.4315901E-2,7.445996E-4,1.7293539E-2,-1.4456415E-2,-2.8299147E-2,-9.640884E-3,-1.0378404E-2,2.068178E-2,-2.5188994E-2,1.3500269E-2,1.8164702E-2,-9.924371E-3,-7.150089E-3,-2.6349187E-2],"split_indices":[1,7,7,7,3,7,7,7,1,3,5,0,0,0,3,0,1,0,3,7,7,5,3,1,7,0,0,0,0,0,0,0,0,0,0,0,0,0,0,0,0],"split_type":[0,0,0,0,0,0,0,0,0,0,0,0,0,0,0,0,0,0,0,0,0,0,0,0,0,0,0,0,0,0,0,0,0,0,0,0,0,0,0,0,0],"sum_hessian":[2.558571E2,1.5921964E2,9.663747E1,9.618352E1,6.303612E1,6.780405E1,2.8833414E1,2.0282703E1,7.590081E1,3.7789295E1,2.5246826E1,5.3825645E0,6.2421486E1,3.1656408E0,2.5667774E1,6.023335E0,1.4259368E1,6.519823E1,1.0702581E1,8.871966E0,2.891733E1,1.4857566E1,1.0389259E1,9.244708E0,1.6423065E1,4.7211857E0,9.538182E0,7.5686216E0,3.1339602E0,5.675602E0,3.1963646E0,1.507059E1,1.3846739E1,3.9484975E0,1.0909068E1,4.861939E0,5.527321E0,5.1524363E0,4.092272E0,4.129422E0,1.2293644E1],"tree_param":{"num_deleted":"0","num_feature":"10","num_nodes":"41","size_leaf_vector":"0"}},{"base_weights":[-1.2279016E-1,-1.2469234E0,4.172844E-1,-9.448294E-2,-1.3476932E0,9.759285E-1,-4.14634E-1,8.145709E-1,-8.807843E-1,-1.4627619E0,-1.0647808E0,5.704408E-3,1.1312246E0,-1.2389387E0,1.2753735E-1,-1.4932306E0,-7.3235065E-1,-2.1335837E-1,-1.1680588E0,1.313702E0,-8.0921763E-1,1.2569741E0,-5.4639593E-2,-2.7288282E-1,-1.4283113E0,2.6216894E-1,-1.039658E0,-6.710652E-1,-1.3358932E0,-1.3835301E0,-3.4477344E-1,1.4858133E0,1.0358616E0,4.2934325E-1,-5.061707E-1,-1.3824725E-1,5.681383E-1],"categories":[],"categories_nodes":[],"categories_segments":[],"categories_sizes":[],"default_left":[1,1,1,1,1,1,1,0,0,1,1,1,1,1,1,1,1,0,1,0,1,1,1,0,0,1,0,0,0,0,0,0,0,0,0,0,0],"id":21,"left_children":[1,3,5,7,9,11,13,-1,-1,-1,17,19,21,23,25,-1,-1,-1,27,-1,29,31,33,-1,-1,35,-1,-1,-1,-1,-1,-1,-1,-1,-1,-1,-1],"loss_changes":[1.5615988E2,9.563248E0,8.123041E1,6.282219E0,9.3811035E-1,1.5715248E1,3.1696693E1,0E0,0E0,5.9661865E-2,2.0229988E0,1.7480457E1,1.3480942E1,4.74971E0,7.1045685E0,0E0,0E0,0E0,1.007124E0,0E0,2.2193146E0,2.5776672E0,2.3111758E0,0E0,0E0,4.9520903E0,0E0,0E0,0E0,0E0,0E0,0E0,0E0,0E0,0E0,0E0,0E0],"parents":[2147483647,0,0,1,1,2,2,3,3,4,4,5,5,6,6,9,9,10,10,11,11,12,12,13,13,14,14,18,18,20,20,21,21,22,22,25,25],"right_children":[2,4,6,8,10,12,14,-1,-1,-1,18,20,22,24,26,-1,-1,-1,28,-1,30,32,34,-1,-1,36,-1,-1,-1,-1,-1,-1,-1,-1,-1,-1,-1],"split_conditions":[1.736627E-1,5.1162827E-1,5.664699E-1,1.325E1,1.149901E-1,5.201609E-1,5.4331076E-1,1.6291417E-2,-1.7615685E-2,-2.9255237E-2,5.1312894E-1,5.0971556E-1,1.35E1,7.5E0,8.598841E-1,-2.9864611E-2,-1.4647013E-2,-4.2671673E-3,4.25E0,2.6274038E-2,5.13649E-1,5.4805696E-1,1.25E0,-5.4576565E-3,-2.8566226E-2,7.934027E-1,-2.0793159E-2,-1.3421304E-2,-2.6717862E-2,-2.7670601E-2,-6.8954686E-3,2.9716264E-2,2.0717232E-2,8.586865E-3,-1.0123414E-2,-2.764945E-3,1.1362766E-2],"split_indices":[8,7,7,3,8,7,8,0,0,7,7,7,1,3,7,2147483647,2147483647,0,3,0,7,7,3,0,0,7,0,0,0,0,0,0,0,0,0,0,0],"split_type":[0,0,0,0,0,0,0,0,0,0,0,0,0,0,0,0,0,0,0,0,0,0,0,0,0,0,0,0,0,0,0,0,0,0,0,0,0],"sum_hessian":[2.5535893E2,8.244524E1,1.729137E2,6.7851624E0,7.566007E1,1.0334384E2,6.9569855E1,3.130266E0,3.6548965E0,5.0819805E1,2.4840271E1,1.4402138E1,8.89417E1,2.7093058E1,4.2476795E1,4.7782223E1,3.0375822E0,3.0188398E0,2.1821432E1,5.2935777E0,9.108561E0,8.0360306E1,8.581399E0,4.8405766E0,2.225248E1,3.8779152E1,3.6976435E0,6.770603E0,1.5050829E1,3.1877842E0,5.9207764E0,3.6679413E1,4.3680897E1,4.165578E0,4.4158206E0,1.7034544E1,2.174461E1],"tree_param":{"num_deleted":"2","num_feature":"10","num_nodes":"37","size_leaf_vector":"0"}},{"base_weights":[-1.451737E-1,-1.3224388E0,1.2836711E0,-1.4799826E0,-6.653036E-1,5.134801E-1,1.3614696E0,9.8496415E-2,-1.0389001E0,8.312864E-1,-2.9682967E-1,1.0686157E0,1.4568124E0,-5.001771E-1,4.3785706E-1,-1.1519796E0,-3.3844995E-1,4.441717E-1,1.0641552E0,1.2141563E0,5.2058056E-2,-1.2481382E0,-6.085992E-1,1.2938002E0,5.3069925E-1],"categories":[],"categories_nodes":[],"categories_segments":[],"categories_sizes":[],"default_left":[1,1,1,0,1,1,1,1,1,1,0,1,0,0,0,1,0,1,1,1,0,1,1,1,1],"id":22,"left_children":[1,3,5,-1,7,9,11,13,15,-1,-1,19,-1,-1,-1,-1,-1,-1,-1,-1,-1,-1,-1,-1,-1],"loss_changes":[4.3041986E2,1.3532867E1,6.2300262E0,0E0,8.358809E0,3.3923433E0,1.3589478E0,2.3354576E0,1.155983E0,3.4198093E-1,0E0,4.286537E0,0E0,0E0,0E0,9.667206E-2,0E0,0E0,0E0,7.1084976E-1,0E0,0E0,0E0,0E0,0E0],"parents":[2147483647,0,0,1,1,2,2,4,4,5,5,6,6,7,7,8,8,9,9,11,11,15,15,19,19],"right_children":[2,4,6,-1,8,10,12,14,16,-1,-1,20,-1,-1,-1,-1,-1,-1,-1,-1,-1,-1,-1,-1,-1],"split_conditions":[8.973972E1,8.641179E1,9.0940575E1,-2.9599652E-2,1.1691704E3,5.4155594E-1,9.268802E1,1.3948166E-1,8.923676E1,1.6625727E-2,-5.9365933E-3,5.902833E3,2.9136246E-2,-1.0003542E-2,8.757141E-3,-2.303959E-2,-6.768999E-3,8.883433E-3,2.1283103E-2,2.4283124E-2,1.0411611E-3,-2.4962762E-2,-1.2171984E-2,2.5876004E-2,1.0613984E-2],"split_indices":[0,0,0,0,2,8,0,8,0,2,0,2,0,0,0,2,0,2147483647,2147483647,8,0,2147483647,2147483647,2147483647,2147483647],"split_type":[0,0,0,0,0,0,0,0,0,0,0,0,0,0,0,0,0,0,0,0,0,0,0,0,0],"sum_hessian":[2.5386879E2,1.3922878E2,1.1464001E2,1.1129451E2,2.7934277E1,1.1214875E1,1.0342513E2,9.417337E0,1.851694E1,8.036892E0,3.1779833E0,2.840001E1,7.502512E1,3.235551E0,6.1817865E0,1.5388083E1,3.1288543E0,4.1107264E0,3.9261658E0,2.467317E1,3.7268398E0,1.1972414E1,3.41567E0,2.1298239E1,3.3749318E0],"tree_param":{"num_deleted":"6","num_feature":"10","num_nodes":"25","size_leaf_vector":"0"}},{"base_weights":[-1.2510458E-1,-7.750409E-1,8.0026835E-1,-2.2101498E-1,-1.0503753E0,3.4331903E-1,1.1682868E0,-8.187791E-1,2.8511527E-1,-1.2229927E0,-2.436176E-1,1.2034924E0,1.148272E-1,1.2092756E0,4.2523572E-1,-9.6917045E-1,-3.1111646E-1,-7.4379945E-1,4.7675508E-1,-1.3566056E0,-5.154355E-1,-6.960901E-1,1.3703375E-1,-1.0985262E0,3.8113913E-1,8.5220546E-1,1.325528E0,-1.2635756E0,-5.427321E-1,6.5771604E-1,-3.7231115E-1,2.2942477E-1,-7.6873803E-1,-9.057409E-1,-2.489236E-1,6.811E-1,-6.8080527E-1,5.8460015E-1,-7.342953E-1,1.0891385E0,4.254667E-1],"categories":[],"categories_nodes":[],"categories_segments":[],"categories_sizes":[],"default_left":[1,1,1,1,1,1,1,1,1,1,1,0,1,1,0,1,0,0,1,0,1,1,1,0,1,1,0,0,0,0,0,0,0,1,1,0,0,0,0,0,0],"id":23,"left_children":[1,3,5,7,9,11,13,15,17,19,21,-1,23,25,-1,27,-1,-1,29,-1,31,-1,35,-1,37,39,-1,-1,-1,-1,-1,-1,-1,-1,-1,-1,-1,-1,-1,-1,-1],"loss_changes":[1.5335258E2,2.2600769E1,1.7300842E1,1.5650814E1,1.358963E1,9.369518E0,1.2489166E0,1.5020132E0,5.941949E0,7.0433273E0,3.3377528E0,0E0,1.3126528E1,1.1252594E0,0E0,1.5427914E0,0E0,0E0,4.008696E0,0E0,2.9351072E0,5.9631395E-1,5.3847675E0,0E0,7.9166083E0,1.1687279E0,0E0,0E0,0E0,0E0,0E0,0E0,0E0,0E0,0E0,0E0,0E0,0E0,0E0,0E0,0E0],"parents":[2147483647,0,0,1,1,2,2,3,3,4,4,5,5,6,6,7,7,8,8,9,9,10,10,12,12,13,13,15,15,18,18,20,20,21,21,22,22,24,24,25,25],"right_children":[2,4,6,8,10,12,14,16,18,20,22,-1,24,26,-1,28,-1,-1,30,-1,32,-1,36,-1,38,40,-1,-1,-1,-1,-1,-1,-1,-1,-1,-1,-1,-1,-1,-1,-1],"split_conditions":[2.0156667E3,5.75E0,4.0581665E3,3.6116803E-1,6.634915E-1,1.425E1,6.932442E-1,3.3212855E-1,4.044773E2,1.3775308E3,5.55E1,2.4069848E-2,1.885E2,5.2862626E-1,8.504714E-3,6.100383E2,-6.222329E-3,-1.48759885E-2,7.0390034E-1,-2.7132113E-2,2.45E1,-1.3921802E-2,2.64E2,-2.1970524E-2,3.5575E3,5.08945E-1,2.6510559E-2,-2.527151E-2,-1.0854642E-2,1.315432E-2,-7.446223E-3,4.5884955E-3,-1.537476E-2,-1.8114818E-2,-4.978472E-3,1.3622E-2,-1.3616105E-2,1.1692002E-2,-1.4685906E-2,2.1782769E-2,8.509333E-3],"split_indices":[2,3,2,6,6,3,6,6,2,2,3,0,3,9,0,2,0,0,9,0,3,6,3,0,3,6,0,0,0,0,0,0,0,2147483647,2147483647,0,0,0,0,0,0],"split_type":[0,0,0,0,0,0,0,0,0,0,0,0,0,0,0,0,0,0,0,0,0,0,0,0,0,0,0,0,0,0,0,0,0,0,0,0,0,0,0,0,0],"sum_hessian":[2.529472E2,1.4868243E2,1.0426476E2,4.995867E1,9.872376E1,4.7374813E1,5.6889946E1,2.2622587E1,2.7336086E1,8.0898445E1,1.782532E1,9.047554E0,3.832726E1,5.332116E1,3.5687876E0,1.6751108E1,5.8714786E0,3.8396668E0,2.3496418E1,6.7276794E1,1.362165E1,7.7657037E0,1.0059615E1,6.3357515E0,3.1991508E1,1.51422615E1,3.8178898E1,8.748332E0,8.002777E0,1.9554209E1,3.942211E0,3.4806705E0,1.0140979E1,4.5887766E0,3.176927E0,6.1413116E0,3.9183035E0,2.7458782E1,4.5327253E0,8.73834E0,6.403921E0],"tree_param":{"num_deleted":"2","num_feature":"10","num_nodes":"41","size_leaf_vector":"0"}},{"base_weights":[-1.7157379E-1,-1.2127947E0,3.623674E-1,-1.3486125E0,-8.99243E-1,9.1462426E-2,1.0893734E0,-4.381227E-2,-1.0229266E0,4.1255018E-1,-2.0577934E-1,3.2559448E-1,1.3356458E0,-1.1529247E0,-6.1014187E-2,9.4184643E-1,1.8300314E-1,-5.1230246E-1,2.59208E-1,1.0856812E0,-2.844808E-1,-5.5223286E-1,-1.3596826E0,3.967172E-1,1.030853E0,-1.7009556E-1,8.3012146E-1,-2.6173365E-1,-9.832511E-1,8.210356E-1,-1.4253744E-1,-8.48412E-1,3.153281E-1],"categories":[],"categories_nodes":[],"categories_segments":[],"categories_sizes":[],"default_left":[1,1,1,0,1,1,1,0,1,1,1,1,0,1,0,1,1,1,1,0,1,0,0,1,1,0,0,0,0,0,0,0,0],"id":24,"left_children":[1,3,5,-1,7,9,11,-1,13,15,17,19,-1,21,-1,-1,25,27,29,-1,31,-1,-1,-1,-1,-1,-1,-1,-1,-1,-1,-1,-1],"loss_changes":[1.4033846E2,2.429634E0,3.2812523E1,0E0,3.0077648E0,1.1808418E1,8.081043E0,0E0,3.0761223E0,7.0424643E0,9.319329E0,6.0408344E0,0E0,1.9952374E0,0E0,4.5090103E-1,9.888955E0,4.3663244E0,6.0468397E0,0E0,2.8550167E0,0E0,0E0,0E0,0E0,0E0,0E0,0E0,0E0,0E0,0E0,0E0,0E0],"parents":[2147483647,0,0,1,1,2,2,4,4,5,5,6,6,8,8,9,9,10,10,11,11,13,13,15,15,16,16,17,17,18,18,20,20],"right_children":[2,4,6,-1,8,10,12,-1,14,16,18,20,-1,22,-1,-1,26,28,30,-1,32,-1,-1,-1,-1,-1,-1,-1,-1,-1,-1,-1,-1],"split_conditions":[1.736744E-1,1.15094796E-1,4.592E3,-2.6972251E-2,2.294178E-1,5.394325E-1,5.199046E-1,-8.762454E-4,1.67E2,2.25E0,4.5E1,5.0860393E-1,2.6712915E-2,2.9584658E-1,-1.2202837E-3,1.8836929E-2,3.02E2,2.5E0,1.725E2,2.1713624E-2,5.2118367E-1,-1.1044657E-2,-2.719365E-2,7.934344E-3,2.061706E-2,-3.4019111E-3,1.6602429E-2,-5.2346727E-3,-1.9665021E-2,1.6420713E-2,-2.8507488E-3,-1.696824E-2,6.3065616E-3],"split_indices":[8,8,3,0,9,9,8,0,3,3,5,9,0,9,0,9,3,5,5,0,9,0,0,2147483647,2147483647,0,0,0,0,0,0,0,0],"split_type":[0,0,0,0,0,0,0,0,0,0,0,0,0,0,0,0,0,0,0,0,0,0,0,0,0,0,0,0,0,0,0,0,0],"sum_hessian":[2.5063918E2,8.452953E1,1.6610963E2,5.6677895E1,2.7851639E1,1.2183569E2,4.427395E1,3.6893406E0,2.4162298E1,5.8382057E1,6.3453636E1,1.1361125E1,3.2912823E1,2.1110706E1,3.051592E0,1.6721672E1,4.166038E1,3.8182014E1,2.5271624E1,4.7115126E0,6.6496124E0,6.3456526E0,1.4765055E1,3.1129973E0,1.3608675E1,2.7430267E1,1.4230116E1,2.5937626E1,1.2244389E1,1.0101434E1,1.517019E1,3.2136846E0,3.4359276E0],"tree_param":{"num_deleted":"2","num_feature":"10","num_nodes":"33","size_leaf_vector":"0"}},{"base_weights":[-1.0239231E-1,-1.1716797E0,4.3630996E-1,-1.2674983E0,7.3128474E-1,-3.0950347E-1,9.534892E-1,-3.5967728E-1,-1.3093692E0,-1.0612924E0,5.9430998E-2,1.0857582E0,4.9435154E-2,-1.4035593E0,-1.0686889E0,1.7715228E-1,-1.2929281E0,-5.109778E-1,2.5673914E-1,1.2179667E0,2.8837147E-1,4.2016277E-1,-3.3659387E-1,-3.507321E-1,-1.2804867E0,-1.3795344E0,-6.520183E-1,-8.6827624E-1,2.0072901E-1,-2.9051512E-1,6.152492E-1,-4.9618253E-1,1.2719713E0,9.250964E-1,-1.9366977E-1],"categories":[],"categories_nodes":[],"categories_segments":[],"categories_sizes":[],"default_left":[1,1,1,1,0,1,1,0,1,1,1,1,1,0,1,0,1,1,1,0,1,1,0,0,0,1,1,0,0,0,0,0,0,0,0],"id":25,"left_children":[1,3,5,7,-1,9,11,-1,13,15,17,19,21,-1,23,-1,-1,27,29,-1,31,33,-1,-1,-1,-1,-1,-1,-1,-1,-1,-1,-1,-1,-1],"loss_changes":[1.4086903E2,1.5861038E1,6.3075554E1,2.5069427E0,0E0,1.875828E1,1.1468681E1,0E0,1.8915558E-1,6.6095448E0,5.3265476E0,8.505409E0,2.0514176E0,0E0,3.3750877E0,0E0,1.4725685E-1,3.2762263E0,7.038471E0,0E0,1.0862566E1,2.4271307E0,0E0,0E0,0E0,0E0,0E0,0E0,0E0,0E0,0E0,0E0,0E0,0E0,0E0],"parents":[2147483647,0,0,1,1,2,2,3,3,5,5,6,6,8,8,9,9,10,10,11,11,12,12,14,14,16,16,17,17,18,18,20,20,21,21],"right_children":[2,4,6,8,-1,10,12,-1,14,16,18,20,22,-1,24,-1,-1,28,30,-1,32,34,-1,-1,-1,-1,-1,-1,-1,-1,-1,-1,-1,-1,-1],"split_conditions":[1.7345883E-1,1.9565E4,7.422E3,5.5E0,1.4625695E-2,5.354573E-1,1.15E1,-7.1935453E-3,1.15162216E-1,8.5E0,3.737E3,1.59585E4,2.1508795E-1,-2.8071186E-2,1.2266955E-1,3.5430454E-3,-2.585856E-2,3.5E0,1.145E2,2.4359332E-2,2.5636E4,1.1808E4,-6.731877E-3,-7.0146415E-3,-2.5609734E-2,-2.7590686E-2,-1.3040366E-2,-1.7365525E-2,4.01458E-3,-5.810302E-3,1.2304984E-2,-9.92365E-3,2.5439426E-2,1.8501928E-2,-3.8733953E-3],"split_indices":[8,4,4,1,0,8,1,0,8,3,4,4,8,0,8,0,3,1,3,0,4,4,0,0,0,2147483647,2147483647,0,0,0,0,0,0,0,0],"split_type":[0,0,0,0,0,0,0,0,0,0,0,0,0,0,0,0,0,0,0,0,0,0,0,0,0,0,0,0,0,0,0,0,0,0,0],"sum_hessian":[2.426651E2,8.0903046E1,1.6176205E2,7.7342606E1,3.5604374E0,6.640391E1,9.535815E1,3.8327756E0,7.3509834E1,2.1241934E1,4.5161976E1,8.301196E1,1.2346181E1,4.936085E1,2.4148981E1,3.384083E0,1.7857851E1,1.1198341E1,3.3963634E1,7.075344E1,1.2258527E1,6.252803E0,6.0933776E0,6.1061625E0,1.8042818E1,1.4716717E1,3.1411343E0,7.309006E0,3.8893347E0,1.3518198E1,2.0445438E1,7.094916E0,5.163611E0,3.1525E0,3.100303E0],"tree_param":{"num_deleted":"2","num_feature":"10","num_nodes":"35","size_leaf_vector":"0"}},{"base_weights":[-9.602682E-2,-1.1651822E0,4.2680958E-1,-1.4183457E0,-9.6235806E-1,6.92269E-1,-9.486702E-2,-4.031499E-1,-1.1445547E0,1.0356184E0,1.1267122E-1,-8.764826E-1,1.9215275E-1,1.8389508E-2,-1.1654422E0,-1.7475149E-1,-1.239651E0,7.13668E-1,1.3167051E0,3.6817822E-1,-3.05108E-1,-1.232197E0,-1.6337658E-1,3.3657366E-1,-3.4593496E-1,-3.912984E-1,4.0177867E-1,-1.296569E0,-6.5092444E-1,1.1274987E0,2.569344E-1,6.036798E-1,-4.283485E-1,2.0534095E-1,-9.130062E-1,6.566092E-2,8.246557E-1,-1.2215663E0,5.683653E-1],"categories":[],"categories_nodes":[],"categories_segments":[],"categories_sizes":[],"default_left":[1,1,1,0,1,1,1,1,1,1,1,1,1,1,0,0,1,1,0,1,1,0,0,1,1,0,0,1,1,0,0,0,0,0,0,0,0,0,0],"id":26,"left_children":[1,3,5,-1,7,9,11,13,15,17,19,21,23,25,-1,-1,-1,29,-1,31,33,-1,-1,35,37,-1,-1,-1,-1,-1,-1,-1,-1,-1,-1,-1,-1,-1,-1],"loss_changes":[1.356998E2,2.7275238E0,2.2661592E1,0E0,4.363945E0,2.142744E1,1.2710514E1,4.2574162E0,3.0276642E0,5.201668E0,4.5311847E0,3.6532297E0,3.3578634E0,1.6451186E0,0E0,0E0,2.2406006E-1,6.101843E0,0E0,5.1619706E0,5.23184E0,0E0,0E0,4.361186E0,8.155296E0,0E0,0E0,0E0,0E0,0E0,0E0,0E0,0E0,0E0,0E0,0E0,0E0,0E0,0E0],"parents":[2147483647,0,0,1,1,2,2,4,4,5,5,6,6,7,7,8,8,9,9,10,10,11,11,12,12,13,13,16,16,17,17,19,19,20,20,23,23,24,24],"right_children":[2,4,6,-1,8,10,12,14,16,18,20,22,24,26,-1,-1,-1,30,-1,32,34,-1,-1,36,38,-1,-1,-1,-1,-1,-1,-1,-1,-1,-1,-1,-1,-1,-1],"split_conditions":[1.7345883E-1,8.379781E-2,5.65058E-1,-2.8366914E-2,2.9052043E-1,4.5E0,5.328653E-1,3.3E1,6.5E0,5.207473E-1,1.15E1,7.5E0,3.5575E3,2.5933638E-1,-2.3308843E-2,-3.4950296E-3,-2.479302E-2,2.5E0,2.6334101E-2,1.5E0,3.85051E-1,-2.464394E-2,-3.2675315E-3,1.13E2,4.062E3,-7.825968E-3,8.035573E-3,-2.5931379E-2,-1.3018489E-2,2.2549974E-2,5.138688E-3,1.2073595E-2,-8.56697E-3,4.106819E-3,-1.8260123E-2,1.3132185E-3,1.6493114E-2,-2.4431325E-2,1.1367305E-2],"split_indices":[8,8,6,0,6,1,8,1,1,8,1,1,5,6,0,0,8,5,0,5,6,0,0,5,5,0,0,2147483647,2147483647,0,0,0,0,0,0,0,0,0,0],"split_type":[0,0,0,0,0,0,0,0,0,0,0,0,0,0,0,0,0,0,0,0,0,0,0,0,0,0,0,0,0,0,0,0,0,0,0,0,0,0,0],"sum_hessian":[2.408678E2,7.870148E1,1.6216632E2,3.2340885E1,4.6360596E1,1.0725946E2,5.490686E1,1.2182403E1,3.4178192E1,6.6863335E1,4.0396126E1,1.4195574E1,4.071129E1,8.472873E0,3.7095304E0,3.3055398E0,3.0872652E1,3.2815804E1,3.4047527E1,2.5139774E1,1.5256352E1,8.985474E0,5.2101E0,3.239191E1,8.319379E0,4.0859814E0,4.386891E0,2.705468E1,3.817973E0,1.6446016E1,1.636979E1,1.9589916E1,5.549857E0,8.652829E0,6.6035237E0,2.1559637E1,1.0832273E1,4.07789E0,4.2414885E0],"tree_param":{"num_deleted":"2","num_feature":"10","num_nodes":"39","size_leaf_vector":"0"}},{"base_weights":[-5.3743124E-2,-1.1482317E0,4.4404438E-1,9.7708416E-1,-1.2493321E0,9.85457E-1,-3.3948892E-1,-1.2914472E0,-2.6841113E-1,2.950654E-2,1.1444658E0,-1.1400331E0,1.12932615E-1,-1.3616304E0,-6.783228E-1,-7.8237784E-1,1.2694618E0,1.4768454E0,8.8593715E-1,-1.2666548E0,-7.1955514E-1,-9.281505E-1,3.6273888E-1,-9.4385934E-1,-2.0726761E-1,-1.2323657E0,-3.3040547E-1,3.4228337E-1,1.2165548E0,-1.9023828E-1,-1.0720829E0,-4.8714858E-1,-1.1004767E0,5.5828726E-1,-1.0696063E0],"categories":[],"categories_nodes":[],"categories_segments":[],"categories_sizes":[],"default_left":[1,1,1,0,1,1,1,1,0,1,1,1,1,0,1,1,0,0,1,0,1,1,1,1,1,0,0,0,0,0,0,1,1,0,0],"id":27,"left_children":[1,3,5,-1,7,9,11,13,-1,15,17,19,21,-1,-1,25,-1,-1,27,-1,29,-1,33,-1,-1,-1,-1,-1,-1,-1,-1,-1,-1,-1,-1],"loss_changes":[1.3630908E2,1.8024025E1,7.332143E1,0E0,2.7554398E0,1.5471077E1,2.5861607E1,2.1632767E0,0E0,1.6670988E1,6.2043533E0,4.5926285E-1,1.2379077E1,0E0,9.752431E-1,1.6327295E0,0E0,0E0,8.872124E0,0E0,1.3398933E0,1.6623259E-1,1.1258316E1,0E0,0E0,0E0,0E0,0E0,0E0,0E0,0E0,0E0,0E0,0E0,0E0],"parents":[2147483647,0,0,1,1,2,2,4,4,5,5,6,6,7,7,9,9,10,10,11,11,12,12,14,14,15,15,18,18,20,20,21,21,22,22],"right_children":[2,4,6,-1,8,10,12,14,-1,16,18,20,22,-1,-1,26,-1,-1,28,-1,30,-1,34,-1,-1,-1,-1,-1,-1,-1,-1,-1,-1,-1,-1],"split_conditions":[1.7345883E-1,5.108055E-1,5.6814843E-1,1.9541683E-2,7E0,5.2033377E-1,5.328653E-1,1.3513654E-1,-5.3682225E-3,2.57895E4,5.48202E-1,7.9648054E-1,3.659E3,-2.7232608E-2,-1.3566456E-2,5.1366246E-1,2.5389234E-2,2.9536907E-2,3.110652E-1,-2.5333097E-2,4.2605E3,-1.856301E-2,8.598841E-1,-1.8877186E-2,-4.145352E-3,-2.4647314E-2,-6.6081095E-3,6.845667E-3,2.4331095E-2,-3.8047656E-3,-2.1441657E-2,-9.7429715E-3,-2.2009535E-2,1.1165745E-2,-2.1392126E-2],"split_indices":[8,7,7,0,5,7,8,8,0,4,7,7,4,0,4,7,0,0,8,0,4,7,7,2147483647,2147483647,0,0,0,0,0,0,2147483647,2147483647,0,0],"split_type":[0,0,0,0,0,0,0,0,0,0,0,0,0,0,0,0,0,0,0,0,0,0,0,0,0,0,0,0,0,0,0,0,0,0,0],"sum_hessian":[2.4825394E2,7.7202225E1,1.7105171E2,3.112261E0,7.4089966E1,1.0100246E2,7.0049255E1,7.073639E1,3.3535779E0,1.4573442E1,8.642901E1,2.4744637E1,4.5304623E1,6.2375565E1,8.360824E0,9.0299425E0,5.5435E0,3.5751842E1,5.0677166E1,1.7471035E1,7.2736015E0,8.2416315E0,3.7062992E1,4.70492E0,3.6559033E0,3.6596854E0,5.3702574E0,1.9933931E1,3.0743237E1,3.5231974E0,3.7504041E0,3.3908842E0,4.8507476E0,3.3147778E1,3.9152122E0],"tree_param":{"num_deleted":"4","num_feature":"10","num_nodes":"35","size_leaf_vector":"0"}},{"base_weights":[-1.085198E-1,-1.2882459E0,1.2238095E0,-1.4387708E0,-6.339725E-1,-2.3365703E-1,1.3285083E0,-8.7489504E-1,5.6539387E-1,-9.2335236E-1,4.5708168E-1,1.4051296E0,8.0362886E-1,-5.2024955E-1,-1.2752826E0,-5.934823E-1,1.2624999E0,7.733421E-1,-1.2049234E0],"categories":[],"categories_nodes":[],"categories_segments":[],"categories_sizes":[],"default_left":[1,1,1,0,1,1,1,1,0,0,0,0,1,1,0,0,0,0,0],"id":28,"left_children":[1,3,5,-1,7,9,11,13,-1,-1,-1,-1,15,17,-1,-1,-1,-1,-1],"loss_changes":[3.866565E2,1.1932846E1,1.7945648E1,0E0,8.060048E0,4.5171995E0,3.2131653E0,2.488123E0,0E0,0E0,0E0,0E0,1.1064486E1,1.2852156E1,0E0,0E0,0E0,0E0,0E0],"parents":[2147483647,0,0,1,1,2,2,4,4,5,5,6,6,7,7,12,12,13,13],"right_children":[2,4,6,-1,8,10,12,14,-1,-1,-1,-1,16,18,-1,-1,-1,-1,-1],"split_conditions":[8.922841E1,8.636253E1,3.778E3,-2.8775414E-2,7.9050386E-1,9.2028534E1,1.59705E4,1.6166E4,1.13078775E-2,-1.8467046E-2,9.141633E-3,2.810259E-2,9.250132E1,5.5579495E-1,-2.5505653E-2,-1.1869646E-2,2.5249997E-2,1.5466841E-2,-2.4098467E-2],"split_indices":[0,0,4,0,7,0,4,4,0,0,0,0,0,7,0,0,0,0,0],"split_type":[0,0,0,0,0,0,0,0,0,0,0,0,0,0,0,0,0,0,0],"sum_hessian":[2.4399551E2,1.2942647E2,1.14569046E2,1.0424451E2,2.5181953E1,7.5960507E0,1.06973E2,2.1194958E1,3.9869971E0,3.6323884E0,3.9636621E0,9.188297E1,1.509002E1,1.2458838E1,8.736118E0,3.658312E0,1.1431708E1,4.267159E0,8.19168E0],"tree_param":{"num_deleted":"0","num_feature":"10","num_nodes":"19","size_leaf_vector":"0"}},{"base_weights":[-1.5436141E-1,-8.41319E-1,6.6613907E-1,-2.6772332E-1,-1.1224736E0,-3.5690024E-1,7.933704E-1,-8.2702297E-1,2.0488368E-1,-1.2178333E0,-1.2774572E-1,6.733689E-1,-8.722856E-1,9.6430594E-1,2.428541E-1,-1.1689487E0,-4.228765E-1,-3.5457676E-3,8.2113963E-1,-7.051843E-1,-1.2656431E0,-6.1651736E-1,5.250429E-1,-1.2645615E0,-4.021101E-2,6.3573664E-1,1.2265593E0,5.167994E-1,-2.8503308E-1,1.2668791E-1,-7.012394E-1,-5.533124E-1,1.5831754E-1,-9.2496055E-1,-2.1948422E-1,-1.2879016E0,-5.727195E-1,8.3290213E-1,-3.949071E-1,8.684893E-1,1.3215024E0,-1.877805E-1,7.039139E-1,-1.2214837E0,6.020724E-1],"categories":[],"categories_nodes":[],"categories_segments":[],"categories_sizes":[],"default_left":[1,1,1,1,1,1,1,1,1,1,1,0,1,1,1,0,1,1,0,1,1,0,0,0,0,1,1,1,1,0,0,0,0,1,1,1,1,0,0,1,1,0,0,0,0],"id":29,"left_children":[1,3,5,7,9,11,13,15,17,19,21,-1,23,25,27,-1,29,31,-1,-1,-1,-1,-1,-1,-1,37,-1,41,43,-1,-1,-1,-1,-1,-1,-1,-1,-1,-1,-1,-1,-1,-1,-1,-1],"loss_changes":[1.4026152E2,2.1526588E1,1.5057316E1,1.228437E1,8.430214E0,7.620033E0,9.294743E0,2.4338388E0,3.2966604E0,1.1289825E0,3.2064989E0,0E0,2.9729204E0,5.8493576E0,3.810131E0,0E0,1.814137E0,1.8813823E0,0E0,7.8907585E-1,4.065628E-1,0E0,0E0,0E0,0E0,7.690015E0,2.70195E-1,2.3774462E0,8.45957E0,0E0,0E0,0E0,0E0,0E0,0E0,0E0,0E0,0E0,0E0,0E0,0E0,0E0,0E0,0E0,0E0],"parents":[2147483647,0,0,1,1,2,2,3,3,4,4,5,5,6,6,7,7,8,8,9,9,10,10,12,12,13,13,14,14,16,16,17,17,19,19,20,20,25,25,26,26,27,27,28,28],"right_children":[2,4,6,8,10,12,14,16,18,20,22,-1,24,26,28,-1,30,32,-1,-1,-1,-1,-1,-1,-1,38,-1,42,44,-1,-1,-1,-1,-1,-1,-1,-1,-1,-1,-1,-1,-1,-1,-1,-1],"split_conditions":[1.864E3,5.75E0,3.693745E-1,3.5647973E-1,7.215778E-1,1.375E1,5.678484E-1,5.801084E2,1.3164167E3,8.75E0,6.65E1,1.3467377E-2,2.7878572E3,5.2053976E-1,3.5575E3,-2.3378972E-2,7.654722E2,4.044773E2,1.6422791E-2,-1.41036855E-2,-2.5312861E-2,-1.2330347E-2,1.0500858E-2,-2.529123E-2,-8.042202E-4,5.0876665E-1,2.4531186E-2,6.7455435E-1,4.062E3,2.5337583E-3,-1.4024788E-2,-1.1066248E-2,3.1663505E-3,-1.849921E-2,-4.389684E-3,-2.5758032E-2,-1.145439E-2,1.6658042E-2,-7.898142E-3,1.7369786E-2,2.6430048E-2,-3.75561E-3,1.4078278E-2,-2.4429673E-2,1.2041448E-2],"split_indices":[2,3,6,6,6,3,6,2,2,3,3,0,2,6,2,0,2,2,0,6,6,0,0,0,0,6,5,6,2,0,0,0,0,2147483647,2147483647,2147483647,2147483647,0,0,2147483647,2147483647,0,0,0,0],"split_type":[0,0,0,0,0,0,0,0,0,0,0,0,0,0,0,0,0,0,0,0,0,0,0,0,0,0,0,0,0,0,0,0,0,0,0,0,0,0,0,0,0,0,0,0,0],"sum_hessian":[2.4685117E2,1.3434581E2,1.12505356E2,4.4832764E1,8.951305E1,1.2244547E1,1.0026081E2,2.0189676E1,2.4643087E1,8.147788E1,8.035164E0,3.9806287E0,8.263918E0,7.59322E1,2.4328615E1,9.911621E0,1.0278055E1,1.9157803E1,5.4852853E0,8.29399E0,7.318389E1,4.626593E0,3.4085708E0,5.2629604E0,3.000957E0,3.522455E1,4.070765E1,1.6030596E1,8.298018E0,3.6388516E0,6.639204E0,3.807451E0,1.5350351E1,5.0875287E0,3.206462E0,7.0074265E1,3.1096225E0,2.972913E1,5.495417E0,1.0658289E1,3.004936E1,3.3631382E0,1.2667458E1,3.8533719E0,4.444647E0],"tree_param":{"num_deleted":"6","num_feature":"10","num_nodes":"45","size_leaf_vector":"0"}},{"base_weights":[-1.6140002E-1,-1.3112062E0,1.1510146E0,-1.4180934E0,-5.498473E-1,6.845593E-1,1.3864435E0,8.4157896E-1,-9.6982676E-1,7.6219016E-1,-1.7775948E-1,1.4235343E0,8.9813185E-1,9.814666E-1,2.8704974E-1,1.2938324E0,1.9231375E-1,3.4473646E-1,1.08423E0,-1.8759423E-1,7.138147E-1],"categories":[],"categories_nodes":[],"categories_segments":[],"categories_sizes":[],"default_left":[1,1,1,0,1,1,1,0,0,1,0,0,1,1,1,0,0,0,0,0,0],"id":30,"left_children":[1,3,5,-1,7,9,11,-1,-1,13,-1,-1,15,17,19,-1,-1,-1,-1,-1,-1],"loss_changes":[3.7145578E2,9.892471E0,1.1681564E1,0E0,1.1204927E1,2.850298E0,8.824158E-2,0E0,0E0,3.6142445E0,0E0,0E0,1.9957414E0,1.2733421E0,2.8120317E0,0E0,0E0,0E0,0E0,0E0,0E0],"parents":[2147483647,0,0,1,1,2,2,4,4,5,5,6,6,9,9,12,12,13,13,14,14],"right_children":[2,4,6,-1,8,10,12,-1,-1,14,-1,-1,16,18,20,-1,-1,-1,-1,-1,-1],"split_conditions":[8.928225E1,8.7557205E1,9.268802E1,-2.8361868E-2,8.373E2,6.22525E3,7.3111653E-1,1.6831579E-2,-1.9396534E-2,5.4155594E-1,-3.5551896E-3,2.8470686E-2,2.26675E3,9.0057976E1,9.159619E1,2.5876649E-2,3.846275E-3,6.894729E-3,2.1684598E-2,-3.7518847E-3,1.4276293E-2],"split_indices":[0,0,0,0,2,2,8,0,0,8,0,0,2,0,0,0,0,0,0,0,0],"split_type":[0,0,0,0,0,0,0,0,0,0,0,0,0,0,0,0,0,0,0,0,0],"sum_hessian":[2.4415646E2,1.3014095E2,1.14015526E2,1.1336327E2,1.6777664E1,3.95543E1,7.446123E1,3.657201E0,1.3120463E1,3.6394012E1,3.1602836E0,6.742463E1,7.036598E0,2.4172718E1,1.2221295E1,3.9750066E0,3.0615916E0,3.9642963E0,2.0208422E1,6.051406E0,6.1698895E0],"tree_param":{"num_deleted":"0","num_feature":"10","num_nodes":"21","size_leaf_vector":"0"}},{"base_weights":[-6.329796E-2,-1.1213715E0,4.2945987E-1,-1.1916564E0,3.5548908E-1,-1.7631476E-1,8.1267434E-1,-4.315598E-1,-1.2365409E0,3.713869E-1,-4.8313874E-1,9.5926416E-1,2.0369226E-1,-1.6464572E-1,9.189657E-1,-9.175132E-1,-9.039861E-2,6.2619543E-1,1.1591108E0,6.785899E-1,-4.0798807E-1,1.4141677E-1,-6.356219E-1,1.0564629E0,3.8782132E-1,-1.2386192E0,1.3995512E-1,1.0815639E-1,-8.521852E-1,8.417319E-1,-1.7561482E-2,5.600236E-1,1.2239369E0,-3.4727797E-2,9.8674965E-1,-1.3450613E0,5.8155453E-1],"categories":[],"categories_nodes":[],"categories_segments":[],"categories_sizes":[],"default_left":[1,1,1,1,0,1,1,0,0,1,1,1,1,1,1,1,1,1,1,1,1,0,0,1,1,0,0,0,0,0,0,0,0,0,0,0,0],"id":31,"left_children":[1,3,5,7,-1,9,11,-1,-1,13,15,17,19,21,-1,25,27,29,31,33,35,-1,-1,-1,-1,-1,-1,-1,-1,-1,-1,-1,-1,-1,-1,-1,-1],"loss_changes":[1.2525577E2,8.345428E0,3.8214672E1,1.9596024E0,0E0,1.09964905E1,8.788055E0,0E0,0E0,7.101133E0,7.0294476E0,4.654999E0,6.31702E0,1.9368532E0,4.5676136E-1,6.85828E0,3.5717154E0,4.522868E0,1.2310867E0,2.6898465E0,9.788296E0,0E0,0E0,0E0,0E0,0E0,0E0,0E0,0E0,0E0,0E0,0E0,0E0,0E0,0E0,0E0,0E0],"parents":[2147483647,0,0,1,1,2,2,3,3,5,5,6,6,9,9,10,10,11,11,12,12,13,13,14,14,15,15,16,16,17,17,18,18,19,19,20,20],"right_children":[2,4,6,8,-1,10,12,-1,-1,14,16,18,20,22,-1,26,28,30,32,34,36,-1,-1,-1,-1,-1,-1,-1,-1,-1,-1,-1,-1,-1,-1,-1,-1],"split_conditions":[1.7345883E-1,2.6794727E3,1.8628333E3,1.7522906E-1,7.1097813E-3,4.7176725E-1,6.965257E-1,-8.631196E-3,-2.4730818E-2,9.293782E2,5.003439E-1,5.25031E-1,2.754E3,3.7464455E-1,1.8379314E-2,1.366625E3,1.4751666E3,3.2E1,2.917625E3,1.13E2,3.8975E3,2.8283354E-3,-1.2712438E-2,2.1129258E-2,7.756426E-3,-2.4772383E-2,2.7991023E-3,2.1631278E-3,-1.7043704E-2,1.6834637E-2,-3.5122962E-4,1.1200472E-2,2.4478737E-2,-6.945559E-4,1.9734992E-2,-2.6901225E-2,1.163109E-2],"split_indices":[8,2,2,9,0,9,9,0,0,2,8,9,2,9,2,2,2,5,2,5,2,0,0,2147483647,2147483647,0,0,0,0,0,0,0,0,0,0,0,0],"split_type":[0,0,0,0,0,0,0,0,0,0,0,0,0,0,0,0,0,0,0,0,0,0,0,0,0,0,0,0,0,0,0,0,0,0,0,0,0],"sum_hessian":[2.38318E2,7.531731E1,1.6300069E2,7.208008E1,3.2372313E0,6.336887E1,9.963181E1,4.6109486E0,6.746913E1,2.2677526E1,4.0691345E1,7.983848E1,1.9793337E1,1.1812967E1,1.0864559E1,1.8687075E1,2.200427E1,3.1489979E1,4.8348495E1,1.1080922E1,8.712415E0,7.58416E0,4.228807E0,7.844757E0,3.0198016E0,1.4202962E1,4.4841123E0,1.813541E1,3.8688605E0,2.3360956E1,8.129022E0,5.662027E0,4.268647E1,3.6105807E0,7.4703417E0,4.2903137E0,4.4221005E0],"tree_param":{"num_deleted":"2","num_feature":"10","num_nodes":"37","size_leaf_vector":"0"}},{"base_weights":[-1.2913465E-1,-1.2604873E0,1.1532599E0,-1.3721644E0,-3.934604E-1,8.387343E-1,1.3089501E0,7.4287736E-1,-1.048951E0,9.362675E-1,-2.1343967E-1,-5.7547307E-1,-1.3308114E0,6.0774255E-1,1.100514E0,1.0629456E0,-6.770399E-1,1.1774981E0,4.5572308E-1],"categories":[],"categories_nodes":[],"categories_segments":[],"categories_sizes":[],"default_left":[1,1,1,0,1,1,0,0,1,1,0,1,1,1,1,0,0,1,1],"id":32,"left_children":[1,3,5,-1,7,9,-1,-1,-1,13,-1,-1,-1,15,-1,-1,-1,-1,-1],"loss_changes":[3.432447E2,1.1625366E1,4.3348236E0,0E0,1.2502091E1,4.2551517E0,0E0,0E0,6.2148285E-1,1.2926044E0,0E0,0E0,0E0,9.111669E0,6.051254E-1,0E0,0E0,0E0,0E0],"parents":[2147483647,0,0,1,1,2,2,4,4,5,5,8,8,9,9,13,13,14,14],"right_children":[2,4,6,-1,8,10,-1,-1,-1,14,-1,-1,-1,16,-1,-1,-1,-1,-1],"split_conditions":[8.9288E1,8.772843E1,9.268965E1,-2.7443286E-2,1.179625E3,2.068E3,2.6179E-2,1.4857547E-2,-2.097902E-2,1.87375E3,-4.2687934E-3,-1.1509461E-2,-2.6616227E-2,1.1E2,2.201028E-2,2.1258911E-2,-1.3540798E-2,2.354996E-2,9.114461E-3],"split_indices":[0,0,0,0,2,5,0,0,0,2,0,2147483647,2147483647,3,2,0,0,2147483647,2147483647],"split_type":[0,0,0,0,0,0,0,0,0,0,0,0,0,0,0,0,0,0,0],"sum_hessian":[2.3458138E2,1.24639305E2,1.0994207E2,1.09900955E2,1.4738354E1,3.851706E1,7.142501E1,5.3428473E0,9.395506E0,3.5350353E1,3.166706E0,4.6410394E0,4.754467E0,1.33493185E1,2.2001034E1,9.984455E0,3.3648639E0,1.8916367E1,3.0846672E0],"tree_param":{"num_deleted":"4","num_feature":"10","num_nodes":"19","size_leaf_vector":"0"}},{"base_weights":[-1.409271E-1,-1.2172091E0,1.1438783E0,-1.3726096E0,-5.714597E-1,-5.665698E-2,1.2644572E0,1.5827065E-2,-1.1572798E0,8.322542E-1,-5.4891723E-1,1.3440437E0,6.736622E-1,5.686177E-1,-1.4001517E0,-1.0275962E0,1.775115E-2,1.1029094E0,1.4268615E0,-1.3897204E-1,1.3046855E0,6.1517816E-2,1.3166704E0,1.2277433E0,2.0224647E-1],"categories":[],"categories_nodes":[],"categories_segments":[],"categories_sizes":[],"default_left":[1,1,1,0,1,1,1,1,0,0,1,1,1,1,0,0,0,1,0,0,0,0,0,0,0],"id":33,"left_children":[1,3,5,-1,7,9,11,13,-1,-1,15,17,19,21,-1,-1,-1,23,-1,-1,-1,-1,-1,-1,-1],"loss_changes":[3.253546E2,1.2057251E1,1.5605621E1,0E0,9.147744E0,5.1613355E0,3.681656E0,1.1940584E1,0E0,0E0,2.0586028E0,1.2319946E-1,7.148497E0,4.0732164E0,0E0,0E0,0E0,2.6892643E0,0E0,0E0,0E0,0E0,0E0,0E0,0E0],"parents":[2147483647,0,0,1,1,2,2,4,4,5,5,6,6,7,7,10,10,11,11,12,12,13,13,17,17],"right_children":[2,4,6,-1,8,10,12,14,-1,-1,16,18,20,22,-1,-1,-1,24,-1,-1,-1,-1,-1,-1,-1],"split_conditions":[8.973972E1,8.649521E1,3.8715E3,-2.7452191E-2,1.1374E4,9E0,1.601E4,1.725E2,-2.3145596E-2,1.6645083E-2,9.275552E1,9.2512955E1,2.5824E4,7.48E3,-2.8003033E-2,-2.0551924E-2,3.55023E-4,9.3E2,2.853723E-2,-2.7794407E-3,2.6093708E-2,1.2303563E-3,2.6333408E-2,2.4554865E-2,4.0449295E-3],"split_indices":[0,0,4,0,4,5,4,5,0,0,0,0,4,4,0,0,0,5,0,0,0,0,0,0,0],"split_type":[0,0,0,0,0,0,0,0,0,0,0,0,0,0,0,0,0,0,0,0,0,0,0,0,0],"sum_hessian":[2.3327773E2,1.2696865E2,1.06309074E2,1.01433044E2,2.5535604E1,9.751276E0,9.65578E1,1.3237723E1,1.2297881E1,3.2292676E0,6.5220084E0,8.3971016E1,1.2586785E1,9.95124E0,3.2864838E0,3.0945585E0,3.4274502E0,2.5127247E1,5.8843765E1,5.8425255E0,6.7442603E0,6.5757923E0,3.3754475E0,2.1749554E1,3.377693E0],"tree_param":{"num_deleted":"0","num_feature":"10","num_nodes":"25","size_leaf_vector":"0"}},{"base_weights":[-1.0387254E-1,-1.1444784E0,1.1293397E0,-1.3495097E0,-3.2053393E-1,-1.5053498E-2,1.2467902E0,-1.3873528E0,-9.6262264E-1,8.127875E-2,-1.0995442E0,6.025209E-1,-1.0876575E0,2.6746675E-1,1.2905616E0,-1.1562452E0,-3.0559957E-1,8.102805E-1,-4.347431E-1,2.862739E-1,7.933896E-1,7.810415E-1,1.3617667E0,1.1102728E0,3.550607E-1,5.159805E-1,-8.442263E-1,1.5773396E0,-9.194429E-2,1.3859258E0,6.8876666E-1],"categories":[],"categories_nodes":[],"categories_segments":[],"categories_sizes":[],"default_left":[1,1,1,1,1,1,1,0,1,1,0,1,0,0,1,0,0,1,1,1,1,1,1,1,1,0,0,0,0,1,1],"id":34,"left_children":[1,3,5,7,9,11,13,-1,15,17,-1,-1,-1,-1,21,-1,-1,-1,25,-1,-1,27,-1,-1,-1,-1,-1,-1,-1,-1,-1],"loss_changes":[3.0172266E2,2.1100967E1,1.4486984E1,1.5431213E-1,8.450109E0,7.946716E0,3.8401031E0,0E0,1.2155714E0,7.3313217E0,0E0,2.3336387E-1,0E0,0E0,2.317627E0,0E0,0E0,7.035494E-1,4.918006E0,0E0,0E0,9.718889E0,3.5305786E-1,0E0,0E0,0E0,0E0,0E0,0E0,0E0,0E0],"parents":[2147483647,0,0,1,1,2,2,3,3,4,4,5,5,6,6,8,8,9,9,11,11,14,14,17,17,18,18,21,21,22,22],"right_children":[2,4,6,8,10,12,14,-1,16,18,-1,-1,-1,-1,22,-1,-1,-1,26,-1,-1,28,-1,-1,-1,-1,-1,-1,-1,-1,-1],"split_conditions":[8.92928E1,8.641626E1,3.8675E3,8.513701E1,1.6166E4,2.876E3,9.0076416E1,-2.7747056E-2,5.35E1,9E1,-2.1990882E-2,1.2050417E-2,-2.175315E-2,5.349335E-3,5.2033377E-1,-2.3124903E-2,-6.111991E-3,1.6205609E-2,5.492207E-1,5.725478E-3,1.5867792E-2,1.9E1,2.7235333E-2,2.2205455E-2,7.1012136E-3,1.0319609E-2,-1.6884526E-2,3.1546794E-2,-1.8388858E-3,2.7718514E-2,1.3775333E-2],"split_indices":[0,0,4,0,4,3,0,0,3,3,0,4,0,0,7,0,0,0,7,2147483647,2147483647,3,7,2147483647,2147483647,0,0,0,0,2147483647,2147483647],"split_type":[0,0,0,0,0,0,0,0,0,0,0,0,0,0,0,0,0,0,0,0,0,0,0,0,0,0,0,0,0,0,0],"sum_hessian":[2.3310973E2,1.264668E2,1.0664292E2,1.0075655E2,2.5710243E1,1.0007305E1,9.663562E1,8.942369E1,1.1332861E1,1.7552399E1,8.157845E0,6.6288614E0,3.3784437E0,4.438603E0,9.2197014E1,8.166419E0,3.166442E0,7.0385513E0,1.0513847E1,3.4358723E0,3.1929893E0,1.2772228E1,7.942479E1,3.3752577E0,3.6632938E0,3.0868442E0,7.4270034E0,6.2575455E0,6.5146832E0,7.5649826E1,3.7749608E0],"tree_param":{"num_deleted":"6","num_feature":"10","num_nodes":"31","size_leaf_vector":"0"}},{"base_weights":[-1.0745619E-1,-6.590779E-1,6.790249E-1,1.6014098E-1,-8.598144E-1,8.4730434E-1,6.7333244E-2,-3.6029062E-1,1.0485584E0,-5.479593E-1,-1.1751548E0,1.4057888E-1,1.1071597E0,-5.4460037E-1,1.2569524E0,3.316692E-2,-9.7660226E-1,-6.863819E-1,7.447392E-2,-8.938568E-1,-1.2647694E0,6.344373E-1,-4.036065E-1,1.2104199E0,7.176287E-1,-8.075296E-1,2.86259E-1,4.0479365E-1,-1.7916028E-1,-1.3142921E-1,-7.836388E-1,-2.568144E-1,6.846154E-1,-1.194405E0,-3.1093806E-1,-2.4693426E-1,1.0294753E0,-1.0384164E0,2.3486063E-1,3.311408E-1,9.647899E-1,1.9005531E-1,-1.2159972E0],"categories":[],"categories_nodes":[],"categories_segments":[],"categories_sizes":[],"default_left":[1,1,1,1,1,1,1,1,0,1,1,1,1,1,0,1,0,1,1,1,0,1,1,0,1,1,0,0,0,0,0,0,0,0,0,0,0,0,0,1,1,0,0],"id":35,"left_children":[1,3,5,7,9,11,13,15,-1,17,19,21,23,25,-1,27,-1,29,31,33,-1,35,37,-1,-1,41,-1,-1,-1,-1,-1,-1,-1,-1,-1,-1,-1,-1,-1,-1,-1,-1,-1],"loss_changes":[9.8844505E1,2.2142994E1,9.617916E0,1.2944177E1,9.940956E0,1.336549E1,1.6237535E1,4.368919E0,0E0,4.8751698E0,1.9656372E-1,5.883436E0,1.2908173E0,3.4655566E0,0E0,1.0100987E0,0E0,2.3744678E0,2.4171534E0,2.4543667E0,0E0,4.211542E0,4.5292196E0,0E0,9.8977184E-1,4.9205213E0,0E0,0E0,0E0,0E0,0E0,0E0,0E0,0E0,0E0,0E0,0E0,0E0,0E0,0E0,0E0,0E0,0E0],"parents":[2147483647,0,0,1,1,2,2,3,3,4,4,5,5,6,6,7,7,9,9,10,10,11,11,12,12,13,13,15,15,17,17,18,18,19,19,21,21,22,22,24,24,25,25],"right_children":[2,4,6,8,10,12,14,16,-1,18,20,22,24,26,-1,28,-1,30,32,34,-1,36,38,-1,-1,42,-1,-1,-1,-1,-1,-1,-1,-1,-1,-1,-1,-1,-1,-1,-1,-1,-1],"split_conditions":[1.974375E3,2.25E0,1.4512E4,8.596947E2,1.1133E4,4.73E3,2.5636E4,1.2839E4,2.0971166E-2,9.1805E3,1.5368E4,2.281E3,1.1763E4,8.755E2,2.5139047E-2,4.3085E3,-1.9532045E-2,8.25E0,1.2499333E3,1.0397666E3,-2.5295388E-2,1.11E2,3.8975E3,2.4208397E-2,1.4352574E-2,2.2E1,5.72518E-3,8.095873E-3,-3.5832056E-3,-2.6285842E-3,-1.5672775E-2,-5.136288E-3,1.3692307E-2,-2.3888098E-2,-6.218761E-3,-4.9386853E-3,2.0589506E-2,-2.0768328E-2,4.6972125E-3,6.6228155E-3,1.9295799E-2,3.8011062E-3,-2.4319943E-2],"split_indices":[2,3,4,2,4,4,4,4,0,4,4,2,4,5,0,4,0,3,2,2,0,5,2,0,2,3,0,0,0,0,0,0,0,0,0,0,0,0,0,2147483647,2147483647,0,0],"split_type":[0,0,0,0,0,0,0,0,0,0,0,0,0,0,0,0,0,0,0,0,0,0,0,0,0,0,0,0,0,0,0,0,0,0,0,0,0,0,0,0,0,0,0],"sum_hessian":[2.2580473E2,1.3281383E2,9.2990906E1,2.6178774E1,1.06635056E2,7.262595E1,2.0364948E1,1.6883146E1,9.295627E0,5.4990253E1,5.16448E1,1.9939022E1,5.268693E1,1.3805619E1,6.559329E0,1.0882114E1,6.0010314E0,4.4901825E1,1.0088429E1,1.5129168E1,3.6515633E1,1.0365913E1,9.573109E0,3.9981037E1,1.2705897E1,1.0508299E1,3.29732E0,3.6271741E0,7.254941E0,7.046353E0,3.7855473E1,6.913629E0,3.1748006E0,9.290206E0,5.838962E0,3.324194E0,7.0417194E0,4.4861927E0,5.086916E0,5.868716E0,6.8371816E0,3.2080677E0,7.3002315E0],"tree_param":{"num_deleted":"2","num_feature":"10","num_nodes":"43","size_leaf_vector":"0"}},{"base_weights":[-1.08970046E-1,3.5629472E-1,-8.490375E-1,6.004432E-2,9.695754E-1,-5.191781E-1,-1.1216456E0,7.0404965E-1,-1.5153477E-1,1.8777487E-1,1.1113207E0,-1.3098231E-1,-1.002565E0,-1.1769059E0,-3.9927053E-1,1.1488787E0,-2.7613056E-1,1.5556374E-1,-7.660271E-1,7.9707503E-1,-5.454309E-1,6.68258E-1,1.2082626E0,3.4728736E-1,-4.7662047E-1,-1.1078613E0,-5.667196E-1,-6.191847E-1,8.943182E-2,7.0550543E-1,-1.8918379E-1,-8.7693346E-1,-1.4851199E-1,9.255479E-1,2.2710803E-1,5.9276175E-1,1.2551485E0,6.475127E-1,1.69453E-2,7.358424E-2,-7.28547E-1],"categories":[],"categories_nodes":[],"categories_segments":[],"categories_sizes":[],"default_left":[1,1,1,1,1,1,1,1,1,1,1,1,1,0,0,0,1,1,1,0,0,1,1,1,1,1,1,0,0,0,0,0,0,1,1,1,1,0,0,0,0],"id":36,"left_children":[1,3,5,7,9,11,13,15,17,19,-1,23,-1,-1,-1,-1,27,29,31,-1,-1,-1,-1,37,39,-1,-1,-1,-1,-1,-1,-1,-1,-1,-1,-1,-1,-1,-1,-1,-1],"loss_changes":[7.882254E1,2.5508278E1,7.3595924E0,1.3180703E1,4.863243E0,7.7171364E0,1.4260178E0,1.0740065E1,1.39035635E1,4.110487E0,8.4795E-1,4.1902676E0,2.201786E-1,0E0,0E0,0E0,1.0922878E0,9.525056E0,1.5483303E0,0E0,0E0,8.290796E-1,1.3284302E-1,1.0593736E0,2.0710442E0,0E0,0E0,0E0,0E0,0E0,0E0,0E0,0E0,0E0,0E0,0E0,0E0,0E0,0E0,0E0,0E0],"parents":[2147483647,0,0,1,1,2,2,3,3,4,4,5,5,6,6,7,7,8,8,9,9,10,10,11,11,12,12,16,16,17,17,18,18,21,21,22,22,23,23,24,24],"right_children":[2,4,6,8,10,12,14,16,18,20,-1,24,-1,-1,-1,-1,28,30,32,-1,-1,-1,-1,38,40,-1,-1,-1,-1,-1,-1,-1,-1,-1,-1,-1,-1,-1,-1,-1,-1],"split_conditions":[9.5E0,4.062E3,1.075E1,8.25E0,5.1816595E-1,2.35E1,3.5E0,5.9474313E-1,4.5E0,5.070591E-1,2.2226414E-2,2.25E0,-2.00513E-2,-2.3538116E-2,-7.98541E-3,2.2977574E-2,3.5E0,3.5E0,6.941321E-1,1.59415E-2,-1.0908618E-2,1.336516E-2,2.416525E-2,3.7468264E-1,1.35E1,-2.2157226E-2,-1.1334391E-2,-1.2383693E-2,1.7886364E-3,1.4110108E-2,-3.7836756E-3,-1.7538669E-2,-2.9702398E-3,1.8510958E-2,4.5421603E-3,1.1855234E-2,2.510297E-2,1.2950253E-2,3.3890601E-4,1.4716849E-3,-1.4570939E-2],"split_indices":[1,3,3,3,9,1,5,9,1,9,3,3,9,0,0,0,3,5,9,0,0,2147483647,2147483647,9,1,2147483647,2147483647,0,0,0,0,0,0,2147483647,2147483647,2147483647,2147483647,0,0,0,0],"split_type":[0,0,0,0,0,0,0,0,0,0,0,0,0,0,0,0,0,0,0,0,0,0,0,0,0,0,0,0,0,0,0,0,0,0,0,0,0,0,0,0,0],"sum_hessian":[2.2703893E2,1.3971907E2,8.7319855E1,9.495039E1,4.4768677E1,4.0825245E1,4.6494614E1,2.2904865E1,7.2045525E1,7.227868E0,3.754081E1,2.3346903E1,1.747834E1,4.2606106E1,3.888507E0,1.5636529E1,7.2683377E0,4.853602E1,2.3509506E1,3.899905E0,3.3279634E0,8.156367E0,2.9384441E1,9.7922735E0,1.3554629E1,1.2835525E1,4.642816E0,3.3916912E0,3.8766463E0,1.8298996E1,3.0237024E1,1.957391E1,3.9355955E0,4.4581976E0,3.6981692E0,3.0456038E0,2.6338837E1,4.6269903E0,5.1652837E0,4.479458E0,9.0751705E0],"tree_param":{"num_deleted":"8","num_feature":"10","num_nodes":"41","size_leaf_vector":"0"}},{"base_weights":[-1.387948E-1,-1.1489736E0,2.6597053E-1,-1.1753635E0,-4.6684942E-1,-3.7081254E-1,7.6051325E-1,-1.262451E0,-8.649683E-1,-1.0590776E0,-6.0492527E-2,9.186589E-1,-1.5907109E-1,-3.0321702E-1,-1.173866E0,-2.4325879E-1,-1.1844742E0,-5.6069106E-1,1.16731934E-1,1.0866121E0,1.2242501E-1,5.4877408E-2,-5.8530825E-1,-6.098142E-1,9.231658E-2,-9.70767E-1,2.441142E-1,-6.832955E-2,5.7043403E-1,1.1931618E0,8.509421E-1,-6.128754E-1,1.1895189E0,4.7481808E-1,-3.159472E-1],"categories":[],"categories_nodes":[],"categories_segments":[],"categories_sizes":[],"default_left":[1,1,1,1,0,1,1,0,1,1,1,1,1,1,0,0,0,1,1,1,1,1,0,1,1,0,0,0,0,1,1,0,0,0,0],"id":37,"left_children":[1,3,5,7,-1,9,11,-1,13,15,17,19,21,-1,-1,-1,-1,25,27,-1,31,33,-1,-1,-1,-1,-1,-1,-1,-1,-1,-1,-1,-1,-1],"loss_changes":[9.258665E1,6.168442E-1,5.1279457E1,5.7530975E-1,0E0,1.5198916E1,1.3449589E1,0E0,2.5401497E0,1.9775105E0,4.5257387E0,1.0324928E1,1.3339722E0,9.3788433E-1,0E0,0E0,0E0,4.638107E0,3.2278368E0,6.031418E-1,1.2301682E1,1.7725334E0,0E0,0E0,0E0,0E0,0E0,0E0,0E0,0E0,0E0,0E0,0E0,0E0,0E0],"parents":[2147483647,0,0,1,1,2,2,3,3,5,5,6,6,8,8,9,9,10,10,11,11,12,12,13,13,17,17,18,18,19,19,20,20,21,21],"right_children":[2,4,6,8,-1,10,12,-1,14,16,18,20,22,-1,-1,-1,-1,26,28,-1,32,34,-1,-1,-1,-1,-1,-1,-1,-1,-1,-1,-1,-1,-1],"split_conditions":[1.4254409E-1,1.92855E4,7.288E3,1.149901E-1,-9.336988E-3,4.9844158E-1,1.15E1,-2.5249021E-2,1.2266955E-1,3.2495E3,3.716E3,1.601E4,1.95E1,-6.0643405E-3,-2.347732E-2,-4.8651756E-3,-2.3689484E-2,3.5E0,7.4395514E-1,2.173224E-2,2.57895E4,2.1152923E-1,-1.1706165E-2,-1.2196285E-2,1.8463316E-3,-1.941534E-2,4.882284E-3,-1.366591E-3,1.140868E-2,2.3863235E-2,1.7018842E-2,-1.2257508E-2,2.3790378E-2,9.496361E-3,-6.318944E-3],"split_indices":[8,4,4,8,0,8,1,0,8,4,4,4,1,8,0,0,0,1,8,4,4,8,0,2147483647,2147483647,0,0,0,0,2147483647,2147483647,0,0,0,0],"split_type":[0,0,0,0,0,0,0,0,0,0,0,0,0,0,0,0,0,0,0,0,0,0,0,0,0,0,0,0,0,0,0,0,0,0,0],"sum_hessian":[2.246893E2,6.3749672E1,1.6093962E2,6.0679043E1,3.07063E0,7.04618E1,9.047782E1,4.498919E1,1.5689855E1,2.114687E1,4.9314926E1,7.7202E1,1.327582E1,6.269663E0,9.420192E0,3.2090433E0,1.7937826E1,1.233549E1,3.697944E1,6.3452904E1,1.3749101E1,9.419154E0,3.8566656E0,3.2267232E0,3.04294E0,8.035111E0,4.3003793E0,2.686913E1,1.0110308E1,4.0899044E1,2.255386E1,8.392059E0,5.3570414E0,4.2855453E0,5.1336083E0],"tree_param":{"num_deleted":"4","num_feature":"10","num_nodes":"35","size_leaf_vector":"0"}},{"base_weights":[-8.8402994E-2,-8.296869E-1,3.0926016E-1,1.3028008E0,-1.0934216E0,8.6461395E-1,-3.8474226E-1,-1.1568905E0,-5.142581E-3,1.1808317E0,6.106912E-1,-1.1967255E0,1.9031027E-2,1.4927766E-1,1.275907E0,2.3987983E-1,9.6366304E-1,1.927539E-1,-6.568591E-1,-1.2067704E-1,3.9864385E-1,5.4679644E-1,1.1533482E0,-2.3741876E-1,6.042139E-1,-1.1115985E0,-3.7394244E-2],"categories":[],"categories_nodes":[],"categories_segments":[],"categories_sizes":[],"default_left":[1,1,1,0,1,1,1,0,0,1,1,0,1,0,0,1,1,1,1,0,0,0,0,0,0,0,0],"id":38,"left_children":[1,3,5,-1,7,9,11,-1,-1,13,15,-1,17,-1,-1,19,21,23,25,-1,-1,-1,-1,-1,-1,-1,-1],"loss_changes":[6.7081955E1,4.6092293E1,5.7479477E1,0E0,4.913643E0,5.9169884E0,2.185841E1,0E0,0E0,3.3155594E0,6.04134E0,0E0,5.465127E0,0E0,0E0,1.462166E0,1.2845821E0,6.682253E0,2.6411428E0,0E0,0E0,0E0,0E0,0E0,0E0,0E0,0E0],"parents":[2147483647,0,0,1,1,2,2,4,4,5,5,6,6,9,9,10,10,12,12,15,15,16,16,17,17,18,18],"right_children":[2,4,6,-1,8,10,12,-1,-1,14,16,-1,18,-1,-1,20,22,24,26,-1,-1,-1,-1,-1,-1,-1,-1],"split_conditions":[5.179802E-1,5.079625E-1,5.664699E-1,2.6056014E-2,5.0519264E-1,5.464171E-1,5.974271E-1,-2.313781E-2,-1.0285162E-4,5.300054E-1,4.8454565E-1,-2.393451E-2,8.5150707E-1,2.9855531E-3,2.551814E-2,5.5688757E-1,5.583254E-1,7.965117E-1,8.075841E-1,-2.4135406E-3,7.972877E-3,1.0935929E-2,2.3066964E-2,-4.748375E-3,1.2084277E-2,-2.223197E-2,-7.4788486E-4],"split_indices":[7,7,7,0,9,7,6,0,0,7,6,0,7,0,0,7,7,7,9,0,0,0,0,0,0,0,0],"split_type":[0,0,0,0,0,0,0,0,0,0,0,0,0,0,0,0,0,0,0,0,0,0,0,0,0,0,0],"sum_hessian":[2.2569472E2,7.842195E1,1.4727277E2,8.197706E0,7.022424E1,8.16717E1,6.560107E1,6.629485E1,3.9293916E0,3.474827E1,4.692343E1,2.1134993E1,4.4466072E1,3.1492684E0,3.1598999E1,2.3702541E1,2.322089E1,3.594262E1,8.523455E0,7.3195543E0,1.6382988E1,8.476013E0,1.4744877E1,1.777853E1,1.816409E1,4.4571104E0,4.0663443E0],"tree_param":{"num_deleted":"0","num_feature":"10","num_nodes":"27","size_leaf_vector":"0"}},{"base_weights":[-1.2751898E-1,-1.1509264E0,1.1038454E0,-1.3404951E0,-3.664615E-1,1.2291955E0,6.588098E-1,-9.9408746E-2,-1.1219417E0,9.255534E-1,1.3347971E0,1.3963994E-1,1.2620245E0,-5.5682206E-1,2.5530437E-1,1.0558666E0,1.11909024E-1,-6.208495E-1,4.7089002E-1,4.144055E-2,-1.0087186E0,-9.3073465E-2,8.5668546E-1,4.7310206E-1,1.1388781E0,9.29502E-1,-4.1062275E-1],"categories":[],"categories_nodes":[],"categories_segments":[],"categories_sizes":[],"default_left":[1,1,1,0,1,1,1,1,0,1,0,1,0,1,1,1,0,0,1,0,0,0,0,1,1,0,0],"id":39,"left_children":[1,3,5,-1,7,9,11,13,-1,15,-1,17,-1,19,21,-1,-1,-1,25,-1,-1,-1,-1,-1,-1,-1,-1],"loss_changes":[2.875857E2,1.8033142E1,4.9714127E0,0E0,5.0573363E0,1.320282E0,7.6310844E0,3.3913767E0,0E0,2.408329E0,0E0,3.9508054E0,0E0,2.4914975E0,2.5864592E0,4.490509E-1,0E0,0E0,4.7013245E0,0E0,0E0,0E0,0E0,0E0,0E0,0E0,0E0],"parents":[2147483647,0,0,1,1,2,2,4,4,5,5,6,6,7,7,9,9,11,11,13,13,14,14,15,15,18,18],"right_children":[2,4,6,-1,8,10,12,14,-1,16,-1,18,-1,20,22,-1,-1,-1,26,-1,-1,-1,-1,-1,-1,-1,-1],"split_conditions":[8.975581E1,8.6471985E1,6.319388E-1,-2.6809901E-2,8.045E2,9.250023E1,7.6488125E-1,8.773289E1,-2.2438833E-2,9.214255E1,2.6695943E-2,9.19435E1,2.524049E-2,8.6793045E1,6.4037114E-1,2.1117331E-2,2.2381805E-3,-1.241699E-2,7.253207E-1,8.2881097E-4,-2.0174371E-2,-1.8614692E-3,1.7133709E-2,9.462041E-3,2.2777561E-2,1.859004E-2,-8.212455E-3],"split_indices":[0,0,6,0,3,0,6,0,0,0,0,0,0,0,6,6,0,0,6,0,0,0,0,2147483647,2147483647,0,0],"split_type":[0,0,0,0,0,0,0,0,0,0,0,0,0,0,0,0,0,0,0,0,0,0,0,0,0,0,0],"sum_hessian":[2.2620052E2,1.2356714E2,1.0263338E2,9.894736E1,2.4619776E1,7.87035E1,2.3929876E1,1.9025932E1,5.593844E0,2.2828402E1,5.58751E1,1.3522735E1,1.0407141E1,8.061108E0,1.0964825E1,1.9420341E1,3.4080603E0,3.8377354E0,9.684999E0,3.8596458E0,4.201462E0,7.4780517E0,3.4867735E0,3.2566886E0,1.6163652E1,6.334829E0,3.3501704E0],"tree_param":{"num_deleted":"2","num_feature":"10","num_nodes":"27","size_leaf_vector":"0"}},{"base_weights":[-5.7768434E-2,-8.373945E-1,3.4976038E-1,-1.1259596E0,1.2992136E0,8.9674884E-1,-3.3523282E-1,-1.1722711E0,-5.4641306E-1,3.5665402E-1,1.0373769E0,-1.1336069E0,1.1289799E-1,9.163865E-1,-2.340535E-1,1.2604214E0,8.535544E-1,-1.2802653E0,-5.4741216E-1,-2.320046E-1,4.3096977E-1,4.85644E-2,-4.8345053E-1,4.094921E-1,9.909865E-1,3.791983E-2,-7.250913E-1,8.863305E-1,-1.830372E-1],"categories":[],"categories_nodes":[],"categories_segments":[],"categories_sizes":[],"default_left":[1,1,1,1,0,1,1,0,0,1,1,1,1,0,1,0,1,0,0,1,1,1,1,0,0,0,0,0,0],"id":40,"left_children":[1,3,5,7,-1,9,11,-1,-1,13,15,17,19,-1,-1,-1,23,-1,-1,25,27,-1,-1,-1,-1,-1,-1,-1,-1],"loss_changes":[7.18333E1,4.930147E1,5.5970066E1,1.2085419E0,0E0,5.9251404E0,2.3989796E1,0E0,0E0,6.379669E0,1.5988846E0,1.368309E0,4.8860135E0,0E0,7.19064E-1,0E0,1.9657841E0,0E0,0E0,2.8997984E0,6.6058116E0,0E0,0E0,0E0,0E0,0E0,0E0,0E0,0E0],"parents":[2147483647,0,0,1,1,2,2,3,3,5,5,6,6,9,9,10,10,11,11,12,12,14,14,16,16,19,19,20,20],"right_children":[2,4,6,8,-1,10,12,-1,-1,14,16,18,20,-1,-1,-1,24,-1,-1,26,28,-1,-1,-1,-1,-1,-1,-1,-1],"split_conditions":[5.2033377E-1,2.6136E4,5.679563E-1,9E0,2.5984272E-2,3.9159858E-1,6.5264916E-1,-2.3445422E-2,-1.0928261E-2,5.5245864E-1,5.48202E-1,5.974271E-1,2.85E1,1.832773E-2,-4.68107E-3,2.5208427E-2,5.575534E-1,-2.5605306E-2,-1.0948243E-2,8.5150707E-1,4.41E2,9.71288E-4,-9.6690105E-3,8.189842E-3,1.981973E-2,7.583966E-4,-1.4501825E-2,1.772661E-2,-3.660744E-3],"split_indices":[7,4,7,5,0,6,6,0,0,7,7,6,5,0,7,0,7,0,0,7,5,2147483647,2147483647,0,0,0,0,0,0],"split_type":[0,0,0,0,0,0,0,0,0,0,0,0,0,0,0,0,0,0,0,0,0,0,0,0,0,0,0,0,0],"sum_hessian":[2.2416805E2,7.6590744E1,1.475773E2,6.789414E1,8.696602E0,8.188246E1,6.569484E1,6.1923122E1,5.971019E0,1.7646322E1,6.4236145E1,2.3068024E1,4.2626812E1,8.77763E0,8.868692E0,2.6375814E1,3.786033E1,1.7504576E1,5.5634475E0,2.0580666E1,2.2046148E1,4.534944E0,4.333748E0,9.888572E0,2.7971758E1,1.3896545E1,6.68412E0,1.2403747E1,9.642402E0],"tree_param":{"num_deleted":"2","num_feature":"10","num_nodes":"29","size_leaf_vector":"0"}},{"base_weights":[-1.4305732E-1,-1.0150607E0,3.110239E-1,-1.0769689E0,3.7736383E-1,-3.2644233E-1,8.10946E-1,-1.1651915E0,-4.3720567E-1,-8.129468E-1,2.4661466E-2,1.0464977E0,4.7960865E-1,-6.1192846E-1,-1.2324829E0,4.6592188E-1,-8.59572E-1,-1.3809955E-1,-1.0324938E0,-4.0144154E-1,2.2348931E-1,7.408808E-1,1.1500043E0,-3.0430135E-1,5.964976E-1,-9.444799E-1,1.9882772E-2,-1.2572806E0,-6.0884833E-1,3.010816E-1,-4.9929017E-1,-1.1630995E0,-3.0762157E-1,2.7702403E-1,-1.188031E0,-4.2388713E-1,6.356313E-1,1.0310752E0,3.1587347E-1,4.63174E-1,1.129739E0],"categories":[],"categories_nodes":[],"categories_segments":[],"categories_sizes":[],"default_left":[1,1,1,1,0,1,1,1,1,1,1,1,1,1,1,0,0,1,1,1,1,1,0,0,1,0,0,1,1,0,0,0,0,0,0,0,0,0,0,0,0],"id":41,"left_children":[1,3,5,7,-1,9,11,13,15,17,19,21,23,25,-1,-1,-1,29,31,33,35,37,-1,-1,39,-1,-1,-1,-1,-1,-1,-1,-1,-1,-1,-1,-1,-1,-1,-1,-1],"loss_changes":[8.899113E1,7.037117E0,4.7439465E1,3.6618958E0,0E0,1.1255723E1,5.99572E0,1.6414795E0,4.4274483E0,3.9468937E0,3.4087343E0,6.6049194E-1,3.5204287E0,1.9021771E0,1.0647583E-1,0E0,0E0,1.4082136E0,1.5992622E0,7.1717606E0,7.567784E0,1.5129347E0,0E0,0E0,1.755168E0,0E0,0E0,0E0,0E0,0E0,0E0,0E0,0E0,0E0,0E0,0E0,0E0,0E0,0E0,0E0,0E0],"parents":[2147483647,0,0,1,1,2,2,3,3,5,5,6,6,7,7,8,8,9,9,10,10,11,11,12,12,13,13,14,14,17,17,18,18,19,19,20,20,21,21,24,24],"right_children":[2,4,6,8,-1,10,12,14,16,18,20,22,24,26,-1,-1,-1,30,32,34,36,38,-1,-1,40,-1,-1,-1,-1,-1,-1,-1,-1,-1,-1,-1,-1,-1,-1,-1,-1],"split_conditions":[1.9618267E-1,1.93545E4,7.288E3,1.5435064E-1,7.5472766E-3,5.899357E-1,1.1584E4,2.75E0,3.3731806E-1,8.5E0,3.9125E3,2.84669E-1,2.185997E-1,1.1702803E-1,-2.4649657E-2,9.318437E-3,-1.719144E-2,6.032138E-1,1.168E3,2.11075E3,1.205E2,2.3683256E-1,2.3000086E-2,-6.086027E-3,2.51805E4,-1.8889597E-2,3.9765544E-4,-2.514561E-2,-1.2176966E-2,6.021632E-3,-9.985803E-3,-2.326199E-2,-6.152431E-3,5.5404804E-3,-2.3760619E-2,-8.477743E-3,1.2712626E-2,2.0621505E-2,6.3174693E-3,9.263479E-3,2.259478E-2],"split_indices":[8,4,4,8,0,8,4,3,9,3,4,8,8,8,3,0,0,9,3,3,3,8,0,0,4,0,0,2147483647,2147483647,0,0,0,0,0,0,0,0,0,0,0,0],"split_type":[0,0,0,0,0,0,0,0,0,0,0,0,0,0,0,0,0,0,0,0,0,0,0,0,0,0,0,0,0,0,0,0,0,0,0,0,0,0,0,0,0],"sum_hessian":[2.2295024E2,7.592014E1,1.4703009E2,7.290527E1,3.014868E0,6.477741E1,8.2252686E1,6.3348328E1,9.556948E0,2.6601639E1,3.8175774E1,4.6813786E1,3.54389E1,7.9638777E0,5.5384453E1,3.012445E0,6.544503E0,6.929783E0,1.9671856E1,1.1821777E1,2.6353996E1,1.390759E1,3.2906197E1,4.390551E0,3.1048347E1,4.893386E0,3.0704918E0,5.2289215E1,3.0952377E0,3.2023637E0,3.727419E0,1.6156296E1,3.5155597E0,6.6949368E0,5.1268406E0,1.0240354E1,1.6113642E1,7.41715E0,6.4904404E0,2.6333033E1,4.715314E0],"tree_param":{"num_deleted":"2","num_feature":"10","num_nodes":"41","size_leaf_vector":"0"}},{"base_weights":[-8.698062E-2,-1.1626503E0,1.089203E0,-1.3130558E0,-5.021146E-1,1.2086626E0,5.309795E-1,1.0264755E0,-9.215384E-1,7.2677505E-1,1.2913903E0,-7.485437E-1,1.2734598E0,-2.5954664E-1,-1.0788286E0,-2.7941698E-1,1.1524615E0,-1.2745168E0,-7.1577504E-2,-1.242554E0,-6.2207097E-1],"categories":[],"categories_nodes":[],"categories_segments":[],"categories_sizes":[],"default_left":[1,1,1,0,1,1,1,0,1,1,0,1,0,0,1,0,0,0,0,1,1],"id":42,"left_children":[1,3,5,-1,7,9,11,-1,13,15,-1,17,-1,-1,-1,-1,-1,-1,-1,-1,-1],"loss_changes":[2.8185568E2,1.0897079E1,6.4572296E0,0E0,1.581587E1,2.5260086E0,2.0475317E1,0E0,1.669899E0,6.7557335E0,0E0,2.8197694E0,0E0,0E0,3.3491898E-1,0E0,0E0,0E0,0E0,0E0,0E0],"parents":[2147483647,0,0,1,1,2,2,4,4,5,5,6,6,8,8,9,9,11,11,14,14],"right_children":[2,4,6,-1,8,10,12,-1,14,16,-1,18,-1,-1,-1,-1,-1,-1,-1,-1,-1],"split_conditions":[8.975581E1,8.6471985E1,7.30665E-1,-2.6261114E-2,8.326E2,5.15991E-1,7.8606975E-1,2.052951E-2,1.119875E3,9.332485E1,2.5827805E-2,9.291043E1,2.5469195E-2,-5.1909327E-3,-2.157657E-2,-5.5883396E-3,2.304923E-2,-2.5490336E-2,-1.43155E-3,-2.4851078E-2,-1.2441419E-2],"split_indices":[0,0,7,0,2,7,7,0,2,0,0,0,0,0,2,0,0,0,0,2147483647,2147483647],"split_type":[0,0,0,0,0,0,0,0,0,0,0,0,0,0,0,0,0,0,0,0,0],"sum_hessian":[2.207773E2,1.1532197E2,1.0545533E2,9.312854E1,2.2193426E1,8.590622E1,1.9549107E1,4.4668055E0,1.772662E1,1.4020738E1,7.188548E1,7.175439E0,1.2373668E1,3.9120345E0,1.3814586E1,4.2704096E0,9.750328E0,3.541308E0,3.634131E0,8.902937E0,4.9116488E0],"tree_param":{"num_deleted":"2","num_feature":"10","num_nodes":"21","size_leaf_vector":"0"}},{"base_weights":[-8.050303E-2,3.1095433E-1,-8.7241256E-1,5.8758044E-1,-2.2003101E-1,-6.7185354E-1,-1.038781E0,8.7116927E-1,1.2708405E-1,-9.367573E-1,-3.7132233E-2,-2.5927556E-1,-7.3666424E-1,-1.0765831E0,-4.4557467E-1,6.924671E-1,1.0298649E0,-3.9239112E-1,3.8353494E-1,-1.2361236E0,-3.7983218E-1,-2.2496212E-1,2.482773E-1,-5.9735453E-1,-9.232132E-1,1.0426006E0,6.8712056E-2,1.05412506E-1,1.1360528E0,